function [y1] = NeuralNetworkFeaturePCA30(x1)
%MYNEURALNETWORKFUNCTION neural network simulation function.
%
% Generated by Neural Network Toolbox function genFunction, 30-May-2017 12:17:02.
%
% [y1] = myNeuralNetworkFunction(x1) takes these arguments:
%   x = Qx123 matrix, input #1
% and returns:
%   y = Qx9 matrix, output #1
% where Q is the number of samples.

%#ok<*RPMT0>

% ===== NEURAL NETWORK CONSTANTS =====

% Input 1
x1_step1.xoffset = [0;0;0;0;0;0;0;0;0;0;0;0;0;0;0;0;0;0;0;0;0;0;0;0;0;0;0;0;0;0;0;0;0;0;0;0;0;0;0;0;0;0;0;0;0;0;0;0;0;0;0;0;0;0;0;0;0;0;0;0;0;0;0;0;0;0;0;0;0;0;0;0;0;0;0;0;0;0;0;0;0;0;0;0;0;0;0;0;0;0;0;0;0;-0.167991854940369;-0.110863311677827;-0.203351756682877;-0.217039981918494;-0.0480138336741555;-0.0188758524839694;-0.0878341252160685;-0.267720352954232;-0.194608746242968;-0.124163676917719;-0.272067616940367;-0.105627201916858;-0.185009211679847;-0.441772520123501;-0.292640356834933;-0.488525808867161;-0.163709234302494;-0.28832541453533;-0.093021752482974;-0.207408125671473;-0.118523546342291;-0.339458288908031;-0.0712369501299989;-0.64321729855775;-0.558890074025854;-0.205210252448656;-0.146271695934946;-0.127169591794344;-0.118895245486146;-0.0796244222503512];
x1_step1.gain = [0.0327868852459016;0.0392156862745098;0.03125;0.0285714285714286;0.105263157894737;0.2;0.0526315789473684;0.0263157894736842;0.0465116279069767;0.0666666666666667;0.0526315789473684;0.0666666666666667;0.0277777777777778;0.0606060606060606;0.0434782608695652;0.0540540540540541;0.0465116279069767;0.0625;0.0165289256198347;0.0740740740740741;0.142857142857143;0.0909090909090909;0.03125;0.00760456273764259;0.0666666666666667;0.0606060606060606;0.016260162601626;0.0909090909090909;0.0289855072463768;0.0229885057471264;0.0338983050847458;0.0134228187919463;0.0833333333333333;0.0238095238095238;0.019047619047619;0.0238095238095238;0.0909090909090909;0.0512820512820513;0.0256410256410256;0.0487804878048781;0.0555555555555556;0.0487804878048781;0.0476190476190476;0.0588235294117647;0.025;0.0487804878048781;0.0425531914893617;0.0408163265306122;0.0246913580246914;0.0273972602739726;0.0454545454545455;0.0416666666666667;0.0377358490566038;0.0317460317460317;0.0740740740740741;0.032258064516129;0.0666666666666667;0.0170940170940171;0.0206185567010309;0.05;0.0526315789473684;0.0357142857142857;0.0392156862745098;0.0273972602739726;0.0526315789473684;0.0555555555555556;0.0192307692307692;0.018348623853211;0.0263157894736842;0.0434782608695652;0.0645161290322581;0.0666666666666667;0.00568181818181818;0.00865800865800866;0.025;0.0196078431372549;0.0689655172413793;0.025;0.08;0.037037037037037;0.0769230769230769;0.0833333333333333;0.0253164556962025;0.0263157894736842;0.0363636363636364;0.0307692307692308;0.0298507462686567;0.0666666666666667;0.0327868852459016;0.0153846153846154;0.0384615384615385;0.105263157894737;0.0229885057471264;1.99999999999998;1.99999999999991;1.99999999999921;1.99999999996239;1.99999999999538;1.99999999999868;1.9999999999945;1.99999999999155;1.99999999999926;1.9999999999849;1.99999999995376;1.99999999999301;1.99999999998321;1.99999999999269;1.99999999999234;1.99999999995066;1.99999999998058;1.99999999996139;1.99999999999525;1.99999999998702;1.9999999999814;1.99999999995163;1.99999999999519;1.99999999998838;1.99999999995053;1.9999999999502;1.99999999996525;1.99999999996566;1.99999999997262;1.99999999999935];
x1_step1.ymin = -1;

% Layer 1
b1 = [-1.4492176280766602;-1.4473532475456024;1.3607155873759731;1.2849987222829999;-1.2383785478129057;1.2317962799041855;-1.1316699483338994;-1.0764964515843438;-1.0449867571603002;0.99544220215675772;-0.77300734340721333;-0.85346204013652671;0.89008386037101284;-0.81079494439815603;0.74944083301550946;0.66668156863822214;0.72694498810277641;0.59318911113658324;-0.54985419425844317;-0.50841809780000868;0.45506216707857999;0.37423085628082148;-0.40223027819544288;-0.32272864161610515;-0.21941701061017074;0.19132222541233218;0.18777614189837236;0.042064277188595622;-0.041293032253755017;-0.036762362798524982;0.038094011208683692;0.10871898396836885;-0.015703932511003205;0.1931620917847035;0.17688169259332043;-0.22716273823191399;-0.29876614240104798;-0.41378795484539393;-0.4083645371645952;0.39983258365872593;-0.39493401685844332;0.4857074503421096;-0.49262790628743275;-0.61525450008186078;-0.77424754643974569;-0.73701045315882163;0.85100258638624116;0.90907070847511973;0.93475825847552063;0.96484741888771997;1.0521740177257659;-1.0654217317109489;-1.0509218585531994;-1.1690085759730335;-1.2007528864976953;1.1885995344115501;-1.3699836697127274;-1.2760358607702018;-1.3779411430097144;-1.4284384263604557];
IW1_1 = [0.23513278175664057 0.21377161689805918 0.12742725585643588 0.018584989530458708 0.13267636412818154 -0.0046178696820763868 -0.15865778923231716 -0.17762064267340424 -0.0972514832222829 0.17190069525398302 -0.035224003242955486 0.041405341382059584 -0.025571272732741315 -0.069075713294806787 -0.11081045612078796 -0.083064110347030665 -0.20205938581212143 -0.13979371115090986 -0.019057377995355736 0.20452732804393708 -0.086778952725368258 0.049806462207315376 0.13380473323737824 -0.12569786776880967 -0.046092813301401747 0.058398675414110639 -0.0050608329751480373 -0.014796174433087301 -0.049907318581808774 -0.062583971257227616 0.11894367285578707 -0.04171319957929441 0.096569675600385152 0.12845422958164807 0.2479728946326886 0.29649688258745321 0.11212966387614849 0.11796376418801195 -0.029689354567737362 -0.1116832141097104 -0.076007393826199351 0.1231627575535823 -0.2077305563252522 -0.1704077299389638 -0.078510031265691407 0.18030010786566139 -0.19136680721944235 0.19781031873647492 0.18655979333480616 -0.062413001722022701 -0.10308997878936503 -0.18437302757131269 0.092476250812409053 -0.13111892541616699 0.0034420402474501974 0.072325121474475174 0.15987383918974063 -0.14626001386311482 -0.13938762712814565 -0.10165937676391602 -0.19540870020729675 0.054142589486838949 -0.06933501010035148 -0.16167986756876962 0.19155245666114376 0.11975288739055072 0.15169832690005622 -0.15174001050334684 0.14288851327091567 0.087845358124352457 -0.010454746617207484 0.083302159791596081 0.18544084665182411 -0.2145097812482531 0.22973851852025881 -0.013100330606174031 0.1823590345249804 0.097766792732109226 0.0058855543740383388 -0.19345926182368603 -0.24533583236107542 0.020841456954556345 0.053475169726172479 0.11898318217908632 0.073450030353579124 -0.087060630393685348 0.065377130844684328 0.037339269093453642 -2.9417612703629152e-05 0.22227800924245164 0.095695371337062962 -0.020272051892028086 -0.028606472950999398 -0.089968385340009699 -0.24611709141127572 -0.17737163543828779 0.026700256124078711 -0.030311108361579815 -0.13784497147703012 -0.057136813954097018 -0.011289899713888598 -0.16061021647221571 0.075496483186337171 -0.16356040268385408 -0.042340711739189255 -0.15212353680272594 0.37929135721298118 0.17393384384607774 0.16679546870602194 0.063751021743580716 -0.23504130587002139 0.16241857943421295 0.20530759338594226 -0.10833140819592045 -0.023606215154297831 -0.041521190255674585 0.33567264189346263 0.31073162932466425 -0.26770648351416082 0.10602545020955206 0.1461651147058661 -0.012271675070213442 0.21284443306479162;0.18828038502587713 -0.16340880031145108 0.066812644931030701 -0.095906638928941801 0.37107574876939176 0.042604951877390711 -0.086279095763122274 -0.078713260854098355 0.027822242785300058 -0.063592097102114317 0.11146747494250751 0.015228192225798914 -0.19535715082113062 -0.14924614963649888 -0.10098553380365444 -0.023431185451255145 0.032338184917517603 -0.11020148815976748 0.089314385920463077 -0.035117799527699729 0.082456312745041546 -0.23206162666561547 0.20934445267060667 0.14491003624820162 0.15312331226623263 0.12783265146488759 0.15476401649095287 -0.031461443298304609 0.03651791764080313 0.11972554642212051 0.047474590867067151 -0.10750990621859292 -0.08633190171912504 0.573716454747767 -0.29177307047602791 -0.54614706636323795 0.16527405780208018 -0.2671434301079339 0.018526523153446536 -0.11598676643810027 -0.71216613009892127 0.19100599889605635 -0.085138560790416706 0.21965572572812894 -0.08714271336124918 0.0081247534095813256 0.19871680670850311 0.16211499110083541 -0.0076604925609442725 -0.0071395545232836458 -0.13301138556704339 -0.03004965959214962 0.026896358985867508 -0.14697107906210638 0.011304930695494457 0.013231930457347975 0.067203054222533087 0.17073397495332882 -0.70710259605010417 0.2956497250481252 -0.020241926252664074 -0.68414621278375876 -0.24722924574794852 0.29663815866268289 0.039667321369041136 -0.08530738514431685 0.024993210049277109 -0.10005675648928249 0.078911303797254639 -0.053469898062985015 0.18849246288629115 -0.20464966165581064 0.058254758083307087 0.2300261540447297 -0.020651856604541462 -0.0043622443916640444 -0.073920164680724057 0.35181279370461582 0.1011698608706057 -0.021749281243055946 0.023199152189252635 -0.2242523590383394 -0.13246955645119265 0.2164276386294475 0.099236312772090496 -0.077042884944694884 -0.042844752304134391 0.24074028744086154 -0.30238837377971178 -0.19239883472335612 -0.43276753727394657 0.027245649109552704 -0.084267336805126727 -0.29248548034266669 -0.017225423554747956 -0.059256814976548437 -0.014649867917618147 -0.23685355519846343 0.25342415656885509 0.1465915547902443 0.12130718287462475 -0.35584229178329591 -0.054486343679461181 -0.10866242997467283 -0.19326405732841997 -0.094823036078155495 -0.033381557274261023 -0.16384908533511588 0.39198917225385638 0.28704359796663059 0.12944851346351019 -0.30389254146011624 0.025236314905449173 -0.16343275062850285 -0.031442209713895809 0.10841679287829575 0.36910939426376738 -0.18049501440921176 -0.22354034253678712 -0.31275393556028663 0.058993634814517193 0.16860545566297711 0.29944432182725766;-0.15779877298950423 -0.13379997723391823 -0.22405587249697598 0.052199711441937503 -0.00061122935382438778 -0.022590280605761567 0.10342569460877936 -0.078199832528302107 -0.23200372458364532 0.10938945397365979 -0.10666936803151039 -0.082340832272659731 -0.18149237136164842 0.1866799022828344 0.091657841440459839 -0.17502394204965976 0.13347228509067394 0.15520341040415708 0.078833530615812317 -0.21329374689894115 0.044957135425458629 0.21672141405952022 -0.14263437994556299 -0.19231005414412367 -0.032888915465495452 -0.15855117118876019 0.091071928164653204 0.045332178909531909 -0.16873502135715204 -0.029028430152777372 -0.16362447208942218 0.00058830772240859978 -0.21830360310911323 0.10269600962053564 0.10112632529230671 -0.12890502861448194 -0.098544114795621765 0.18095282335386756 0.11573903797931236 0.15772817359678976 0.012775516156213996 -0.206302947798711 0.079092049260595154 0.0027135529442503508 0.12444308329197953 -0.10349523388827944 0.11682247898212987 0.18707748369544897 -0.14183492924300828 0.0011160806592851564 0.084273303580816056 -0.22276792249315519 -0.087650266031726237 0.072868701777856648 0.09082423699747455 -0.17593678056562401 -0.038655518290633989 -0.11388585248096041 0.099258051754724116 0.18789770492759131 -0.17843731182163033 0.064901623963033797 0.15103941510128635 -0.2041974937092037 0.032137980227074696 -0.12975870182229121 -0.18897640023248324 0.10103458036937948 0.12206500788759669 -0.23325170568369358 -0.14454125636208009 0.048517792306509558 0.18219379876822778 -0.18220419577575009 0.10906941711850077 -0.16047697858520049 0.14802133311476032 -0.20282649553644025 -0.061265955784141402 0.1750460720511112 -0.01980507297733131 0.03416143100430992 -0.083175795201448355 0.12418389803081613 -0.084632696588129233 -0.23713149639136258 0.15582296881406602 0.11805206418656171 0.0028991184863007926 -0.04513285572581946 -0.19992307270004789 -0.10384130664116659 -0.13789291594583725 0.17451615238780518 -0.082020029057976632 0.097039325783119523 -0.035810588036644442 0.099605793100673204 -0.18629408390711416 0.057263318512370938 0.18892235776307734 0.16924177286662867 -0.064219848044540617 -0.15557549444948612 -0.24371945499031358 0.16433445765997104 0.050917881422340425 -0.060333386100334084 0.11479911277129173 -0.20831710788355542 0.097036329155867435 0.083950286190477647 -0.029404323607530484 0.077206647514133461 0.064756891650223344 0.065743260412586366 0.071166057677619243 -0.034282641755936906 0.13179129796948125 -0.022877907983536925 -0.010592921668151883 -0.141545870955539 0.093911233908117411;-0.063051407492865238 0.0077315315715688927 -0.096719653519655988 -0.046405907569260336 0.23009486314425789 0.20267094394607288 -0.039982878212788252 0.098813631067658239 0.22020608138116518 -0.15934442658657633 -0.0812089656117682 -0.060075300217032793 0.053683840518843874 -0.033008863113457347 -0.058127544985338189 0.094346797642405264 0.17946538961630867 0.12957555958952968 -0.25685832994331365 -0.17592306372354599 -0.17098486648800706 0.17827080553532673 0.073553284404598379 -0.015149390762196235 0.15232721566863155 0.054244344248429589 -0.079513808323205468 0.06009303011374751 -0.030750557711447846 -0.0092280797414236344 -0.11200702724220839 0.21015493521731468 0.05324256889795978 0.22807206068960104 0.18239078014862889 -0.082127261331468082 0.17527050685491866 -0.13049368548410928 0.1548736729944668 0.18183938019523488 -0.24929051360901411 0.094495175803993997 -0.083704432038019846 -0.012230279670803611 0.17833175561372167 0.013825924246997433 -0.1054510781110978 0.041529386707161942 -0.16948378521914578 0.031148903270521052 -0.0741789829938376 0.049999670035736153 -0.091300407719806256 0.064747418831176087 0.040831913766974245 -0.053854600669057964 -0.076028014530816979 -0.21325953974448891 -0.31267361373539954 -0.075558594945167784 -0.1671730380758254 -0.1966173397322615 -0.15136124082365646 0.1256945687654473 -0.093928403082888204 -0.13635992704788641 0.16560280889544535 0.038784115165928591 0.10199658852696102 0.1722391706329193 0.054744613049234017 -0.10514167159891018 0.11335406689946169 0.13039933171568655 0.010178620236461104 -0.09096500371223043 -0.064935502019916699 -0.10073470610154683 0.20788451719765463 0.19760197910363878 -0.1925812938618883 -0.034726352079068983 0.23888438726168845 -0.066858701592480196 -0.044317324632026735 0.052284628453743126 -0.085607914414500996 -0.1413434483831113 -0.18503517234223316 -0.046280572037258792 0.019034422497789773 -0.21297805960259894 -0.12253112355625224 0.097999683233873286 -0.091598658011514761 0.091766891286714405 0.039190810427796818 -0.076879519739433341 -0.27898249268697756 0.083051461663771697 -0.12607486913902605 -0.12121084043667871 0.1609283119196746 -0.24318785441580049 0.084385442594590604 0.015470110608207041 -0.13258359208370651 0.13520688339724898 -0.018195868589737915 -0.091841238702447744 -0.12344988896587414 0.13547265832670349 -0.0182722610682522 0.33084893640574253 0.29801837653600793 0.26906214306873483 -0.022620359277436809 0.12685513282817693 -0.1019264700859903 -0.095608486418753691 0.20906710071740753 0.27475514287188485 -0.036320623351938114;0.24069335573031117 0.033717990160388379 0.025775060023166561 0.025436929806683672 -0.17012059650190167 -0.1705728919123044 0.085900840773971976 0.010828188782230469 -0.18838712618180881 0.17095936458102856 -0.097551726036204767 -0.18433681213674971 0.0048299194052229041 0.27807199110367814 -0.14660365615182092 -0.008760209967015457 0.06825992475189227 0.14991142912245353 0.016613863311430492 0.17088976075001452 0.097165958127361673 -0.0774797033253012 -0.15056907598565414 0.11608155875061069 0.28075728195046579 -0.1065473546274848 0.112978906827801 -0.19484053143526472 0.11274702475223236 0.11497202254923813 -0.12825755482001067 -0.163368280746298 0.10881863266575158 0.21997285263356378 0.11636329576659948 0.17413320566760673 0.15992034472797931 0.02646050455701851 -0.076425267163973951 0.26412738295235372 0.17305472440660405 0.069588794154995151 -0.09540922393624264 0.18421337704696819 -0.18753447254621319 0.090621318689652217 -0.05679250779639327 0.066508677032971475 0.10131394088444963 0.21482674120290271 -0.085607772853946856 0.12238563093104347 0.22430356773237103 -0.23562040868127887 -0.10036410006667228 -0.0066298521411271736 0.10623740683012019 0.046081544995485738 -0.18231173456813024 0.097181892057983429 0.054145396236745233 0.0015718084041463978 -0.12114960463389794 -0.2829612563189941 -0.19883669137443488 0.15714975132007875 -0.053358029937197821 -0.075571524183001781 0.11023778057192152 0.10965661875902671 -0.11978669700945795 -0.092446324033891858 0.11002224649311854 0.082974149459069127 -0.2157681105939363 0.023706178556158166 0.19382061370721207 -0.11583821785495962 0.20229760057744045 0.14110962513573871 -0.22698381681422225 0.053159933516209519 0.072855602954816509 0.064134666103256077 -0.10809730066263483 0.018607823021751537 0.10618289957757913 -0.14564703257029452 -0.16908611685493438 -0.11051285999861246 0.02918670279625489 0.012471795509319768 -0.14139368602961866 -0.079104513908619736 -0.11704693141040433 -0.29769885352531728 -0.064445994899020601 -0.094736468754830105 -0.14538143024659789 -0.14195403561844025 -0.10155842034130379 -0.091935675729203206 0.050891394888830786 -0.0015353057586299681 -0.011007248813054364 0.0565440255579868 0.0016761435550651899 -0.13593580997832952 0.02545674925421355 -0.28445771425234179 -0.17741968161121316 0.13002785958074953 -0.26326166873083795 0.043564942171230456 -0.14593231121361716 0.2272599179699562 0.36824621824391052 0.20548360762673387 0.13469157788962408 0.14759862147233749 0.12969228709550598 -0.32823403529649314 0.0974335086301997;-0.19549435949570987 0.0063083342487546996 -0.18852180421013315 -0.3770406271661827 0.22404242800183236 -0.039398830736306963 -0.24990048297124576 0.97344000327953117 -0.012223880801900299 0.13055343050965892 -1.31911422204504 -0.22984327054281431 -0.20428088359887614 0.7424251613403493 0.87382823322091774 0.17358128414904761 0.10332002999023858 0.022776130353204978 -0.41490443644342062 -0.12284137947791517 0.072733620964255757 0.075226577017583382 -0.13541622965608519 0.11132491569142634 0.59444353513403758 -0.25460587700228621 -0.074492566024944862 0.022041727747489453 0.076617949500241186 0.43961642484225283 -0.28527092698118289 0.08795476361180507 -0.05865162914311587 -2.4503760668591301 0.033309561585687118 1.3142994108121366 -0.19011851762257523 -0.09298310252233917 0.012689305751004137 0.8480379132461443 0.46098469501470174 -0.77587612000631301 1.3662699629579178 -0.2628265348607367 -0.097477655143101957 -0.19459863426709181 -0.74175054785679584 0.37595450546821502 -0.14277642397029713 0.15459051536420942 -0.067302494647126551 -0.065612659968052461 0.52306012873256935 -0.40503421981030358 -0.16066695583135901 0.60800908534848663 -1.00325435420367 -0.41746074766039853 0.54803626621937984 -0.57033772837804353 -0.45210687038830683 0.9171185125969582 0.31984642612780306 -0.45254131084446836 -0.13277561779586208 0.20275495531318702 0.43323607283312582 -0.75882439151839121 -0.59598936454056184 0.30047101981973445 -0.24551025692947359 0.78407818450040967 -0.28646823155059586 -0.22148992625413844 -0.6719273453872785 -0.2333039673120002 0.33774321639610216 -0.1519388000386262 0.16540787370834575 0.042963328435141751 -0.12842949362629183 -0.2921085554381867 0.38586854804702497 0.10105278269394481 0.73227813460963831 1.3167648214734577 -0.015535296585697623 0.63355152759961808 0.31430641696166634 -0.22006071342424108 0.73837314690732569 -0.42976307500337696 -0.560392134647136 -0.11550716096289296 0.044368389045947129 -0.04434058012786711 0.051337153030441479 -0.11643479412255436 -0.009740648024510655 0.14486423881537164 0.029923346117348742 0.1124672284539748 0.042512654996311537 0.15770649971965697 -0.068257363405138965 -0.009754001987981209 0.081347633887744297 -0.15288508081457594 0.14724998212280713 0.12134670540289517 0.032223458127818856 0.016809925217883222 0.02281606264894805 0.022612626103167228 -0.060138730837254094 0.1774061444338369 0.029727982627841085 -0.083086695793420803 -0.037392764671317684 -0.089281409915093993 -0.078346578592145485 -0.12528747106991736 -0.0032731093014633701;0.1791430163335174 0.05257448971517957 0.1560180997456872 0.16180129065154358 -0.13233673749296321 -0.068847517704676786 -0.01748164658164859 0.1870189238461076 -0.13187223241987567 0.16060175339433383 0.10449618099300145 0.11416088244747311 0.044741282142152394 -0.09431298054646832 -0.19438211361453378 0.039319200050273791 -0.15089041531202416 -0.21646909062929673 -0.23160166658368087 0.028440666804913986 -0.073710539659060034 0.14581445127381665 -0.02059250495829891 -0.035767267803196966 0.17577198625676535 0.080279828110379203 0.095294074167088072 0.11385329186049377 -0.21632527170397606 0.17770894751626509 0.070711945136117699 -0.028509682292096862 0.027611787102045246 -0.17109079649723191 0.11795112507560987 -0.005351970468899043 -0.24082390855231445 -0.19381265010091786 -0.11974985434665307 0.025280075699430301 0.080851321540279283 0.031463988560318387 0.0806636998803692 0.12251656573867201 0.17865825583765971 0.14182227499694208 0.10102526286692314 -0.089430398129639696 0.049847960010874062 0.089621676214856047 0.045103014535790853 -0.097070056453124554 0.10515436828613073 -0.048146320524660474 -0.16853035360409424 0.2085175304346914 -0.0019101699465859084 -0.22536655739933212 0.17748169958124452 -0.020075175588259209 0.086655147617207925 -0.13718795406131834 0.0025304533884160487 0.12202946969856739 0.098712976095458677 0.014439147416442605 0.19438029160681622 -0.075998782195302983 -0.028215180667898614 -0.091919057391522618 -0.24407827315911393 0.0049732010029468069 0.18553713692252033 0.066086981526999655 -0.10697442229475077 -0.23607377205899605 -0.20118937498554823 -0.21125381122715647 -0.10220220904334847 0.1621415519591855 0.12618108935015629 0.11731020113544914 -0.22753443425984973 -0.097437419242767165 -0.083726247029067141 0.072129367507446723 -0.12587046970674742 0.1133992200624909 -0.10100704566419376 -0.058632984074147097 0.10473119783124772 -0.12267699547643307 -0.00095985362896756584 -0.058336232315229365 -0.02076022588589764 0.1789142461305876 -0.04630839712295412 -0.02026962682319201 -0.13615087996399236 0.12028459483005209 -0.16997348401863988 -0.034747006394112906 0.12102151131408126 0.22068585429754312 0.066434360870608236 -0.15885706046918044 -0.069832031595664312 0.072082530534504433 0.017058508969876943 -0.2043233519364217 0.059526710738360696 -0.14453530373783419 0.17975701696709337 0.25278566674007114 0.028957203642137108 -0.10781932070249095 -0.09809862311640484 0.0042495539593673283 -0.26148904334190326 -0.058975491283076949 0.26122417837931561 0.21023358965540667 0.15983474613653748;0.16002449700908075 0.079852365420395463 -0.12698170023250829 -0.19715158418162204 0.103386522909513 -0.072550758893128203 -0.054371672959066732 -0.14104263474439291 0.00077411932469156636 -0.20528723230788429 -0.013268750245784236 -0.15725172715693347 -0.21889374135617767 -0.1098330373731138 0.074892129533127363 -0.13114914388829704 0.12373378478385388 0.20453271314180166 0.15457694919318943 -0.15725002019166237 0.080514750135315366 -0.12756021047622132 -0.02969058333102018 0.062328581531114681 -0.066286392183660434 0.1887257692712149 -0.0076386700306848828 -0.12564415543897631 -0.079121444702749469 -0.041394025091480741 0.13805551073093969 -0.27435305463673565 -0.20290636546149696 -0.13412247445856978 -0.16527905171274204 -0.14155816192096601 0.032333773660083033 -0.16232336253787671 -0.070009715129033201 0.057793773521630953 -0.20283570892502253 -0.18828945603633851 -0.20470390510574332 0.012828877577082671 0.11926787608676068 -0.088595257961341808 -0.25396484743474562 -0.12215046132493868 -0.18477883729866318 -0.19311663513139765 0.099690110895889014 -0.051605186382972852 0.19207788880939677 0.033760418480395175 -0.21404098702683058 0.050795456840004354 -0.078209389725982584 -0.14340204716832852 -0.01841721493833039 -0.23772715931481564 0.0059741128978995899 0.13046060949022006 0.19164261476393202 -0.054626525098625311 -0.11851854564160832 0.075939566298832833 0.060074916395379402 -0.11363765363226733 -0.15754292783605947 0.10594882953812525 -0.062056073376460422 0.021970593088373479 0.16014247261833722 -0.079510894825716022 -0.048873278505397438 -0.026800750448146466 -0.060541955406107135 -0.017073136224893998 -0.27248726642742638 -0.23435299071723345 -0.20146904996757806 0.065741958365128444 -0.12869465904968033 -0.027571698795802319 -0.13404489109681456 -0.12328890224757336 0.027761673181046911 -0.079173078362865731 -0.15164270633851787 -0.06194842515994145 -0.20491822287917622 -0.22222403512224409 -0.014495147298028668 -0.13056568539506896 0.084677588168064172 0.026702478510706763 -0.15261159740672711 0.053300147848106723 0.11132878191030864 -0.13365977859629391 0.18301315645635419 -0.1051080127603442 -0.0091676616330805902 0.093472966657672629 -0.12951609423251656 0.0079707550021357512 0.16654693136129756 0.20088560471684308 -0.17181461172747353 0.016717330893121385 0.17369699604882041 0.036750396142022759 -0.070870577065228937 -0.010921874986173679 0.26458577818308232 0.16244686877485315 0.17452358712015414 0.16502899379401351 -0.017627576923270522 -0.0013635282262550326 -0.20899274311042818 -0.085888083844179189 0.070831206858341489;-0.04318512293131993 -0.031080226237644167 -0.005196734470136904 -0.28145231954736039 -0.11281829491163968 0.13076722387171003 -0.047407959860259474 -0.24051378613467378 -0.037323511775576107 -0.071729278908998759 -0.13710852172623847 -0.1566939651716148 -0.21951471577270906 0.09559099401806806 0.040558292978923209 0.31505074531290345 -0.24144239697995315 0.12809014671976623 -0.17628283045571783 -0.097414809420054552 0.070299582526500898 -0.14715903024193827 -0.063017550456024779 -0.12328335661373774 -0.061156605848372299 -0.13412849362708401 0.19530546978367586 0.19524456534481391 -0.16910683024480164 -0.14928130931947223 -0.25861692554602111 0.087084563210117358 -0.045728302075221695 -0.90038743398797882 0.030335913456344458 -0.30630463308369515 0.11734608409728486 0.25378931360939716 1.1325191184143533 0.15943668179683787 0.0023131878452525186 -0.58408870850869554 0.34144083859464192 0.15184015269257967 0.47287271654224683 0.13504631110192969 0.046372513204164786 0.60303310553737166 -0.12234270745722271 0.45116208422235382 -0.10328819074776235 -0.19247057832007067 -0.16993894255160794 0.01287911746659387 -0.084661566519792217 0.17371644477551187 0.1085215866115519 0.08888874982491754 -0.069119246290655967 0.031886793607858677 0.11632109573216075 -0.017633976046067559 -0.062368286501025397 0.19336970327538683 0.13914566203251516 0.055288638889396641 0.11328469652658282 -0.15326639732755687 -0.07457587612187648 0.090892694809677141 -0.3042677575322274 0.1569813062399375 -0.17920874220536503 -0.21517733332793529 -0.31303829650889176 -0.24718042215713276 -0.029284698240225504 -0.15992992157824062 -0.20638219642768213 0.060775581007406564 0.15038655621063185 0.019069920291795914 0.12841515116714147 -0.021118440344160667 0.097632079097111357 0.33626404494018702 -0.091155201838194602 0.24233109559493066 0.080683581410501026 -0.24122333847627464 0.12565710806938116 -0.50580483181627056 -0.22854929539070601 0.3356689107012541 -0.05349152554502902 -0.016599442581464445 -0.084119799417119515 -0.042235289670762031 0.040549428020227589 0.064056314992562924 0.052399837315771143 0.11392324503448828 -0.23817354879861041 0.10234553743349348 -0.010787682121204543 -0.095383325925713747 -0.12000531928807104 -0.13302613325788951 0.013294000798102397 0.30383265993681285 -0.01277893691884169 -0.28139759778035967 -0.017652337062217045 -0.08697025178013261 0.029978508966883921 -0.056170471608067866 0.15859863278950531 -0.20963065870333325 -0.078834836359687896 -0.016987904598495623 0.14629848819067878 0.18319580474338237 0.17781222296158367;-0.16497865715611837 -0.17427655166729319 0.12714072894880138 0.18766049014430192 0.30145863615956953 0.17913356175781259 -0.085068183880214421 0.17349663498681187 -0.28180337565621871 0.20440745229773952 0.037786765391561269 -0.037700715158406013 -0.014132564315668245 -0.14169210492460846 -0.12398388715668913 -0.14962444653638438 0.13789501799449855 0.084488905599766462 -0.19254774167149974 0.18198758070353663 -0.14312754720542037 0.05208828965917546 0.0096103674172600909 -0.023433776674777911 0.0757359171678718 -0.034153573957611129 0.068045977461055798 -0.073593084532580774 -0.1250752820942734 0.17379973315572012 -0.067560325156681963 0.032172891634748249 0.060185540942054194 0.048888556071002419 -0.076756651641994689 -0.12072796994970611 0.075956348535891532 -0.14705481535548023 -0.092656024832032724 0.11616427933728685 0.007821647067758836 -0.27793390452929956 -0.064488932885890901 0.27365884251286748 0.043935654040102613 -0.14941141001979574 0.038663187844680619 -0.042799977326001756 0.098122248178303603 0.044317001181742879 -0.084032479718145425 -0.035121692148979575 0.26099271419505526 -0.07350789671875374 0.21041314133225938 0.12378545381617907 -0.25719607578471348 -0.14851929330967184 -0.2698370862878825 -0.036186253344707424 0.11468139498893661 -0.15425406301349234 0.034913407728388954 0.10403260926462628 0.24007591072983567 0.31500256954198236 0.05246381613729878 -0.16717008825640847 0.034565271017067793 0.24071494493478496 0.25546367503434558 -0.045074233681997429 -0.10044798298259687 -0.079196586542795433 0.1088747796187598 -0.072633185764883118 -0.10252537192679827 -0.11645977143702659 0.14228160436455892 -0.1879860875276472 -0.12251165936553955 0.17048397756993777 -0.075138360063290291 -0.034745038970128886 0.13000279718068497 -0.19671142793321802 0.10088266197494682 0.046236007867296681 -0.054564959669620744 0.071411984150422492 0.15365138854631261 0.2142917657545754 0.21446205639065921 -0.18651506259869777 -0.0012423007500027901 -0.012992038383927502 -0.24712428806257722 0.52187022913803405 0.32690065720367106 0.24902460373389829 0.34353391579150955 0.1471046462414278 0.036463139900405672 0.025364683546106409 0.09143592977113868 -0.14818907316005309 -0.052495343177989068 -0.11661177939713996 -0.040731376181602212 -0.18266063854001202 0.079266795396058673 0.28945984788940332 -0.10273685566455028 0.15722588672856019 0.075173282569595073 0.13029047472588548 -0.15073614347183786 -0.1652385820963142 0.067114872797926203 0.09380799823527082 0.17048115441659772 0.066214500353241001 0.30087613121137285;-0.20777023952203655 -0.12832591849230079 -0.11417295502058539 0.38010261663735917 0.011351520563099118 -0.013785297116646935 0.2069144100101846 0.030231283742358939 -0.51720742828706179 0.1131240692016154 -0.9634907669999454 -0.15142318140404282 -0.53675210736298007 -0.19626794040559298 -0.7967021206452729 -0.21701534109589518 0.11709091721300029 -0.12988526686909288 0.39618016432568348 0.34683171895591119 0.1085290213229185 -0.19397493384883466 0.088458924367325886 0.21313767742562731 -0.66582156894977507 -0.21992245143605821 -0.092990944453696309 -0.098145668988628795 -0.20801529526054122 0.0012505323242504027 -0.012082543077277481 0.24309427791595711 -0.5211173516462656 -2.9165069755670352 0.9388945946914502 -0.057728615444574596 0.4931690513280868 0.53989449677696832 0.97529255232271472 -1.1782379950135202 -0.14831588997731712 -0.57709919896421169 -0.79796415936520892 0.26132820345308794 0.35129033503325313 0.044678295100246991 0.63936560943744225 0.17852971835992962 -0.27231589964366659 0.62398873846669134 0.059172347124384538 -0.10618680727999778 0.021882966045194501 0.1272102325587687 -0.058943313234867345 0.75337655730040021 -0.073731326203316599 0.51858161852394602 -0.41261955195148681 0.12075391703358847 -0.26514643815831418 0.15105546446741458 -0.17423154414358785 -0.050595843190780379 -0.13534846183666921 0.36597998772739948 0.48300432054398046 1.160185735426146 0.59916535708237906 0.41437937430987815 0.43946179364934079 -0.42053351988862053 0.1318926736716865 -0.37049325242237291 0.5966671875536832 0.28822468240830734 -0.24165162428196668 0.2435526910206692 -0.01803652581170179 -0.0088863684646506257 0.2912291022909711 -0.063252194520647162 0.016324870850453473 0.044175358931899937 -0.59882927793185936 0.041313063063366573 -0.34936504358179271 -0.024823306855852781 0.18907821092569999 0.51383922234976553 -0.52115917520856847 -0.13909277216515542 -0.4110236874988567 0.044301720877443093 -0.080544896241901823 0.042039726457831939 -0.12563156769561998 0.01176507950672597 0.0055839385799521472 0.020184369168776879 0.015316786346416946 -0.038887979710267501 0.13316114452522732 0.0061869895285183649 -0.0059600997411641552 0.054513871354659488 0.00386284455244763 0.013281855859973248 -0.040510516854143017 0.039316601410767628 -0.008687001256329388 0.099295488162017428 0.098969007532241984 0.066411618852845855 0.06594116039875754 0.062617633381910301 -0.079920631208361848 0.1641086718006505 0.071209809894708251 -0.035225228575454987 0.029298469043201304 0.044778696344487237 -0.023400216865808905;-0.032214796014057107 0.088453382131886943 -0.068480114794824701 -0.032773534857424874 0.14775267130091113 0.057107722676224389 -0.2327945029084196 -0.18392278706376952 -0.013349085114487139 0.057504307398336521 0.024268933245899144 0.15822122468549016 0.16360852471657675 -0.25392434018533355 -0.18736111065785638 -0.00048784271254462811 -0.19312416254315498 -0.17349748167841272 0.11741185922935608 -0.10776332145544502 -0.085991658790118636 -0.02124509105274032 0.16699837391264447 0.12267307402424744 0.14072000131661591 0.0034734901215429707 0.070328108687270213 0.17357816310816229 -0.23707297469290578 -0.17715809607061017 0.066339835818518073 0.0027236505660301743 0.10934746885269558 -0.20334262226077948 0.15042297761733972 -0.2187443322882234 0.013920047254762338 -0.12192422955974339 -0.15076720943515079 -0.068253662552577685 -0.15662528993267974 -0.061740767973858905 -0.017159220757187055 0.036763072410396926 -0.10478386533208588 0.10326836139662129 0.053808464751395182 -0.096480146910357237 -0.10704951552876857 -0.17478867930121372 -0.25780387254113368 0.14344198405320521 0.064970509565103238 0.038580764907715781 -0.2667516838599745 0.049820687153276741 -0.037632812096948152 -0.043962830620882888 0.039267391860371495 0.060909598912687289 0.11010460677272872 -0.18844864475848069 0.12869727091170369 -0.20565615000633675 0.162538868572114 -0.10826605618424133 -0.2514670440139522 -0.13843588718212579 -0.22835131686837071 -0.2589596321949662 0.13015290321832884 -0.11304604913794737 0.13102841698683754 0.032162434918190083 -0.099135074973804846 -0.14614431275821968 0.053551889861272475 -0.23636495891231671 -0.23363354100707259 -0.10980663418338041 -0.24335172242061839 -0.040891907435401782 0.03086255498594621 -0.21420424863566342 -0.12942821267427138 -0.26816671079142007 -0.20257453282167928 -0.078005375264637855 -0.063047283941096099 -0.25642990120303211 -0.26589927583638412 0.096762617212240692 0.16017238678253015 -0.14001031865383567 0.15818101170772075 -0.16426335854139465 0.056913747509131238 -0.17056487623697456 -0.17492123324740974 -0.12705658821534557 -0.13817034940908049 -0.095846032509757775 0.0080892013888642124 0.15732441721409213 0.021060898548784898 -0.049533137649045052 0.079415422033589783 -0.09459020977619377 0.0056173207901176192 -0.068720646736031565 -0.18291238769258697 -0.034053560988016457 -0.095086129962959356 0.10420370518165673 0.080633593326692315 -0.10659444436371929 -0.1030939762833388 0.0081931571861978917 0.076909221237380559 -0.10952342636436879 -0.02132961557909132 0.06945040205619063 -0.060339714269674702;-0.15831035539252164 -0.22774099480210749 -0.091465005830622462 -0.13333327030726569 0.13035991553480072 0.077328749270260275 0.17150064887480207 -0.17498692874371477 0.091779181149555605 -0.1002562329528492 0.11956531056426488 -0.12514832919363539 -0.1286378816559432 -0.19783870183042557 0.17307060584035081 -0.065267728551657883 -0.031554162935146401 -0.16678606328398954 -0.071726105757090819 0.053308842736617401 -0.028626105731162841 0.099891095096937901 0.14620785815534801 -0.20397729507030785 -0.073455826511522562 0.043408442609358291 0.15893553002847199 0.068891855710868727 -0.12090386639789423 -0.21299605072904065 0.10934754961549822 -0.2406898086015786 -0.13325135978549277 0.071969400106772774 0.08693070090200665 0.073495790080673765 -0.17358880941095292 -0.15517604414578751 -0.011873983249133148 -0.058354234231285877 0.13164475239725068 -0.16940774241876083 0.15434544059083732 0.14078805391534352 -0.22874064380903425 0.1495881876390559 -0.23578459881076033 -0.16328762934743973 0.15861852459802367 -0.19029219798594857 0.024952330585912837 0.062107911626785743 -0.24800572774541835 -0.00025469820451269723 -0.086273332383706242 -0.22638058262881652 0.11715578124970168 -0.20338055981540634 -0.0023378375237938596 -0.14918111746537796 0.16125166881721115 -0.027889699566496173 0.039364968226327783 0.13846345343713731 0.023091717202365629 0.15570617440808815 0.046296827587128789 -0.12498074754113747 -0.12655802596694932 0.00053518721431477471 -0.12530531845798795 -0.20542248873972069 -0.18428734990036968 -0.14467077748645588 0.10761556647345435 -0.022827806998149139 0.023384805264179905 0.13836487012844978 0.077349781940938528 -0.12667003205933905 0.12691812296255858 -0.15006141702763048 0.15636458612578075 0.13331298884231046 0.099387763399274548 -0.01323920168708176 0.048483200338244242 -0.051954711963465891 -0.10168823542790813 3.6190551963585004e-05 -0.20454737749846408 -0.064924896920018099 0.011934043734636338 0.04689975608062491 0.14612184856194366 -0.21107668507103464 -0.17304790436904155 0.0036783276032784479 0.095710620931046236 -0.17201932231217865 -0.10520597277558556 -0.18706211807467185 -0.22394354937321909 -0.14053140435220593 0.043356866761653241 0.072401090916034139 0.15976940138803439 0.024163539486135744 0.077489633571741531 0.17992220440906653 -0.061314560494934896 -0.032204165439138968 -0.028572092368063184 0.17966282221138877 -0.013059987168274162 -0.13221961231106477 -0.12431323903018379 -0.1707201580589395 0.10206773478459374 0.17359634798885057 0.055628093569730058 -0.21645173312718619 0.013582206292112774;0.15443212144965762 -0.18687637744041888 -0.030598874354513705 -0.19755928780969712 0.1114295699085936 0.12268210458316579 -0.094614900003562388 -0.10382938958106315 0.23821339682891704 -0.16764129211711323 0.12824277491433431 -0.053462301681659274 -0.17343816622152722 -0.036849957079676608 0.12404154203162901 -0.087065929010902127 0.20187724430553924 -0.19656321825004641 -0.16265981076691646 0.0026306123565468763 0.19880605135943138 0.12043331736708948 0.04365892828249434 0.19977473854741865 -0.080496833190267097 0.12223440848230915 -0.075057063803298602 -0.17607571092532412 -0.21481398298150264 -0.16276876863397854 -0.11306890209001447 -0.013287106033081189 -0.098028862985617582 0.1475929596435146 0.027859138006982503 -0.17759937557624081 0.13378241543401534 0.11777318208581669 -0.1110371109109056 -0.094980338569484374 -0.05474898542285276 0.11781839628461947 0.088712256922672622 0.19415617386680886 -0.10465134377646453 -0.20980894337516887 0.047753192899597695 0.076176848429881525 0.17303992478501776 -0.13588596549754867 0.089375247094487104 -0.16874886390197405 0.14052349600945796 -0.022468067511024863 -0.076956290632771124 -0.13078339839462863 0.019948891395770364 -0.023203379645625882 -0.093207459631962031 -0.036871290048339299 0.1869275195008657 -0.12440493019753665 0.029636854424282929 -0.0022747437618691052 0.079119292172104699 -0.17477291941634465 -0.068233075044306979 -0.11128082888423477 -0.01801434880426369 0.10649766219472574 -0.11635214361171818 0.24917400089971758 -0.06183498938751756 -0.026024783145781175 0.16890423928258749 -0.15993262458602209 0.13591560254988014 0.041946191651202343 0.16905897514372606 0.082050443593851913 0.16728420534353361 -0.17822024075879753 0.095605265681989321 0.2344058455428476 -0.040518199385461612 -0.16428425251341297 -0.015664121721879781 0.17079742385276489 -0.20566012559628441 0.025755188418014288 0.17523302619856124 0.053947160630234942 0.04641861608758012 -0.021369209188395279 -0.040087794046021488 -0.035553860086241611 0.037498804758743481 0.041330740153121361 0.16132755838179508 -0.097516101979002887 -0.11655685589665141 0.18836348251252996 0.025043790874630864 -0.0017228339040209787 -0.17266698656574458 0.011092359787704424 0.14989038008422786 -0.10304453670583499 -0.18251800582672195 0.11349607397279014 0.20614694778624082 0.0288867041201126 0.23799155456992671 -0.25582785184946472 0.013099276503803851 -0.1387855111913143 -0.31469367003847382 0.12909647991655951 0.34717170529469232 -0.17761765797510071 -0.051067495554066734 -0.14014323731616071 0.069161005366115844;-0.13388073656237348 -0.02694535918161859 -0.035667710950771647 0.094834502285144215 0.041748982635441648 -0.021392605751279319 0.24281942445373558 -0.15854891307001381 -0.14369676974235474 -0.17450354304428728 -0.22078838121973948 0.22009075121923632 -0.14507597283812637 -0.097316217234700075 -0.0036527400310613005 0.18790257371792576 0.05354050948198117 -0.1646476992892219 -0.13003045561691146 -0.04032699187784658 0.013480043857246531 -0.17653536995055866 -0.14240855858578808 0.079860180941426162 0.091185234358487424 0.012495002499600869 0.15190076291447974 0.14082366121015402 -0.2053614293346297 0.032963609057152975 -0.17840899298915308 -0.16504776901664386 -0.048504792609099366 -0.24623429047437162 0.142749073557809 0.25652062380450585 -0.059478584390820814 -0.014237706652788739 -0.15272998251812039 0.0530662974412646 0.28082316435353827 0.10294653869930009 -0.041438399563579413 -0.12126772510458689 0.080875343160190002 0.16812336027893052 0.18196923376611698 -0.18051495797851524 -0.016685761171669127 -0.0066373231910354892 -0.12107669978069516 0.13348720363972671 0.023024415019628021 0.12658074887535095 0.027945905021937029 0.093116820098558303 -0.14740212533731353 0.020505281126822816 -0.15294096698631582 -0.11403053688808915 0.19891502249345155 0.087344987806033336 -0.016614980053349084 0.025435673277268041 -0.011905899618687254 0.13367691254529848 0.13148011052894187 0.28975719899369168 -0.025200052316067968 0.1501134917870128 -0.17010077925553779 -0.20447864273687461 0.0064861387076815599 -0.07667488598227308 -0.16197155988853634 0.018648194001739189 -0.049649434893148568 -0.056723870495003249 -0.061046755073506924 0.19853459737524165 0.0049236902157618325 -0.092204344711965161 -0.16104471900115247 0.21553748173267301 0.23761243843063051 -0.19879273350092078 -0.25156986060057396 0.12037741582192804 -0.064658566541855575 0.1453322164385378 -0.11727914718176533 -0.028801227970667195 -0.059156873013682963 -0.086825598180880079 -0.15513391751976555 0.1330707082266929 0.020292623068845828 0.02083834905826943 0.17846055581043113 0.011893576659762539 -0.029879447788574692 0.12229738145100043 0.1967724232935836 0.17682888134468899 -0.16024153313744152 0.048223433082654421 -0.098023615294200978 -0.16789212147679453 0.0059869302888599929 -0.03534656159047278 -0.035720658759833906 0.25577333320172879 0.011583196972386568 -0.20935044638662423 0.10565855787449586 -0.2200489130902171 -0.58695232304650624 0.11733843946492202 0.22370503659457691 0.043573797304763032 -0.086507078834821477 0.082111973773439262 -0.027115346903331759;-0.30577219920916088 0.16344244750030762 0.20358392757525334 -0.31282329859010238 -0.055959153898052776 0.041865199403305658 -0.13735258494776559 0.24754989232224595 0.13173738918081238 -0.19296129352778613 1.1014934874684836 -0.019746849845119329 -0.42961278903445832 0.089139098239125761 -0.25389277737511801 -0.24836126502699268 0.15842787276371478 0.08369359447071259 -0.28654947412858101 0.14594747298900557 0.12388794080788247 -0.15519550413701316 0.22750905848645445 0.1781023563758648 -0.27809879300492757 -0.16283233611724288 -0.029141846977788387 -0.21853163532402023 0.035038704191576335 0.24978895366760251 -0.19980635558628101 0.42262273414791524 -0.39951813022721816 -1.3473220724888231 -0.5127909511793256 -0.22748926363894692 0.17850755844651248 -0.17581291378318198 0.81790475008888397 0.012932513693419573 -0.79955852025099194 0.45949705637693306 0.026866784496715562 0.18115126656072805 0.24294190010546177 0.23576582813899677 -0.08717571783903677 0.27239457714011672 0.21362730084218234 0.47863216980916123 0.066985390825232582 -0.2750911700825916 0.35957644124668753 0.14499712534774392 0.4793356884870788 -0.12999199784300816 0.4205684118029715 -0.6661450634941456 -0.15355803324546177 0.4698881417794748 0.01379441681204936 -0.44671707867294613 0.026927453331438974 0.47801818499442017 -0.014415986028703582 -0.059146021541797024 0.60691537595435652 -0.61639210075645345 -0.80252934857692282 0.16936121190270925 0.20218253916913934 -0.13635231478802995 -0.25762304294965616 -0.09030580432084806 -0.33386857761448174 -0.16804383757814567 0.2211896363040354 -0.28241543383267592 0.26671752257446085 0.12957430604792869 0.074208423883505598 0.05050012136526718 -0.23346178145051519 0.16209011063907119 -0.037442110001368351 0.40658961657875831 0.51498904815336433 0.10779442327881954 -0.27680652467593025 -0.59291138206250404 -0.14490726665159667 -0.079396831127371101 0.38817082536415942 -0.098024361656332631 0.14793986323005967 0.0088036048230570561 0.10922370960982186 -0.10271992328373847 0.15507587596954386 0.034191719973666344 0.024302959363526336 0.23774638538257328 0.17792422438366295 -0.0056282164167075436 0.076965092920131054 0.020307731464565597 0.021149479666378507 0.017824598174752345 0.077059091188960788 0.13359620373587106 0.08291020259056843 -0.081370659638754242 0.10340398728764652 0.0053448521859961289 -0.0034680461378106854 -0.035337676003310572 0.13182397027832349 -0.045218751054893619 0.089505588650759457 -0.030462694270999149 -0.017137315389038649 -0.089316226878277769 -0.038322412608183115;-0.046126632184798427 0.030283773387342526 -0.03877133600776568 0.16230922093662042 0.10263513248268659 0.15522134122809525 -0.066530022352654331 -0.05252180661045891 -0.42252931877789368 0.16587085435532969 -0.51620977407620638 -0.0012092131991541162 0.30631452404649434 0.053028045002981798 0.38020252387277387 -0.10274509976387922 -0.10606730202922766 -0.18499548467688309 -0.13318073295530167 0.016547941539850178 -0.092742644320143508 0.049788455873509288 -0.048853110308223986 -0.049664828942641362 0.33184701429251479 0.27376809793235929 -0.28926223530949779 0.027760582694406528 -0.3389637883963959 0.1202090382766811 -0.078112318338204326 0.015201366754255484 -0.174085601553056 0.98561099831038523 0.17492406652554499 0.13053601572365683 0.28674390630911156 0.028241548860654459 0.016299010237718053 0.043461884935172966 0.01955449772955049 0.36322351161733185 -0.40941850634267768 -0.05587624577986975 -0.25435616329987948 -0.15683111288333579 -0.1307186739488469 -0.048394548145241113 0.069628541955383205 -0.020149438615364897 -0.089405585842296617 0.16910808229001933 -0.055860664006522016 -0.079418423627280355 -0.13307985458737709 0.084303838279186916 -0.36560312805800749 0.1116431179668189 -0.14064223837578702 0.20230366664659258 -0.24275555473767649 -0.143459882437971 -0.047046381826844494 -0.21521145463746116 0.14075198966569036 -0.18210607924570429 -0.225855289826248 0.27998717446299604 0.058921657178713803 -0.022010121101763955 0.16210311374312664 -0.10248439924356682 0.016601398341193126 0.14038823086773103 -0.15558666942443045 -0.053477399503665347 -0.14206622802293256 -0.026164410752578214 0.25585122131010679 -0.035891154624935244 0.15319560347038699 -0.20927359490799363 -0.014555669867989693 0.070303904586491342 0.024108385659688324 0.032062668667690329 0.15512315045508268 -0.12069789006418709 -0.032227912762777922 -0.0016394366947024143 0.088999026423379368 0.58797870785353001 -0.17429840763624602 0.29806519337312493 -0.014091810033057818 -0.050088688928294892 0.081979963948584714 0.11303468344155382 0.089066064234535974 -0.028776306105154914 -0.041412561009463826 -0.13024279914999465 -0.0040003296364265794 -0.21893638251772102 0.11953794843367456 -0.31652884334157744 0.033935993233591227 -0.057893033555713333 0.030546983971065988 0.10208933247306723 0.083267919117426731 -0.17939239939791854 -0.042887783307047816 -0.11018454344924974 0.083261358152716888 -0.014517763132663919 0.010275751824391555 0.03067184686333756 0.15476187777774877 0.00459077322166088 0.18951906098969915 0.20533145238583375 -0.40282466223561397;0.024658288736058451 0.21822967039393804 0.075172263345703733 0.049488976029314159 -0.16265779673899161 -0.19372939650531362 -0.059997624814187467 0.024704185871907047 -0.032222294089761835 0.10355905682187611 0.22464107958242172 -0.10502656651206185 0.021458945990148061 -0.037019946877220815 0.03357927649520006 -0.069107605096375729 0.0613784475029618 -0.064309983603042367 -0.066609632179514294 0.079674790299066781 -0.11202611570141204 0.072783866128874095 -0.13457497040709182 -0.085949644120477564 -0.043006993747268095 0.16456145541652284 -0.0068833964270909728 -0.15469960579787856 -0.027761937431860367 -0.095271509409993224 0.1384533968897278 -0.032164982622004124 -0.06192783827066458 0.046958406298201118 0.25798167852083664 -0.025533822590629751 -0.12954992809176724 -0.068075738812697892 -0.058547343249302379 -0.19236723511742737 0.06773453310710674 0.039397098928715922 0.10892465503758791 -0.21563302705788406 0.091271087282803934 0.19437798939209011 0.18053210434779937 0.20299351374388791 -0.19448517538980398 -0.039453759944087487 -0.068665570216365684 -0.093667056696111237 0.20650372427681118 0.1837145330823014 0.1860490527200877 0.014710087049110096 0.076710157009435787 -0.045036715015625645 0.071154677064767816 0.014694019684496256 -0.016375119312109714 0.22991994731693566 0.27103509903636269 0.21791858461270222 -0.093207697408328141 0.25942792846854695 0.23477984362904414 0.0011483808804180783 0.23981758358959998 -0.060377900791358789 -0.18430344144320501 -0.13764228212542196 0.18007343642391715 0.016138716110224629 0.029410674306660656 0.061677132171883614 0.13325438986211541 0.16469855526579069 -0.053967198924817973 0.011183994205811783 0.13153068362200213 0.17428450190718259 0.04303955368469483 0.21882886874676052 0.02959008690807368 0.238846496047107 0.12325786680066642 -0.13367838456100259 0.22129349997922829 0.21959728302650605 -0.058703681309264136 0.30234260967812676 -0.21885935232509723 0.060305727346656922 -0.11439571076160136 -0.11888513896043661 0.0032868961548917996 -0.027179605445676238 0.10487656395402746 0.013868973735843717 -0.039760755737605534 0.15929556899599129 -0.15831746043233783 0.07621067523313825 0.3515914290466759 0.1861236863061036 0.20781443150691509 0.014972950372116446 0.048994880794105855 0.13616766265718092 0.088363338532117502 -0.054645619634693117 0.099499520667765295 0.0034764402022143337 -0.12256730434217854 -0.057966472184804496 -0.28729952025665717 0.17441443070707038 -0.027790287069009212 -0.21285197612023316 0.2051746574699975 -0.1317230421822852 0.010742171950647486;0.11600147254712376 0.031752676538832958 -0.1504336860088642 -0.15269021765572255 -0.11273894518316585 -0.20741892669116008 -0.11368022011222406 -0.15396985684977177 -0.022747121395609145 0.079885790385276462 -0.35563362294970546 -0.08421580984035909 -0.026507966170264546 0.089729806852624897 0.12894564831068964 0.14707143769879233 -0.098354990092429678 -0.16380838264920652 -0.088346434452292275 0.027107793040758662 -0.029045495199802054 0.20084429038571286 -0.080031467536880382 -0.17862359079229709 0.10605027627678375 -0.22164685268856726 -0.057932088890607553 -0.018434422882417357 -0.1401764283558187 -0.12820700760300166 -0.13416544974888434 0.19950415741778574 0.19384106087705322 0.26079268605424877 0.00042765668140361208 -0.027590707742559901 0.13201463344414552 0.032806727339017183 -0.026581135091333617 0.062292037994732465 0.037613867040502881 -0.20916173808453814 -0.13092193075271366 0.023232754663646674 -0.13364957023966989 -0.2841895759901093 -0.10405044152159261 0.2420605790505245 0.081006816793615502 -0.086451698514003097 0.13501491394722817 -0.050647422510004501 -0.16546781154284834 -0.18853637125926903 -0.26109545283986957 0.051035278795440557 0.027377576405989788 0.17311870340906857 -0.075921919763574833 -0.30691418059816378 0.1063453296982467 -0.11053704979343582 -0.070912242810158538 0.089061275526722647 -0.10353517881689892 0.16175037866854994 0.015172752375807751 0.21632182234973879 0.15889902634591635 0.21676113121544646 -0.098308834566825709 0.075105118404170584 0.11077987674384622 -0.049385435608379179 -0.081687596528744202 -0.03054477538767494 -0.15126308900389035 0.18545315757899353 0.05944295948137019 -0.019709845505698622 0.11722553097628909 -0.17457768658925024 -0.0059089206868136969 -0.23415825200264362 -0.15624563856149026 0.13161248512590154 -0.019579251983198147 0.053175093517163624 -0.17476908574179614 -0.17652976131645207 -0.00079304643021538713 0.010403708674879452 0.1781186414785072 0.12065482270346857 -0.29945016655700379 0.0096062358559623594 -0.2314095068403868 0.13217504220508985 0.33699342818235628 -0.23743984074118549 -0.11804563783469069 0.1991769174535736 0.23840014516380634 -0.34396043881812033 0.086137201420281237 0.23714582048516858 0.26811024176791864 -0.035601682371236593 -0.065627994508194815 0.29513264873066292 -0.0037704673974384316 0.15309639996248686 0.15137393215987749 0.15673628144262833 -0.12164257740450851 0.066372980842120136 0.044642427927988559 0.17570571773821467 -0.019440728865130995 -0.38780250883261519 -0.087728443708878751 0.18802445905144735 -0.084228465391808297;0.18330690594245819 0.13498571816184132 -0.21728938316140145 -0.0067482390435948565 0.018396686245746703 -0.21090668902572501 0.13348391231893306 0.0062479348202807523 0.027004041612200304 0.18501938511027877 -0.11102325324886034 -0.032786259122754791 -0.087537427081360364 0.085528495428784379 0.165692009371115 0.090761925734212434 0.27144719433011072 -0.074386582786107977 0.16548557241629089 0.09367071971312578 0.16540360723001768 0.1822543508462687 -0.13209873411105363 0.16369386983535469 0.029681233488006952 -0.1306703795845035 0.19588601889780602 0.14151861227627854 -0.13271448020043208 0.20693400625145317 0.10466622258948034 0.14705307026355605 -0.17611649911439137 -0.10244145050341717 -0.28467650003715733 0.055852072120515142 -0.022050344441940341 -0.041683061262315489 0.21395511546550899 0.072544712069407144 0.1397382992035659 -0.024014097175000599 -0.12303847619546074 0.058579121965164148 0.085532810341433313 -0.17347649092278691 0.1337450820037703 -0.094891380249943494 0.16278695916565064 -0.19071780184796169 -0.18597685002760031 0.12328406497571158 -0.022200056475711383 -0.030917930595717982 -0.11671041143020601 -0.016158003748136071 0.09080933040804065 -0.23953737976634129 0.12874573498883976 -0.024890261395282904 -0.21855167262644934 0.092858069383861652 -0.083677384134617158 -0.083160399141987792 -0.22505338734317928 0.0074106487889646043 0.17574618682673304 -0.29002368905518527 -0.044731456356983716 -0.022406719803748896 0.14972604432147116 0.036256160270358648 -0.10170422882580868 0.08824825405076836 0.13547235293300788 -0.1329670929661726 0.13986457359054782 -0.21759554731096442 -0.1466662236135802 -0.017006528650937325 0.22133469017062782 -0.1307931886745215 0.21934583519095352 -0.18133623755994754 -0.0044667865427714818 -0.036630601600760856 0.070963026398410026 -0.073898412751769227 -0.17083902876168075 -0.071701358406503379 0.15192202721648898 0.14476868202993565 -0.058313133326455283 0.066534766181360894 -0.10617523523760364 0.19411281548505921 0.13914522785021102 -0.032709151463986827 -0.11890845188653561 -0.20481250293291162 -0.097887557635380831 0.16821376010643771 0.2798261644455235 0.14148332125545771 0.0077145207311340369 -0.14164945204612656 -0.18470789328544307 0.15987312577045945 0.14288240246946918 0.36468398249154538 -0.044277994723033079 -0.0061017931566051493 -0.006120983688251984 -0.10809935189379438 0.1545944642981735 0.0087175075166368125 -0.13138394465879777 -0.12449348572195361 0.28547043362466101 -0.19149289810485096 0.0060292416301097685 0.16652982269757388 0.05507899825196301;-0.11158145646638608 0.20646176950611766 -0.13288286750349818 -0.18525875765059996 -0.081212192862564272 0.11611562325371404 -0.22216026520464194 -0.10229615508693859 -0.022119178794714294 0.2727032665978204 0.041485274855230653 -0.03864165105600121 -0.14005376006451556 0.20578175126082074 0.11509853626370414 0.19298779997629406 -0.072601364388302919 -0.12970100318581773 -0.083998724733218122 0.0043437163838153763 -0.10391437747295168 0.30249087353074361 -0.218224397187953 -0.053029648988783866 0.40553575132513359 0.12107117775342364 -0.059446375832248773 -0.056931107787519628 -0.057771560078742193 -0.21566696897217841 -0.17806345987009747 0.030175340111691509 0.017018719738966272 0.10194772658984613 0.0853449123204989 0.090471400179445688 0.031601182051346342 -0.095455414221871093 0.18315918570631623 0.3200948639604031 0.26419889877165131 0.16652267136365037 0.269347395774445 -0.032734644252550696 0.093969191443464342 -0.031320639884834411 0.094084213799621161 -0.095348597598903947 -0.013451240703236852 0.011636411722841661 0.081336256604560814 -0.044776058604303642 -0.027209722334654143 0.13507837182364441 -0.37118719667409333 0.05454408055990341 0.010456696124199836 -0.37025795505205422 0.22167695181192762 0.23902768552941284 -0.11235700070525553 -0.19755041847271984 0.042398212636363231 0.20105920149181766 -0.023614428661804014 0.024399595539666207 -0.53707581083198841 -0.22736483306553112 -0.56913915781550917 0.27753997326878416 -0.52395980410140319 -0.05423352196757391 0.036560814062575664 0.23509852082187216 -0.056201640367917124 -0.33679676667637087 -0.23815620120648354 -0.56842716179509623 -0.027098499588844534 -0.015780124627071544 -0.018653777679123282 0.21430502487619285 0.23168971219220649 -0.23578646326889208 0.032203368594930309 0.19487736414230181 0.30816283386936866 0.21076062950423527 -0.11036996668107653 -0.11824639862817438 0.15307571156341412 -0.19071797098997642 0.10381263376743932 -0.37425700868202244 0.065989037514635238 -0.087830011511083536 -0.082023328610763696 -0.18639857695734358 -0.22928861024125041 -0.27966953494194302 0.42557660386698748 0.26610312431136218 0.034789742658360052 0.04486238501563522 0.082317936593150343 0.26012523203033933 0.071033048455322517 -0.081454311832897225 0.18171327807896401 -0.037102168670522608 -0.055184313884362284 0.22755535137028582 -0.15521094800516766 0.18628755975071856 0.034594753190187962 0.0012724791628665386 -0.12375262514133742 0.42704921067079271 0.068675667201104754 -0.022843880671451017 0.067439558720898227 -0.11083730278210578 0.067017614538154163;-0.21508358685420181 -0.039936697404150547 0.12082706592710693 0.020531978155411298 -0.13245610064496222 -0.032834184398461246 0.062663111296992688 -0.34329213481916498 1.2726117360868083 0.10760259678274939 -0.87740498683915824 -0.064735271650153678 -0.0044605012245972622 0.90207386142250712 0.64176329983578995 0.57145563299294555 -0.0030091499068126458 -0.23369570376896431 -0.11751033100226878 -0.096984070167501546 -0.09852991867051053 -0.28955895203212229 -0.14748014255545683 0.020777866175306373 0.5953335052531904 -0.15369144317799857 0.14218775536900299 0.10685532661959531 -0.30081510872149131 -0.022203267421559762 -0.22719827680023358 0.080487074658307678 0.57868089396947153 2.9273918494455731 -0.19888554451368307 -1.0486940708302401 -0.18558686112095557 0.39317040184452173 0.69130010416471699 1.8426517796626514 -1.0005180473642854 -0.92916213689739913 1.5433260294272724 -0.20307680974856424 0.37550387333714252 -0.13013910874001014 -0.4918783996287367 0.61010347212609095 0.15081056971006354 0.29325437922014908 0.064509728181302795 -0.053455267262859707 -0.87772854982847315 -0.24253475963228727 -0.10970027770592332 0.65814094080180097 -0.71078327675117237 -0.071028874199978845 -0.92410931410863117 -0.87258726336129533 -0.2322465467353928 -0.962704955688926 0.30815079949940921 0.38844624651011311 0.072128329517722828 -0.29561473404078176 -1.3015059365845685 -0.60587820176890672 -0.58047610257432325 0.30497630160433636 -0.047396919704086958 0.78494511545333834 -0.15457062160830809 -0.21133491490914566 -0.55974455272009693 -0.17197127360052353 -0.14012136959615781 -0.29068178332206007 -0.02379052092059853 -0.16353820338507952 -0.33041776461071221 -0.1870540807139206 0.35290788766595899 0.024167044393123654 0.41421261162786804 0.83921722234604279 -0.24142038904530072 0.69814226200623497 0.32941941218001186 -0.14698348542021919 -0.17694202989796778 -0.65947563889408012 -0.022947786445659511 -0.0018875961152905573 -0.067503254128615867 0.062272286007356202 -0.11692698492411867 -0.0019087698653102256 -0.14350493491265318 -0.0023743526986374076 0.093299499171633729 0.072166286974375035 0.008577223364278205 0.060977872071302522 0.029914893432700304 0.050257726148913801 0.087780769474956596 0.085210014933462447 -0.082115688912257748 -0.018651459325933709 0.020993871305557389 0.12032100845668886 0.046680542216397877 -0.014740007309550992 0.027448361994848496 0.012911371797116711 0.049342965197069807 0.045839076082716465 0.13637913057592002 -0.16608573281402508 -0.13098678940780223 0.059099681172741045 0.0030752633017332057;0.18674367455672844 0.17129494364126163 -0.0067982135536162423 0.1741735491010292 0.093637411520819322 -0.18056660393781923 -0.11728679628805758 0.18853931322208534 0.035873624576545048 -0.16528375488616501 0.23109957982384535 0.23645803586811145 0.022865277105716408 -0.15859848717107702 0.065124994967802122 -0.043001762773281833 0.03517478731387285 0.19933287444967338 -0.14074734509557246 0.21865270922198002 0.13581100627347811 0.11297588899485475 0.17258295718125374 -0.092426521276601337 0.21706259736746325 -0.016059672618509411 0.24749762841107983 -0.15809843344474617 0.096618743002787513 -0.01584522562826823 -0.05960149513655235 -0.011824234494522612 0.066014627306294302 0.13237489713011613 -0.11685850839697912 0.15199868665882432 0.24186121797944901 0.066494818170690223 -0.1925178953903042 -0.1720304220856522 0.16031369114666913 -0.089361767579194187 0.21124201626240868 0.22527735049553832 -0.048077387334424328 0.12415424946414835 -0.05053188793884366 -0.15537475875803167 0.21277537370734931 0.057089045710964015 0.15823409562604512 0.10542955032284999 -0.1332003587516582 0.049416968082928267 -0.13452285745443371 -0.062560925374290435 -0.18245688066200325 -0.030768314198444231 -0.095635497970045377 -0.10381995238173157 -0.10297745010180517 -0.02325829417293156 0.035510441930974052 -0.11896751573505546 -0.09949736150574609 0.1632301578219153 0.23205418435544625 0.12083370115624768 0.030208186176876439 0.034460151016082588 -0.065172015302978475 -0.05458861068545405 0.014828117320607759 0.073534533158448642 0.10193204722987356 0.1177186615518835 -0.12438563151324339 -0.15954697032286674 0.24255500026729099 0.10493760963048621 0.094333256190193893 -0.025159953278769215 0.22007047560878332 -0.11704201559533207 0.11434218278752681 -0.14092399294913169 -0.062117371273467017 -0.088308517589615637 -0.025791820347031109 -0.010410917708007823 -0.069558207637138422 -0.0077936177681922495 0.17741522980867222 -0.099658767256202291 0.069287474548005684 -0.13738636586745456 0.02828031287559786 0.0068814492719282572 0.10109517333837431 0.19765116729651536 0.14967778798777759 -0.11834715750699028 0.16821987127178067 0.048110432344608753 0.093064890844725523 0.085237447964345875 -0.074844744854052528 0.14414534937912865 -0.19819962977789951 0.17017350741062437 -0.093332079067934046 0.13781561308966861 0.21702417894453002 -0.058461749640953187 0.13017749766430639 0.091307340290189859 -0.011407282353058034 0.080444421965559842 -0.11161377532584217 -0.1413874629045084 0.095566996895066356 0.21805137774764419 0.046678731555526709;0.14461859516898135 0.22042586503887626 -0.058025093109343673 0.021379865351275399 0.13430421461838701 -0.065204359546111312 0.077181166529816783 -0.1008909847034392 0.10456566448334621 -0.045347354587681236 -0.086364144126820114 -0.015861834110517205 0.2077264403594479 0.04729814105722991 -0.093969671906070099 0.0032619572457731573 -0.13845806587345447 0.00017576486817966685 0.061525549298496511 0.036877269697678509 0.21645825314858375 0.16713063677001361 0.019400509282009148 -0.089190354572987379 0.11608680926329069 0.1115730755446286 0.060576392793891855 -0.20751492182414896 -0.13371318572807572 0.19180519406626154 0.17751954977117768 -0.090953934098309569 0.12925255972801344 0.10501249149850062 0.1424011736074203 -0.0082367941428333827 0.20767275678450248 0.21418714203220951 0.017556941796841866 0.094258675949936782 0.096653309469439591 -0.046264487913213637 -0.035822293158358942 -0.21757042068006763 -0.080054613280888351 0.12608664122606192 0.11096135802592509 -0.16651058716671158 -0.21565214968060714 0.096465354104792483 -0.071394622215172107 0.057657441678579793 -0.032926383648182296 -0.055139707062026554 -0.085557183751717905 -0.23593210076727664 0.20446275289308175 -0.03971596107308293 -0.065791064296072413 -0.020444068337399153 0.056900855847568585 0.19958920791670301 0.10186634626241262 0.16858846302832828 -0.21832673623216325 -0.069487987170969712 0.16999426330082107 -0.11522652645723819 0.15535811940063798 -0.073372794702071975 -0.043772817317546543 -0.045870004048180604 0.10753374076144838 0.024629820846227581 -0.21414021583756473 0.10838486168593407 0.11282527130181733 0.14408760813690435 0.0013010652412925228 -0.15992798376174563 0.044334512907342583 0.12974958275626616 -0.14497965513820896 -0.10804118824178391 0.054410536353434853 -0.015530819358345525 0.24205685533997512 -0.21381030125908262 0.23923609896955614 0.22603146966556484 0.070977765336950632 -0.099441071485321927 0.12691158872924418 -0.16151966433057582 -0.11203260830877473 -0.19114599769699986 0.22989246237076341 0.013858088635522131 -0.17168153174757952 0.1538346079921579 0.13157420563145986 -0.083820177166458204 -0.12136485600093595 -0.12570013452677212 -0.22485898614320438 -0.057461752696364096 0.15097886084847326 -0.028653211762830578 -0.18996611161171512 -0.087996295784363798 0.11293022398739565 0.1728122493874997 0.18622437277148027 -0.10953876584992699 0.094977960205281181 -0.0050341978817893393 0.047183704891486676 0.046349387463235629 -0.06710802243936223 -0.18995969473843216 0.023449236518439411 0.30287432591843616 -0.211876237419071;0.013779745412362588 -0.086863558268630278 -0.0016630455017701423 0.035620869332158293 -0.20979785047936547 -0.14458253019437706 0.16800560299657774 -0.047972993864416301 -0.074494018400187406 0.0065975731353391503 0.12426451769078181 0.0098963700486488244 0.15073807702234171 -0.005945991615171794 -0.19038366229213141 0.10985004193748879 0.077415035662216539 -0.062551131537467553 -0.1099420715427913 0.15853614865733404 -0.10955948784994142 0.086049183695428036 -0.22570757143428746 -0.051766774506972986 0.08238226791633009 0.065616724058348203 0.1391842256144506 0.14124316264949069 -0.18318808622327101 -0.14126514912150284 -0.016867636744913317 -0.17845881971797686 -0.20127387491135332 -0.033542079357139765 -0.081223536767340024 0.088263107760788578 0.10611297669514368 -0.2102979786550695 -0.033854593196430513 -0.13502403903236196 0.13735843273812084 0.11124967788520343 0.099595709207107794 -0.081266575172187494 -0.17298133112602557 0.031621395334654523 -0.14401581739621258 -0.11622576467798211 -0.21040039084238021 -0.15609178170047927 0.058643426302284939 -0.18726076524340343 -0.071304870388210692 -0.15721464507046776 -0.020656410396991273 -0.20301450970882542 0.023290221042177581 -0.0029103155872883444 0.01036278648570383 0.10275574858485588 -0.17869161742380629 -0.16128543447561294 -0.0066509683860878389 0.17015843545169448 -0.19060069206595934 0.15339175780553085 -0.10436162751615055 -0.17904992987743523 -0.21309447925281083 0.050260945888719481 -0.018928040166387643 -0.11640176679819314 -0.090381127805398961 -0.10673100355509799 -0.10832647261115158 -0.17492184564138519 -0.0043704005649831791 0.11038178258867157 -0.076721441262728882 -0.25221994586469676 0.043102945266775092 -0.25631274410006899 0.070063748469608125 -0.23016783109241726 0.081479489017281054 0.12157155286488923 -0.22706019119895157 0.072373275795240624 0.12705293707935822 -0.21896755004939616 -0.097141674646642251 -0.16613523984370673 0.087088490325158904 0.03005737576761227 0.11339886073849326 -0.14211373486362305 0.066002905042641502 0.16715007421006209 -0.17317555659595155 -0.11916508260143666 0.1371004159106301 -0.11366108798369963 0.032377054274123872 -0.12257455195804537 -0.11768355208261601 -0.12220915169377457 0.22654106788954503 0.12699235012906443 0.20566033686849555 0.22650540844897771 -0.038234139746603189 -0.18878992646489293 -0.11224386333113526 0.099329267740970978 -0.15868719891494268 0.10738895787679476 0.16174110840320052 0.27086889172301293 -0.051625910395683955 0.17754359904111128 -0.075815585729330129 0.14896536498649096 -0.16211882193121718;-0.12295309182858344 -0.1195338253867195 0.088083127085394036 -0.16693509579545007 -0.135362462770305 -0.20089689791041551 0.17645694879620918 0.14589982160325018 -0.42043247798315647 -0.011107655055531428 0.56038900972661865 0.22126039289438712 0.14402504383175821 -0.73489155583000709 -0.92760260791190985 -0.28513395355944388 0.29607547503808573 0.21067525488951905 -0.11299144763563101 -0.091552686853276943 0.17678359232062063 0.16321100825584678 0.07386987086491463 -0.14331714906835921 -0.40424171588597702 0.17525872860315519 -0.022866088366465677 -0.17037959746099227 0.31753173948304647 -0.10467809824709561 0.1580396713691673 0.055709305597945125 0.049538286510489089 2.0097245041937364 -0.057835567957459706 0.35926514546289534 -0.071256128833766058 -0.17945718199562599 0.34096593187128371 -0.88251352395396099 0.15969459220448182 0.32520342325473478 -0.7754260022811259 0.060189230795481247 -0.037972097585767181 0.032010627155330942 0.2366534792921012 -0.24984513307315842 -0.0030304894907352349 0.11932151001857999 0.2345960518510054 -0.20268169052214252 0.49248434332967927 0.11732979771765872 -0.038173407500176809 -0.079600633515987618 0.35902571470203887 0.12408708877125049 0.21439716794252323 0.16554028561060513 -0.086182168770500472 -0.12013981498821498 -0.099880584145686818 -0.12592835432808475 -0.14785985386266037 -0.10620424111847726 0.46976486669796169 -0.17156021063959231 -0.060880185440285582 -0.022763390017508177 0.10672440606843546 -0.83708657861317137 0.067546472533925817 0.15140697077602616 0.17413352730567969 0.16446086183272809 0.26483776619577504 0.065258440544911575 0.088533465469708347 0.1990294009364609 0.1309470133766843 0.023905448086866087 -0.10342606513707565 -0.0074344308021862459 -0.31780221388132773 -0.42262547937614692 0.27731967921481626 -0.57962735866890636 0.06521572180367638 -0.17291795288021283 0.30163119181614528 0.2512774614653695 0.097524471039085528 -0.19190900705434275 0.039030877995380311 0.10342147140368753 -0.10831187355209408 0.14972474789969309 -0.24748226718804633 -0.085305035665863907 -0.070567368029683802 0.076114721480214614 -0.023961916811586232 -0.10547848234583142 0.00016076250059549974 -0.044823088326910107 0.071637709478216238 -0.1148162438953147 -0.20582251639793173 -0.038431602556449007 0.14429219150892689 0.065403163690812421 -0.002284715332673173 -0.15601119545562001 0.028081270764821382 0.22551910166127365 -0.046523648321477165 -0.12850982879097764 0.01069440352758427 -0.1024063783219314 0.16213364578229644 -0.20904575433231473 0.020663905544540489;-0.14692356068736034 -0.14224228810754863 0.061069535164416655 0.17987244841357747 0.16465342673155672 -0.14731626055704186 0.19446181177190858 -0.32760168163412956 0.38734612083580755 -0.097382074887600936 0.12449925809263891 -0.15176240135072067 0.18280231744078823 0.1475947265990481 0.24991721562006716 0.18319713875358998 -0.084545041275302379 0.24177496607941767 0.014043122622592684 0.16566253387985877 0.016949906055518597 0.076292080133433804 -0.21754013160908911 -0.18578439272843536 -0.046470029071883502 0.0062519944809239347 0.21783060664355761 0.062122705882290775 -0.055092466838191266 -0.15750783487637618 0.25572315379767152 -0.21804756993209648 0.075036863374704055 -0.071393846330996477 0.0010019997946253947 -0.22536902720184873 -0.047165915440329817 -0.066318947045225729 -0.73319395198174442 0.13014310432472104 -0.073029246278484991 -0.023032626358133964 -0.070883675749787073 0.08732943635841188 -0.14949682497944422 0.055922303250330263 0.19276227990975417 0.14940077330985049 0.20300733399948734 -0.3830832659257396 -0.20623686109261821 0.21432494104293595 0.10862757430140485 0.18319179816743056 0.047861407477476248 -0.46409296850057691 0.13708593734644195 0.15896634046818275 -0.31390621587769413 0.11282537305450692 0.24413171122129013 -0.28263885252843918 -0.15495571112783471 0.0847668806832685 0.076239575447275928 0.14837576687071741 0.0037288484959306311 0.35172383369719196 0.33401777326065085 -0.22383538820087909 -0.21998666077165482 -0.27804137848897509 0.30295859960965588 0.15062724197914645 0.14466800390981979 0.31068812441187021 0.088503911360072685 0.012090306519922536 0.034611050470272756 0.25526619981978793 -0.043849744725432918 0.19792030332415139 -0.10827208544320102 0.25246153887881478 -0.30317655804692728 -0.41224148526038695 0.16827161229408169 0.098009337909811034 -0.2258139137552905 0.069401686357198997 -0.47103410365177173 0.53976775521122144 0.17499407691315061 0.065369764215606585 0.24012340445360139 0.082997408893230651 0.11653242734602053 0.22681341457794782 0.074051441088563361 -0.12904657426224023 -0.17271743858334393 -0.085840500098175815 0.0023667605644271035 0.20064221688174841 0.034790712241469457 0.051449748572655295 0.13300585948472252 -0.13492228537285242 -0.18337987838418862 -0.10794807634131764 -0.076940992231787284 -0.0028355173078434496 -0.24283157293725688 -0.17292869930770502 -0.026666891276657976 -0.048250103979008245 -0.29978476609163501 -0.18520372990850467 0.095937791618606952 0.13157427383771769 0.13072041411053456 -0.55538236313518563 -0.30589520886774374;-0.35845977039843602 0.0088152870011882316 -0.07563513332383541 0.15603650534967986 0.037933350498035596 0.28114538965628877 -0.097553086396215169 0.028309383506875209 0.78446076630395867 0.19981393131792882 -0.40654749949805535 0.16975394137732897 0.1222835722716316 0.035516668943792573 0.10952669534731799 0.55777101705979237 -0.25511035989065639 0.01887187247344187 -0.06055018888188491 -0.13708735732379373 0.24679815640663039 0.23046544012193201 0.054389768430501473 0.047317970962740187 -0.33834339365406552 -0.45633757262637248 0.029527348059164626 0.098085757447193458 -0.19587713444825947 0.30957338811076762 -0.19178808582865436 0.28830197988297535 0.27353481674353269 1.3833312214460582 -0.2461393329381 -0.39329272231629636 -0.31759590575871671 0.094457085133809765 0.028924793404867599 0.54391049343426523 -0.14045078006223791 -1.0895650831139119 0.43251770311704879 -0.17252150004973163 -0.021741382110610337 -0.071113423095645209 -0.2199978295798552 0.76282510570736395 0.11500381186546188 0.014779171023913891 0.091395719449398491 -0.22750415658045156 -0.17486187108296233 0.021873060780822861 -0.15042417290923435 0.11227458790437356 -0.20145548152148368 -0.16083925561446785 -0.15234227698644948 -0.79117381413075005 0.025306897037164329 0.15440636087590143 0.15651115612851257 0.18928807049790553 -0.10502959200244544 -0.075428369876704385 -0.088942753487809861 -0.25870465163779582 -0.17797602424716036 -0.019113351273149549 -0.19029818966093809 0.22460202585893033 0.1307912513468438 -0.042848359120749462 -0.47507522291161736 -0.19179018571499074 0.11759922275341271 -0.14670030943036355 -0.32724791256603375 0.082256556579299756 -0.19373407656850164 0.20597261908218478 0.39893763214901862 -0.030825952585633563 0.062169559647041746 0.1222906757146906 0.11934341637437049 0.081782486750728717 0.22412745735189188 -0.0057521252728470421 0.0065595348451330613 -0.075629659943327363 -0.18600692919174677 -0.044020268506112167 0.15721341679020112 -0.19692547405267305 -0.016085813991801257 0.10210942225565103 0.13183611310565005 -0.16260817871125766 -0.22320897194449699 0.095540779670602385 0.24614582145043928 -0.15588348213539988 -0.0012158971472013237 -0.32288746870854618 -0.021530994337817938 0.080410602675499099 0.21567477757684256 -0.036738933496821904 -0.019760459764370273 -0.059905758340202182 0.026955572668518894 -0.1589603959099907 0.15379183644434849 -0.078784237748784167 -0.1777920646072256 0.21333669854330675 -0.081814320158818607 -0.17108842928222462 -0.02436179807679089 -0.054717750863137259 -0.1495902325316574;0.19583575735990583 -0.18032644478255011 0.19093120011877066 0.017784293165487301 -0.093468481811197907 -0.14147746049807053 0.10697585101471897 -0.09930021387248518 -0.28867250359973684 0.048784252450236848 -0.27138780828879749 0.15513822248273451 0.067879811760142517 -0.39531779776871401 -0.55982360772537565 0.13419406896144218 -0.23155477181794859 0.19988552444014021 0.23337589699819034 0.21665250180650489 0.12760638840546767 -0.22140291430397416 0.078583304893415459 -0.13744606224238276 -0.54986372216287704 0.15342579755809491 -0.11181956577323532 -0.12972028496305393 0.019875477693528057 -0.072816701105848897 -0.050127939518523686 -0.070675855866997608 -0.050172938055930087 0.83134531030094705 0.19795010916704256 -0.31604384214752479 0.24218698626061708 0.24532445696639923 0.064474001466154229 -0.44753118957368787 -0.033135128224868353 0.1066882250534891 -0.2927066964686923 -0.04272866697610922 -0.14681610325664265 -0.076344939400713185 0.36025983356125374 0.14154622841721573 0.16754912204276623 -0.16006721945948432 0.16075534826788632 -0.15019900365368588 -0.26775912758464665 0.22639372865554727 -0.2024828284243714 -0.14637582009673719 -0.092817633972911456 0.26061006046865254 -0.25328548901891679 -0.095122164068644738 0.031875981821480451 0.0043252855340789763 -0.21778586748699794 0.0079536540677907896 0.0097082793999513969 -0.016305890239722398 0.078861510585365405 0.55493899013206005 0.25306862307726224 -0.19398952132542177 0.13480906396824691 -0.60321053914321199 0.08889501820858349 -0.17311933690739828 0.44614381288042493 0.064472854771641788 -0.2978088441764819 0.43654740054651869 -0.070579776760988769 0.11977907599437497 0.018516292145709382 0.056140330075374834 0.24912311846911261 0.11279207518270769 -0.41372931330018525 -0.21836586223925564 0.15686139937868623 -0.61127143442767107 0.0032892534537843675 0.33283070168296425 -0.055439738161863851 0.15426721650915451 -0.093210017385971677 -0.018246608696107672 -0.01949885500221233 -0.1095962490745683 -0.027554234512760897 -0.17768032583969454 -0.18499091669019968 0.16245203918660925 0.37022646510621271 0.47196332297259497 -0.031177988368861757 0.19102356888473082 0.21778869399446926 -0.045860855644665868 -0.22922083454866107 0.047294789215663512 0.46928706034613821 0.52837898779880965 0.023620805955257382 -0.12031488026841623 -0.17936890715321033 0.083630829676979532 -0.17645340766072032 0.25816911494108463 0.30652462644071471 -0.31687349790849684 -0.00019693239019237963 -0.14329521874437384 -0.24386342475989861 0.028892506503229939 -0.31299052126986193;-0.15313756972203807 -0.11597978270429529 -0.079178578094528579 0.075173502191752839 0.22427682273349708 -0.15806901609914323 -0.078188899926752764 -0.25367754138362503 0.46537060345338399 0.19817194660546605 0.61885987883283078 0.24206838126251354 -0.08135329974515744 0.55909706859359387 1.2609081046009016 0.35750762737368841 -0.20143156848765356 -0.063987316097472727 0.13698047810762537 0.010396548800630309 -0.20424539144292556 -0.16910454889036622 0.17938908179163282 -0.34039422813573883 0.31336287630206472 0.25666802836448099 -0.11853272431220899 -0.038757091173365475 0.17236716679976546 -0.0081194079379473417 0.14737839357186633 -0.072840849746861794 0.40231920676485411 -0.035264979488440082 -0.051133810709125697 -0.92046779229246878 -0.12547927565313971 -0.17235021513824061 -0.30837710688990305 0.72466171083494579 -0.5376195858055749 0.2032235940599712 0.2860624131373824 -0.12107766978123767 -0.081157939243707788 0.25210285647706188 0.026806202001274555 0.1982341537625403 0.093142923589443274 -0.12514252196503795 0.036998112251981505 0.127396717441534 -0.6906874024277353 0.3304294304586452 -0.29144347312751839 -0.31701913178186153 0.1653060359783787 0.017953531044191531 -0.6652781031360121 -0.09586279930284243 0.045098176210647323 -0.81558455439143829 0.21301613034277794 0.46605873840629708 0.13963966293664418 0.052544142418708986 -0.82772868245599063 -0.38509627957750286 0.10452973786136711 -0.29880760875912199 -0.68884914112054696 1.0131198445221774 0.20587015263247013 0.06649020026900189 0.0008881095473722609 -0.3787542954930988 -0.045245031458174753 -0.32564908185818531 -0.35734971744680299 0.0044374559290251492 -0.24830434871498808 0.011170615518229262 0.17532453956565847 0.038703427426440895 0.3133730794026513 0.21072457398641531 0.38468042356215426 0.47258757083472902 -0.13400567139445069 -0.11403703803843451 -0.10488123207160892 -0.1045285992523417 0.13556778766874875 0.024945623244604743 0.061637704287365792 -0.0042920282644972607 -0.052351292000612178 -0.10839654732577447 0.1491789670297444 0.022706380708461895 -0.032087787378551204 0.025167970216136457 -0.055529392775132795 0.009154015972930472 -0.070380071215341136 -0.13686025743281666 -0.16569455491679155 0.0367369058458199 0.12674504170055395 0.0016681827685932188 0.03092267854917936 -0.074196410627584072 0.018923036241109754 0.015809375808471398 -0.036926670039379758 0.11640890024677136 -0.10968597828306376 -0.18446551776012651 0.22122395360198291 0.18123789796619305 0.052333387707845944 -0.29806241196621031 -0.32806752683355678;0.20994081317831359 0.078225205327763794 0.12185292237181498 -0.060805048301784306 0.059986698789576971 -0.025053851482778337 0.11010074117662748 -0.28008946756091813 0.0053600730426348261 0.11810658888635307 0.16939347338435082 -0.093812606566870377 0.15066669010116138 0.20922717663992746 -0.085981758369289549 -0.17068846904755927 0.21164008996381359 0.073889223057528375 0.00013063043331079064 -0.044032290813081042 0.22650457194583565 0.27337573193857811 -0.18142443769926969 0.032725979124491961 0.089238002074897321 -0.22729171937052395 -0.09203596811185305 0.21375337498195515 0.23976780484032112 -0.2302974282353146 -0.087428613781445327 -0.14765400440130122 -0.17713704353186552 -0.032801180456520668 0.16037180063555598 0.10079320329313329 0.096497628897723564 0.017474767430677062 0.19964836159714744 -0.1783736789414318 0.15044497290776446 0.10948992013509659 -0.088408126364957554 -0.10143439339653283 -0.17853610576819848 0.13016523825161899 -0.1477114985990457 -0.13226776347778518 0.19113217200497754 0.25059329260795571 0.086615568132859116 0.10119300887701602 -0.010543197822213994 0.18696718751984023 0.18458065106014498 0.19552551554183564 0.066994628169896403 -0.13888929005721931 0.13592976156199213 0.16777301419013552 -0.17495502180676284 0.036393090925344956 0.089046183283178731 0.0673295319249399 -0.060350655194640904 0.008331144991419643 -0.09561166647549342 -0.12392282574493957 0.058491179449876772 -0.058573339709874578 0.11467073214959492 -0.23158223204817219 -0.037988007761674762 -0.038166237008594776 0.070914145608292734 -0.21148076768565674 0.27423407344008516 0.19831557763253552 -0.13758973365885713 0.12915067772989161 -0.071485304816762477 -0.04124521535228845 0.2169709732459168 -0.014582368660532247 -0.26194787824232812 0.15664557794445566 0.009396231064756148 -0.0023333467771871159 0.22470307568435252 -0.12393166011556873 -0.070691345591821442 -0.032415923165838717 -0.14093289326028777 -0.21877597590958967 -0.010021830082099238 0.16748985941221653 0.10353859311073221 0.11016207114376683 0.00089749920409995802 -0.056779670751178797 -0.24624220188319881 0.0042862199575285755 -0.071543496442163165 0.25508501203464795 0.093782435004337555 0.26458015908725668 -0.12107588155188645 0.049901218525928347 0.09514288510937309 0.39922634310270294 0.070057086615415945 -0.071320539851353129 0.17134477431250164 0.25966811950552687 0.15528486182078446 -0.22970164566304582 0.47999604414768082 0.21908438050881585 0.27079947849022817 -0.10715927378238575 0.0083884014194933049 -0.066865326360915647 0.1752626248664822;0.13862317213239186 -0.058151270300964508 -0.13322106333395109 0.40345208389029408 -0.12376310804830672 0.056284716820532966 0.18991183676425405 -0.17399516282079286 0.077449101154780611 0.093082984128129501 -0.29653373024887653 0.159020528235924 -0.098386432455254177 -0.15698368860207532 -0.066285765912847169 -0.011588753167299626 0.11728991155129426 0.23562083573023807 0.19264434769562699 0.19205942323043404 -0.17874614440622807 0.23553860701608831 -0.071184071105192745 0.0090771510268457655 0.051750206414864983 -0.076000598903651503 0.17698834579936287 -0.076744667627924229 -0.14138831814514086 0.0029384442857160022 -0.011834693908972262 0.12143139954214893 -0.11914836107614858 0.08997573737588091 0.34564785087119299 0.0074638437889369283 -0.1891008076249876 0.26927078647171598 0.16167235687331707 0.070718961332344898 0.19630077076353655 0.24651599275555086 -0.019756854467071584 -0.0096607974643780868 0.18736047452886809 0.23356009132662386 0.17089835667152922 -0.0097564035741031421 0.24972286587928244 0.091549467595183676 0.11831164430687599 -0.04651644291163079 0.018478942660883266 0.17120813750559907 -0.060330282194577214 -0.0008001221104998081 -0.043371186139042658 -0.071968766455943869 -0.090960634562371079 -0.20621039143206024 -0.2274053762071534 -0.1277434966693248 -0.13034054064386993 0.11745845228799215 0.12840053504382043 -0.21808966375087158 -0.12514648124487354 -0.062987946103269341 0.077453565462189192 0.27550252396111263 -0.12109934473631474 0.20310396171343753 -0.056945433777369416 -0.20626450840077884 0.11262632105472277 -0.0004385227979641571 -0.16538384760784142 -0.22794244702536889 0.16692955796909031 0.20318264220349128 0.093268838582888799 -0.18697560175374664 -0.2057589700530249 0.05215395851326065 -0.075786584706082794 0.29439516582883568 0.10886854868434213 -0.078446502048423822 0.13613855784382348 0.046552991577257577 -0.099004300843080942 0.19290716387144238 -0.13867280603133089 -0.057752571149928746 0.14605698669789063 -0.045147442423528229 0.06482815062897232 -0.19352769731079866 -0.098168428851911738 -0.13451345218258859 -0.15864260573301553 -0.22710272095513445 -0.15558179324591986 0.015135296147723517 -0.045567025702528428 -0.40373433500004358 -0.031389396148922742 -0.1873681059691053 -0.080309874636758261 0.16773664383354339 0.11110995193810626 -0.18233319536485604 -0.042572009583342688 -0.0055602251513522036 0.17311870936165402 -0.042655637347066427 0.17769985281792544 -0.10044128870661068 0.20775137270554578 0.12424941315833546 0.016578819710701017 0.18661852007060523 -0.080383051644492706;-0.23204799155706485 0.070773421502940304 0.00022066968230932921 0.19111797079967097 -0.1823490257247575 -0.053349306143108753 -0.076207819218241157 -0.30903009163497086 0.58205657854133674 -0.093616610038682962 0.1363526986682011 0.14060018899261847 -0.19953833393460482 0.29084906569995056 0.18252298435260428 0.085229965597036786 -0.01587523742738604 -0.0072500173275239395 0.20258768149943635 0.058792643227627478 0.1092069225178695 -0.079683699716910361 -0.10866079811645243 0.33806518679956182 -0.45832569557905228 0.28512930982429091 -0.21389143484501585 0.13561524071335648 -0.049596004968855391 -0.38988082506116983 -0.093283527737035465 0.40872357776874602 -0.34762327249497571 -0.38863018990520248 0.11361447167853651 -0.64637809247210765 0.18311582548399163 0.2640393101742638 0.12623439354047258 0.56132303557543417 -0.14814314798474063 0.21809528357022287 0.81625936120581255 0.033571158701938261 0.11103833731103351 -0.10252016836420627 0.30989886919931536 -0.71731078431857453 -0.018228815839538517 0.17428874507301814 -0.26273341158468683 0.02593638445823656 -0.34026569659074996 -0.010733521830804492 -0.1614987321419353 0.63135603406130791 0.16145579655276876 0.1675688309139958 -0.67220891180414943 0.19100158393258157 -0.12749751180968177 -0.79852671118932472 -0.12005001574429916 0.37540260789909335 -0.30858545135694571 -0.06045800839738022 -0.80644451811081597 0.4068084375034155 0.37497929451517237 0.31168730942627854 0.70882398706126148 0.0015918060655031514 -0.13906272093272792 -0.060265588197329537 0.34076953790854075 0.0020207771352966811 -0.59697935070081787 0.25856553152030826 -0.0073453263163722861 0.083612468156625402 0.040366279474521399 -0.03977710448237063 0.2300461714498305 -0.31113639003273674 0.18857873690638452 0.51620513906733412 0.030802546159380467 0.75248401771593632 0.17227748236004919 0.28579823130860016 -0.59529907346164956 -1.2433464764492799 -0.15750015240438808 -0.11695391351628553 -0.014612522968052792 -0.1465430062070408 0.026238317904808427 0.055553172811088736 -0.024197039772733683 -0.052006121697218508 -0.036635589798763038 0.17401605727476971 0.088785321851715573 -0.005655797176241888 -0.046778068392073588 -0.19979669789020399 -0.13087260938954837 0.023413258926959987 0.063718470900384946 0.17654960527039132 -0.12442553902687414 -0.070237121390534063 0.002165526180782011 0.068233118904797871 -0.070063023447746439 0.32966874270384522 0.0032570873890031345 -0.020909493174993091 -0.070801401098390546 0.055973639809861114 -0.01951271421480533 -0.095125610086396833 -0.70306278791531296;0.11974909329636978 -0.071220125344728519 0.022874956643192182 -0.095993844853743765 -0.023891527764605031 -0.14894814388824973 -0.091832687782659767 -0.036895010050756336 -0.2106204121678775 0.19793270951509709 0.040278090384553142 -0.1696690259856668 0.10668775032572791 -0.20149864058357109 0.13446722399824798 0.2001295970849199 0.12801152112617545 -0.21007257862670414 0.046412227139817519 0.088498023870628259 -0.13830626035075155 0.22138296135813781 -0.2127452897139317 0.18960984442092357 0.1203108478290142 -0.042630409654067128 -0.052450285857009074 -0.26092335867743333 -0.22810492356014345 0.12069373940237881 -0.063464973686613899 0.052327309114774408 0.078215769321651626 0.061661836874177901 0.058144436097948116 0.024870429003842953 -0.15143535041474726 -0.0009236465413992339 -0.0030331785507647264 0.034192543960462701 -0.091356201964045439 -0.19642092589593471 0.16911221846722119 -0.24518470044312052 0.067136345527022689 0.034494950783708504 -0.058057770497897079 -0.076287005577373557 0.080570684243038301 -0.19246422874557589 -0.22316228267945232 -0.02025393933574408 -0.084363718149724237 0.2008833308100863 0.0019500116570389109 -0.092826607920253892 0.032455469874124218 0.11174613562476063 -0.052170163857857464 -0.12918237366400065 0.029557032376434623 -0.24419896476865063 -0.08631078057612164 0.10472792463640834 0.064516387598746991 0.19805722874857287 -0.17018644873384717 -0.23179583366942413 0.10160762582643623 0.063616472136830832 -0.23303373495009921 0.020580694210857085 -0.0044017735805104846 -0.021863052919681058 -0.17904704725199463 0.029732432451810949 0.16832848387196633 -0.20494144618935631 0.034123310811267675 0.010345326742544507 -0.23561662106916767 -0.19456863247121658 -0.089560159936392339 0.092490119390628581 0.084557882974668694 0.21426075743724537 -0.17540567089748213 0.11738984840950807 0.044883054328285758 0.0097932434980002349 0.062097810893472084 0.10505946169783197 -0.18479851993657967 0.032285107644250188 -0.080888745669920811 -0.16357890027544941 -0.10221467933395255 -0.082519749678788876 0.11292626868936458 -0.14188888593298804 -0.11929143847360787 -0.1806465612372101 -0.12983202466090898 0.23411285579415675 -0.23045861557965627 0.030773945200075207 0.031707494345272556 0.094989111738194049 0.071680044165941217 0.098600205661405246 -0.13881193088546478 -0.044906533220756113 0.11641986586710926 -0.14865526625505041 0.085351266773885104 0.15413964501999605 0.034634593838971731 -0.074417143267051428 -0.16421697422464909 -0.081735748581082845 -0.12338123114712352 0.19731222029717851 -0.065769542957093974;0.21005548336252755 -0.1444117353599772 0.25475808290989072 0.017789590199812522 0.10332059667951819 0.074359458657358088 -0.1952558101617248 -0.13501793369290874 0.048172808121031231 -0.08849044080967286 0.20537803102781488 -0.14089343304109533 -0.05853165876986232 -0.08334600024171987 0.086094232074574797 0.13397382356446602 -0.089563004837613563 0.2296386333549954 0.034955002102277713 0.039573536285979656 0.22049030160550925 0.00011845925672847786 -0.0054060342486466732 0.20195417484683142 0.10550578367507381 -0.011100248320111181 -0.063796409701589452 -0.13923055099680692 0.2783865605107711 -0.0047639930904420993 -0.18020903735460217 -0.12625093697194248 0.0130556772401199 0.081177175291440529 0.086754792218548843 -0.1337865075162267 0.07346841125148304 0.030458020164467959 0.19124155575521101 0.044901397007410374 0.27293541853313541 -0.11137049562664537 0.093225632097655817 0.25740433792651912 0.11133783747004475 0.25750872065073588 0.14257102247354039 0.10402628590271153 0.076390898878510125 0.097139234022535992 -0.07841558706467798 0.17159296226528042 0.012033591260588743 0.081860371977057797 -0.064220488507613277 0.14994388676802409 0.15755845007337391 0.17954649116998328 0.015598729988868913 0.016645372049764101 0.046644165820737368 -0.17813437618634015 0.013733472878443891 0.23406944139568361 -0.046007876446312809 -0.082992498530237685 0.066343408947313873 0.24191403477862411 0.043242866023958708 0.16430812867569278 0.25594838138987469 -0.17196988980379896 -0.14924139646045462 -0.14007095357080132 -0.19611303236975489 0.23647467103376613 0.062545706752986166 0.18027553929120047 0.062875068744889226 -0.014216218634599926 0.02341374659982506 -0.18373688908124208 0.066094676576172018 0.042048105123625931 -0.092332917095344635 0.068169603712030721 0.087166252552594761 -0.15465194626523768 0.18810254806354745 0.17548986800796562 0.18192100974357703 -0.1424639423533928 0.043302493284812428 0.033338378375164186 0.12975931702655677 -0.093007712417042379 0.12895728228227799 0.13172550883315115 0.12593370946698168 0.23202086347135797 -0.064474300807110793 -0.084868758546714412 -0.16310442387635571 -0.0088378893681473301 -0.084897722955623978 0.15611128036594313 -0.17290273930875308 0.06566866332208196 0.10681721702793764 0.15754252654266659 0.22378615117432252 0.18806016415977175 -0.21389544579541733 0.11810564832769063 0.045766931332550234 0.081925881383885082 0.15100836891016212 0.10179476053845365 0.040827792256381071 0.1112582579693563 -0.090269785997224572 -0.14539095990279952 0.10221971561015362;-0.12058430645769183 0.10817137522162472 0.12988295136895378 0.17621422815373988 0.24833135463780218 -0.17275120929967674 0.083714482122066738 -0.28505669097015462 0.44766890295539685 0.21579912251093869 -1.5115799373109109 0.11126506572755421 0.42292800030516492 -0.095212473642284773 0.3011847352497023 0.10669421182457406 -0.13964179791760997 0.29496502318468132 0.38693419291943737 0.088008094255821817 -0.019017571324316179 0.14267857774452647 0.050560573437029049 0.11199576958723106 0.037782324356069735 -0.37809546604040978 -0.26360207882265874 0.26939431074645515 -0.16104460573336948 -0.21182369747367211 0.31436251000698351 -0.092584934141600142 0.63706541658189431 1.3009012279090171 1.2015296814792156 -0.087737060197533731 0.24072317531416618 0.49171556456877363 -1.2211614279294063 0.21560267912136882 0.19185686047356965 -1.8113198703665456 -0.55687415578514488 -0.24388251464979332 -0.43223014925697378 -0.24386440206735172 0.060728694760028873 0.15829284046126901 -0.13303190568248929 -0.57292631326459453 0.18767006947508511 0.12270844594495088 -0.19054325176248665 0.20343660067813135 -0.23193228908661942 -0.3843383473831396 -0.72802156715780741 0.82723203554367553 -0.34918143725595041 -1.2513639747384957 -0.28901000600840449 0.80750732778970857 0.043800838030825393 -0.10183694727263133 0.27972668961655883 0.063068660222067474 -0.12055084745625597 0.82749323745347947 0.98582521210667706 -0.32957784090332826 0.084706297273115003 0.35435171171021523 0.38883743443738011 -0.14216492711733103 0.31090045872349542 0.35781716447974449 0.43513713411268912 0.4929683129912048 -0.45226098158120243 0.054503408182043897 -0.20590912195097391 0.0070421828652823095 -0.11526613387575711 0.27814128753035888 -0.56113777132280152 -0.48780532507491392 -0.74186104515145523 -0.1125470313652045 0.23542520732460709 0.64345441049382501 -0.39628320610657741 0.42098645765175474 -0.58689088705974013 -0.030585055743506985 0.072333035728696288 0.014282997556786428 0.079646613061554586 -0.055766022917555468 -0.0088797529550549859 -0.036869264609442072 0.11447506489678302 0.11177351750084888 0.038087019653428734 0.078082782081806995 -0.0019996035221101589 -0.069602319840591148 0.055469826113581186 -0.051152438771745586 -0.036755912024304505 -0.066474436574085499 0.025477517279887486 -0.14907480085881716 0.039766014120809039 -0.017579794044424085 -0.040963180279113449 -0.062903230949461181 0.013095949902295193 0.049224471353615969 -0.19178120723506881 0.076031796890740952 -0.028769653510981156 -0.16729347249548698 -0.21808624844139396;-0.05408855185928374 -0.028774543093358362 -0.072508751845105704 0.097132271632648939 -0.17600149740169774 0.083874246795935942 -0.21598189632247522 0.16380675710939649 0.20172399706400404 -0.17578290915063563 0.14761521417488233 -0.09041076681191848 -0.21354816650390906 -0.020008428265798253 -0.12806633666442677 -0.16690611945442055 -0.23835909477583853 -0.063830452237148727 -0.019228277673814274 -0.22839035679182768 -0.053853506151007667 -0.22410493606227944 -0.07650368998135236 -0.17351076508456342 -0.18876879453000767 0.075350068247254667 0.020152317022985276 0.08782120878825142 -0.046199844577647704 0.14270781939308025 0.16681169909798099 -0.11507161275865888 -0.0035439603349503765 -0.25251806859790998 -0.17132219725373077 0.13279992330809484 0.10796638196872207 0.17152086552077955 -0.13248173090770451 -0.21462535475237388 -0.21868075735041731 0.12257037905630634 -0.058294101482652523 -0.021735402115029837 0.011377691663234376 -0.0096549075908175519 -0.16244697520060652 0.077699974408757186 -0.054788266167279442 -0.1770202807827026 0.038421384417497616 -0.11210285590848956 0.18728862350454692 -0.056834321550416907 0.021363575970049592 -0.12596843495239426 -0.18483628538289612 0.17543524406708197 0.077115931370653423 0.03296372498737412 -0.23569064650623761 -0.22099554477253996 -0.20739973881929535 0.11608448807585993 0.15137236763056955 -0.23896727741911034 -0.18436961521471082 0.031433989646104082 -0.1933286426526897 0.050254401901230275 -0.0033718214396019092 0.071824840611854748 0.02885741628501522 -0.22312823215007069 -0.1103608322090838 -0.21215580892929484 0.15473252497398804 -0.074909915308932054 0.052152336353193052 0.12441306338540438 -0.077404770532748621 -0.088929590997356672 -0.0090423556993640911 -0.16499095808900802 -0.12234169362221285 0.096149420458661899 -0.030391792563365147 0.099363294835157434 -0.13864922870194635 -0.060901549017525522 -0.22479537981616324 -0.19055615564496234 -0.15699434927102826 0.030762572516418167 -0.06732382976320811 0.053350199806365579 0.041378833110833922 -0.019660742979556542 -0.14214569623262063 0.087709714119928811 0.13570716350697462 0.062610212203632346 0.098914055251867278 -0.0020917108890142339 -0.076797989261702213 0.035068971287478642 0.050161372462957828 0.17204541194838358 0.16869928211041896 -0.052440154270848409 0.15618857476159104 -0.053272493803349377 -0.19636583117082146 0.094786620703771959 -0.016362813946779312 0.1717164894430159 -0.1846947211954568 0.032909000436888686 -0.081850353815029281 0.16836204496753795 0.045491538366012309 0.19446291490928264 -0.030541655142206588;-0.087343012549618682 -0.15870415458100229 0.13263620562665854 -0.086139548185456855 -0.12761926212592276 0.13070069266316861 0.24226513446947537 0.10577524758827435 -0.1118536198149261 -0.18305607501508644 0.022296540884422761 0.12289418561531941 0.069115376828830163 -0.16322406497596398 0.11502410657995941 -0.086216150358298757 -0.090224728179864336 -0.09596607884270146 -0.19665999642555856 0.17149051357870806 0.031514621583859419 0.13326108257490274 0.023875265113497184 0.15292590666318603 