function [y1] = NeuralNetworkFeaturePCA15(x1)
%MYNEURALNETWORKFUNCTION neural network simulation function.
%
% Generated by Neural Network Toolbox function genFunction, 30-May-2017 12:12:02.
%
% [y1] = myNeuralNetworkFunction(x1) takes these arguments:
%   x = Qx108 matrix, input #1
% and returns:
%   y = Qx9 matrix, output #1
% where Q is the number of samples.

%#ok<*RPMT0>

% ===== NEURAL NETWORK CONSTANTS =====

% Input 1
x1_step1.xoffset = [0;0;0;0;0;0;0;0;0;0;0;0;0;0;0;0;0;0;0;0;0;0;0;0;0;0;0;0;0;0;0;0;0;0;0;0;0;0;0;0;0;0;0;0;0;0;0;0;0;0;0;0;0;0;0;0;0;0;0;0;0;0;0;0;0;0;0;0;0;0;0;0;0;0;0;0;0;0;0;0;0;0;0;0;0;0;0;0;0;0;0;0;0;-0.167991854940369;-0.110863311677827;-0.203351756682877;-0.217039981918494;-0.0480138336741555;-0.0188758524839694;-0.0878341252160685;-0.267720352954232;-0.194608746242968;-0.124163676917719;-0.272067616940367;-0.105627201916858;-0.185009211679847;-0.441772520123501;-0.292640356834933];
x1_step1.gain = [0.0327868852459016;0.0392156862745098;0.03125;0.0285714285714286;0.105263157894737;0.2;0.0526315789473684;0.0263157894736842;0.0465116279069767;0.0666666666666667;0.0526315789473684;0.0666666666666667;0.0277777777777778;0.0606060606060606;0.0434782608695652;0.0540540540540541;0.0465116279069767;0.0625;0.0165289256198347;0.0740740740740741;0.142857142857143;0.0909090909090909;0.03125;0.00760456273764259;0.0666666666666667;0.0606060606060606;0.016260162601626;0.0909090909090909;0.0289855072463768;0.0229885057471264;0.0338983050847458;0.0134228187919463;0.0833333333333333;0.0238095238095238;0.019047619047619;0.0238095238095238;0.0909090909090909;0.0512820512820513;0.0256410256410256;0.0487804878048781;0.0555555555555556;0.0487804878048781;0.0476190476190476;0.0588235294117647;0.025;0.0487804878048781;0.0425531914893617;0.0408163265306122;0.0246913580246914;0.0273972602739726;0.0454545454545455;0.0416666666666667;0.0377358490566038;0.0317460317460317;0.0740740740740741;0.032258064516129;0.0666666666666667;0.0170940170940171;0.0206185567010309;0.05;0.0526315789473684;0.0357142857142857;0.0392156862745098;0.0273972602739726;0.0526315789473684;0.0555555555555556;0.0192307692307692;0.018348623853211;0.0263157894736842;0.0434782608695652;0.0645161290322581;0.0666666666666667;0.00568181818181818;0.00865800865800866;0.025;0.0196078431372549;0.0689655172413793;0.025;0.08;0.037037037037037;0.0769230769230769;0.0833333333333333;0.0253164556962025;0.0263157894736842;0.0363636363636364;0.0307692307692308;0.0298507462686567;0.0666666666666667;0.0327868852459016;0.0153846153846154;0.0384615384615385;0.105263157894737;0.0229885057471264;1.99999999999998;1.99999999999991;1.99999999999921;1.99999999996239;1.99999999999538;1.99999999999868;1.9999999999945;1.99999999999155;1.99999999999926;1.9999999999849;1.99999999995376;1.99999999999301;1.99999999998321;1.99999999999269;1.99999999999234];
x1_step1.ymin = -1;

% Layer 1
b1 = [1.4426168332878573;1.3720381563847415;1.3659398644225316;1.0484676367645587;1.2454755816460328;-1.2163810683810523;-0.53588180348353376;-1.0546858472749672;-1.0146813437248743;-1.1312018106693431;-0.96479403341582326;-0.95174729353595855;-0.7472282340141726;0.79842715707185352;-0.60704983854130778;0.55423664362529879;0.40023917400363851;0.44429317556609382;-0.41869241118404965;-0.29230160123814652;0.28556055836052957;-0.27489370028552218;-0.18892288535533597;0.066740750352876604;0.24038717575363089;-0.053367699250794778;0.098390623536068311;0.22456102463915581;0.21134045987347308;0.02207164288661205;-0.37127383056399904;0.15306430374587759;0.47635764701878885;0.50028179227911229;-0.59222318538582763;0.66703567750896442;0.9732685509396366;-0.61385038533558367;0.70793792192332672;1.298545443184171;-0.82241368512797974;-0.70976956484353115;1.4585296793469094;1.0641035495106765;-1.2184697226726762;1.145416877907439;-1.313148833167987;1.3791501593705733;-1.389113959652893;1.7134360430716065];
IW1_1 = [-0.19543957310417173 -0.20395201140846583 -0.029428477784825078 0.048958354626212196 -0.020513911178301369 -0.040889787184418137 -0.1299405027007495 -0.15183626951263368 0.1925730371270786 -0.082287526455749174 0.094557605893476407 0.035197650388530857 0.18067976396524413 0.11906880417106347 -0.065856207255575477 -0.25100487237087193 -0.10464899392960866 -0.15199053984533389 0.015087613535918476 -0.048855513249950619 0.18469074125961041 -0.2930763945374788 0.10153754265052582 0.23600141173558656 -0.074380836454778831 -0.24372473909333026 -0.19495212747045693 -0.27512452394133857 -0.20721308824751891 0.0083458612672502788 -0.11085929049540282 0.10516038217438772 -0.10665887330190928 -0.2574740413406561 0.022218706483821574 -0.23990546324560719 -0.01850505820523525 -0.11156631769578135 -0.071416237080784803 0.15850043057045352 -0.18767007332540012 0.078383481533351562 -0.0053654682739584019 0.0033535332374410778 0.22508239674313238 0.1756046371289581 -0.26582902274182268 0.11668799185475753 0.052128107215876643 -0.22516200981688006 -0.080465045714109784 -0.24575722954781676 0.05951897430083733 -0.18226165009377107 -0.038753148004921058 -0.00061842642097990257 -0.076862922175427673 0.022588150189791486 -0.06181582824531278 0.2585433128328079 -0.1420155248733031 0.022769850684316022 0.22283874371579096 -0.039897939925663067 0.22924721177965549 -0.24277663476303654 -0.12103038991415781 -0.0086401297707251537 -0.006415245454407666 -0.083057748991579083 -0.087782668510788267 -0.13752527340777729 0.036481097016110672 -0.031688482272013964 -0.079123706019547324 -0.25003265375554634 -0.026340454600556108 -0.22595673272636593 0.23632462045000474 -0.089086252077807529 0.12049066408396764 0.21089355175487215 0.095270997093904478 -0.044518401111888532 -0.050429689190328725 0.18364129617368655 0.067916026500942028 -0.029441083285317405 0.11522108620450447 -0.1557384459122671 0.21199802961380276 -0.25954003252548913 0.12220466335854292 -0.084742140915051042 -0.08788397952416549 -0.17410565843729581 -0.055474978417380374 0.2263022078061773 -0.092129252368888193 0.12900868817275341 0.38391069719626214 -0.03567729780920452 0.088941981588306768 -0.071885969687767462 0.30543839156899333 -0.13330857103648092 0.080796472599896543 0.049717459301435896;-0.13968821447000221 -0.14064979486732934 -0.006678205976229523 0.2418033717730361 0.26327805423619732 -0.22860253596322302 -0.12433176348788419 0.10640667665883399 -0.11460773841638229 -0.015018015871204304 0.12594293427303918 -0.063940945652508713 0.22950082029656207 -0.15651285646628543 0.11744423724828264 -0.193167099127901 0.207680496010689 -0.043145696790784102 -0.010322099567957098 0.1374785480666518 -0.15776240839344732 -0.04265926874064583 -0.14115961207907116 0.069296908549259337 0.26227804477319588 -0.094303790360061229 -0.051909866865105299 -0.098910664396073295 0.22124760535070653 0.23815647278016003 0.090314650702217239 0.038197648939340287 0.17289964325334212 -0.065805462726482966 0.1869823857042352 -0.21774096648491717 -0.042189918493228416 0.29768714987762812 -0.13828485055934733 -0.10773007013239508 -0.038723247972700839 -0.059423739407922463 0.064425814079359919 0.043590310556815004 -0.13239280493537564 -0.11879493881796349 -0.10180796908095127 0.18494049830160192 0.19732163018869284 0.2441084076363581 0.0078224412551633048 0.19781502287728647 -0.053393497948306862 -0.080172037818594291 0.15253174145011869 -0.16643216650300996 0.07187265778191472 -0.034955560889648955 0.051534598479088242 0.1439447672972787 -0.17373083197362055 -0.21663222407715696 -0.038338865489879227 0.031888607561098695 0.18355614536035017 -0.026148420910411987 -0.050994057398017892 -0.22659690736208762 0.037911236951715048 -0.10881793754325375 -0.025424177954916066 -0.13223526593918183 -0.21911339581399278 -0.051308250055702727 0.051289350590645148 -0.13890317116197351 0.25522036338948545 -0.17280024390597609 0.024598637203271587 -0.13196374485276727 0.012210599784293279 0.13057413260679279 -0.14418470345171483 -0.029570852767108639 -0.17401886592066546 0.010766589721384673 0.17884780091765132 -0.030815302125125607 0.069021955916104438 0.10002022181764784 -0.02367151668013686 -0.19663278460231109 0.19164608384477161 -0.064644307899546366 -0.035425786074256019 -0.077871238436072063 -0.030256277229600583 -0.071100360902000698 -0.028392556572793395 -0.080115544652049259 -0.46218202268345404 0.083411498412938323 -0.17986153747167521 -0.065522402204681474 0.13499719001042096 0.065415710728624121 0.395789600986104 0.032322925086954515;-0.11808431677067989 -0.17677186750679783 -0.21140508802677399 0.18978135598959517 -0.097469161156835155 0.017195291295658006 -0.025452786017751677 0.045242902196589212 -0.26697057688063697 -0.13451272956746982 0.077339321602704111 -0.14664331231214839 -0.10096611689330207 0.094391567184303124 -0.067357685096375644 -0.046487455559705397 -0.29465330025126746 0.14591740857927987 0.044780890477587147 -0.096173204830677095 -0.030457123803219029 -0.21411362941349638 0.18862500201194607 0.1965128640954342 -0.15799925120354963 0.18030832511188075 -0.16227538695310467 0.14243075498058308 -0.13071296159982884 -0.18658871787969561 -0.042076108127063493 -0.021781427542815458 0.14530038198257361 -0.021367079054203809 0.11838170539489323 -0.11239588038166314 0.2106154995981008 -0.20626141859137362 -0.25564646883501818 -0.15252348500063154 -0.019085586881042577 -0.079946022384859206 0.039332313471495711 0.20721471587109383 0.19570193282766774 0.1250861830898688 -0.064449088853445316 -0.060494407950148245 -0.12446067632654545 0.19769999723048731 -0.15362174111606183 -0.048751956016518938 0.024254723138284268 0.12048289679197494 -0.12196449431830285 0.11063486725938758 -0.028075180349288003 -0.16370300623570525 0.14178038941587129 0.1644035796653634 -0.048778328771454084 0.16811181677636577 -0.09391587459040289 -0.020866240261369254 0.11260416965923517 -0.12054717327646378 -0.22599413386368436 -0.0089154662487482671 -0.13347423625423244 0.0071181493219680389 0.12880608670143343 -0.053942290548316001 -0.084380820303623746 -0.12405923116611275 -0.27644705331747804 0.20287634996242052 0.0040509127810576511 -0.096191738120715936 -0.22656079924144285 -0.14206008280934615 -0.0061956573883951834 -0.024214889081630605 -0.033083699339362498 0.15612291588648802 0.043732656232062538 0.15969494741622259 0.11289556219300954 -0.040268829719461961 -0.091801202728328771 0.10608267819154288 -0.23576431257222955 -0.1711029531250654 0.015304484756736717 -0.19461503667326319 -0.20592565420386177 0.10470128621298744 0.099731477137259328 -0.057756102671030693 -0.28256779443655883 0.17062564565531513 0.093312381026319197 -0.15370248542054943 -0.012920315776050311 0.1583676180533064 -0.03793695462718262 0.20576410199232953 0.15333765313981007 0.064431016025474047;-0.26105823808787948 0.37777325537152384 0.46819284487867241 0.19696999309904553 -0.083908484338786338 0.18807720559852839 -0.29165719569239595 -0.23189118600160658 0.24510582685466439 -0.046202720070705708 0.47823511076573955 -0.18322847878690982 0.77542779804787076 0.16594308038685876 0.14883727641587366 0.27378242851054507 -0.18307334425549371 -0.062224363962459478 -0.098318146836199619 0.079505667010350459 -0.21509982737610764 0.45312037627896617 -0.26679123328052468 -0.45803705860814381 0.18751935625518654 -1.1657319929036962 0.11923901933611587 0.061002320417171525 0.26004611312953568 0.19090731287843182 -0.14650974255494686 -0.054672742632743819 0.32216153916946294 1.109090720116827 -0.50178099765365258 -0.205562270691073 -0.67973649391322499 0.012649611733910205 0.24716856851851912 0.10287573379825476 0.022309303989566175 -0.7228363232591094 0.18722579241538159 0.098399661497722613 0.49814901806378981 -0.14100999702978337 -0.23878565336622565 -0.038745974177358172 0.19040993656444605 0.386884517761722 0.18561614788020547 -0.33686506453612652 -0.18213626376462499 0.25521426797941604 -0.2760571804787883 -0.079647212572889717 -0.082103003258389845 0.12955238948811687 0.88399927021108238 -0.87020636336766344 0.39304009647929572 -0.10543095124048167 0.31827114530380102 0.5549362800997214 0.10177623994234805 -0.02102095433525401 0.10189814643365878 -0.65930863061078737 -0.26939213563939723 -0.18418767524338148 -0.29166917281938143 -0.067925777180909114 -0.032176119787579033 0.23180977200072964 -0.14583737587986684 -0.70543839429581945 0.34554613466738793 -0.83761221978333922 -0.036805560159806926 0.14983872526141209 -0.47106860500253978 0.12736760616657158 0.12140172470651767 -0.62004374714462174 0.16081740015197185 0.44559335782197396 0.68065823755133237 -0.25621712693862791 -0.032950614323748462 -0.58796272409531769 1.1395704462814329 0.087603860638662143 0.50789093059983059 -0.11706220603966708 -0.50825920548135961 -0.041493984438807051 0.012104231246318934 0.046277587523601275 -0.067693719920635123 -0.038979795595138575 -0.12894564379793153 -0.08427980989337866 -0.00086767832176544652 -0.16039533816220333 0.21626075907229042 -0.3994062743157713 0.35939761959333494 0.017207002575987489;-0.07981210323163021 -0.04057204030340935 0.20112586018355863 0.011248345244517503 -0.16213451144270419 0.11117266428640565 0.052770051228459972 0.048319118613816436 0.16163545471004589 -0.071770602581216106 0.055787880710929431 -0.066665993441812454 0.19762407100866766 -0.25153950646130013 -0.091063346114215238 0.017492443808084315 0.069264479400186096 -0.068221081464902703 -0.031947812972310079 -0.022084440970366243 -0.078456921254140013 -0.23127150371285851 0.097136491364602881 0.055365631623816781 -0.19174624911271843 0.13646611919342796 -0.26023729451492805 -0.08225502369537957 -0.12697056020585473 -0.22980987491463048 -0.061180466616640027 -0.22209128819503227 0.10810368593808051 0.071758099039888459 -0.24646643573433272 -0.16117866785101873 -0.017597447566689919 -0.2044895825444267 -0.08405897140008968 -0.0018108477280149955 -0.034049351748850855 0.081954237043048953 0.09366555156004179 -0.11497931069272509 0.1899215472032259 -0.26362596552333678 0.007206947650441684 -0.25070619984134923 -0.20311175387166813 0.095506699726727817 0.19564307475632658 -0.010939233849712592 -0.20125044131391581 -0.23946628638058517 0.19196313097348697 0.01506454668167208 0.058403706552202853 -0.23804417283332729 -0.047100362166628315 0.018829702328994665 -0.13906427626111972 -0.018197147887982681 -0.16865764823292637 -0.11882918638139228 0.052312760562364523 -0.21854623921493241 -0.2237952194806675 -0.084875551108070102 0.16420248467455373 0.078985256618079577 0.19215602409285454 -0.20499271527755045 0.13809322471623109 0.14233584385349693 0.093496852413660167 -0.19452062443607115 -0.035495313379923732 0.060275423458428727 0.10620101394139726 -0.13035272540103018 0.069574255636819057 0.1904216494720323 -0.022533014940306469 0.048249444922813384 -0.25076013821904297 0.14106199029272706 -0.20173505474406736 -0.0046594267902910708 0.083836359631165855 -0.18672245379525765 0.18459096207593106 -0.22829548436071115 -0.00020850758166213887 -0.14004447016261126 -0.080029984920344632 -0.062831343793312275 0.087643297793175229 -0.22567945489161206 0.2025175072831879 -0.060278277143875091 0.17473248415482173 0.06295422405999232 -0.13551909185780167 0.094018775765570925 -0.14740586460915306 0.092507132257674235 -0.093728201116441104 0.074966970533274613;0.59541946513362365 0.0080529931839634847 -0.014820304235490406 -0.24632976047983868 -0.026626426366604651 -0.20566263525584064 -0.023212154664167699 0.17119549165386949 -0.6066377608665724 0.16532449302247951 0.081255117835453056 0.17364302553933658 -0.15185926272235983 -0.040537871059946683 0.33931791777782488 0.13520519653085614 -0.18746263725998999 0.15761536012591923 0.15811577071443925 0.10290464023486522 0.11542267662915434 0.13427979066130352 0.29584337134077421 -0.17160321036201562 -0.38797709094314736 0.8521443186694001 0.083917626936737225 -0.1020951091842679 -0.069829241159433328 0.010998299003887053 0.035239124206043505 0.18173091737146996 0.29120105602291485 0.84825123324527529 -0.51959513994219941 -0.15080464402588362 0.14267344129711479 -0.14395912992629478 0.24394495288383036 0.29337711361381719 -0.04908760935459984 0.64927415522411291 0.0025628026407034719 0.1227331352037882 0.39113928911795331 -0.24287428229614405 -0.13654170005645314 -0.43218912142887816 -0.077854798169316938 0.4085406342171512 -0.25419256551393327 0.1724448928195049 0.29821129647348171 -0.32533935423564558 -0.13140293835485745 0.31869444767945254 -0.049378696734209054 -0.095459131682221102 -0.20501669001340017 0.57069739707241551 0.14594138832399711 -0.64241812500815754 -0.24573540417455747 -0.38490493244597773 -0.08607329731004669 -0.24296934099605519 -1.0511564093878725 -0.41146504790191202 -0.28978493627040269 0.11328525746731567 -0.0048312536755603696 0.041771298821916575 0.12664255268604335 -0.15215178887439729 -0.25952230492226053 -0.20662315740282131 -0.26885060491751794 -0.24359507668935768 0.60226088649002774 -0.3804360461199775 -0.095024863074229707 -0.14929068962546155 -0.22891547216463728 -0.14148681700602742 0.28963995034014667 0.20953739278615138 0.08889465881233713 -0.28446743260551616 -0.42446920099936103 -0.29783585076571334 -0.074948818244972251 0.40694767119350861 -0.1060847085803131 0.091309744872876339 -0.19975808800781503 0.3319709742523333 0.026548907912964347 0.088212678632003827 -0.18594825853563809 0.16188945819559769 0.55424503869865316 -0.58824477300774469 0.029521218963623749 -0.1977146715163132 -0.34230846637545986 0.76212631979047918 -0.07800496211777104 0.44845478230923458;0.85900100209976959 -0.32337199707557701 0.030442356366219218 -0.060044610328598112 -0.54609003829997049 -0.5620147131176022 -0.040544292679158433 -0.60191053170042796 -0.021948338426291909 0.06910901628443325 0.71054739423819713 -0.43631870497356223 0.26638905690413456 -0.053785672061894343 -0.46788928149714193 -0.2598521746128557 0.1121236562412708 -0.36974840747498183 0.11464101805640642 0.62884629025717409 0.011589430747764971 -0.38076735316370836 -0.32689422024629061 -0.95320864803627603 0.061071694419781108 1.9390371608600772 -0.2811249451943254 -0.23304489466300909 0.0014007573832878505 -0.64321667996419263 0.10870719253291244 -1.4508862023239886 0.20684211691974705 -2.3203155107787192 0.61568811056665673 -0.070075954350137137 0.13607750775064004 0.66429942209249282 0.17461126548687467 -0.87803747400557453 0.93179158749294033 1.0086404841603216 -0.84560490219525808 0.13745233995774919 -0.26420731904706152 0.12094021552050463 0.62817603925957333 -0.14651473429141348 -0.73977992074885401 -0.37777801043825171 -0.31188717240458319 -0.10305886906144654 -0.24222407751472208 -0.4289645309536963 -0.36412212521008591 0.057796696163992051 0.48167115712359754 0.77128386903845014 0.20561459491463047 1.9546202623223012 0.012971976565605383 -0.39398070693534082 -0.52756804821628411 -0.38549172760545813 -0.24586526058077057 -0.25602763185898492 0.13138186852534905 1.5401707985206572 0.81728063122752448 -0.054857945850938464 0.070095633730899276 0.020966901552282431 0.011098223351563581 0.16050894111354197 1.9349213007786208 -0.42253203327520494 -0.55886574419288526 -0.025909636790098833 -0.15160994677293024 -0.014024470625381898 -0.27593025416502498 -0.19877361084768935 0.12895902135180262 -0.42261289339098707 -0.39727918462139838 -0.73981677649609912 0.020042060513237252 0.36133408121661842 0.040770127267318657 1.2559072327627283 -0.29760083936682347 0.35258077374441493 -0.31440026515398256 0.042159893517734984 0.020104883856321649 -0.019817193044580513 -0.22921048183126774 0.040854765846376782 -0.032246560734168289 -0.32361748328044898 0.030981971272639276 0.035860351184930216 0.54003965107523733 0.16199017552959916 0.18003206948912501 0.035867935419931538 0.056661599285203416 0.0043044953913908392;0.056480135824331437 -0.08516234417844476 -0.2192390103720554 -0.12780351676093907 0.21284143438117076 -0.035644512215966234 -0.010261983390607483 -0.083621544306942658 -0.078869478686935723 0.056096964530919266 0.075939044413558129 -0.082232632426438315 0.1365408922861297 0.03294275604303832 0.23583005712476895 0.15541086440018897 0.1779297974251752 0.20423331817700341 0.14063554394939318 -0.11813885589176369 0.0018400544768064967 -0.1499245111714092 -0.036587241808298809 0.051280964082607149 0.032373172280397516 0.24432166109318046 -0.24607009961103898 0.21813394174500714 -0.017568905498921608 -0.24993649921778924 0.28617089553669917 -0.11732725245942953 0.13049441671720119 0.21667675222007041 0.17755065298687742 -0.12261354909556477 0.22812801006076452 0.051842322540028976 -0.11836305729165622 -0.015076953257740529 0.11493687763667336 0.26683683078825982 0.1020017854442852 -0.10321098366442254 0.12903226971405549 0.28262903725835037 0.016025630887335145 0.18700433931711552 0.2164285800873863 -0.10645150422364653 -0.024701844754422046 0.26688536260185014 0.079978528715352812 -0.033270192078458188 -0.051738308488636808 0.037631137042197359 0.17450403853914837 0.10777115627461306 0.15624018992661901 -0.13019793756717907 0.045460292164581598 -0.028110897499075974 -0.056801703663595819 0.2021742773547921 0.015462090247068874 0.13943874366540007 -0.17020107439772286 -0.10608983021897496 0.011125766384276202 0.11330720354124249 -0.071214638899588067 0.18609265720075763 -0.1915065501837302 -0.22065484096540131 0.013737385235909182 0.25709824118800972 -0.053208783586553066 0.0042703326546889818 0.13722255239392411 0.22138107662105982 0.069562156394744445 -0.049066251907274372 0.073080971037872103 0.2022794013432512 -0.066611020078514299 -0.2230266156018654 0.069045669233161314 0.079028701360597933 -0.2029024102754409 0.00014171913342045459 0.09369392688956657 0.048482014370669776 0.12202200392128507 0.24122325116852145 0.108014796186838 0.17864835317586547 0.1241143997121565 -0.20355360497493927 -0.14416020918697298 -0.038450846147149505 0.079962228282375689 0.11299290877530976 -0.022469915367458231 0.068444159606211877 0.019411876080956281 0.0034102205121660811 0.13072873438607918 0.16513663567096012;0.10301462237058716 0.0057940635472464724 0.28094205954273038 0.17849380606897969 0.23725423896572631 0.11736925411891541 0.044711420765922896 -0.10130635363409812 0.045454389069687511 0.086029004165081094 -0.11587491256169945 0.12491509260987542 0.17795125648711721 -0.22060083298421324 -0.0053003037199190603 0.113254950893701 0.18179992777105469 -0.09156772295964373 0.13921243464777566 -0.10159605812996961 -0.051176717541925806 -0.10000870382072614 -0.099396953520526951 0.10458133148671636 -0.16860833669980579 -0.10638618101958193 0.023696108461676271 0.022783061655262025 0.095478437021232085 0.16068312859452538 -0.076525024377118028 0.22985899157603326 0.16445756470053149 -0.051336550014871911 0.24196390950352922 -0.1996524113596887 0.14699363257581111 0.016390042424491404 0.23057293131437234 0.037079851387243928 0.078185350169351575 -0.084348763218080075 0.18969560003360106 0.23616899841575359 0.020795720441329931 0.18724778567441325 -0.10941984328529528 0.23438679241920593 -0.18596650435447123 0.14045161137183304 -0.20748938773097064 0.039008883724813627 0.070574707800217767 -0.041112984402773077 -0.18361419164639464 -0.083738692644374224 0.15240369438058637 0.073902274546042479 -0.094828669476400548 -0.029226227398308352 0.13472059248301349 0.24445353215252191 0.10141668701999597 -0.067968028793339519 0.15831909667923444 0.11195257849492722 -0.16816847069686827 0.24005658913064068 -0.039386100460894892 -0.050348879684902453 0.27903433907185177 -0.18030294628483426 -0.17042930122092836 0.028604326228597564 -0.17156874842971023 -0.12901642060997914 -0.052038841790138762 -0.12148769665907444 -0.071073472426938025 -0.13073369981293095 0.20005507417656776 0.13866253381751598 0.011791179995718817 0.036363263730444656 -0.027760435659410613 0.18554231749040148 -0.19746829291973855 0.13784148906598262 0.21152819164742187 -0.19970782364855477 0.088384521398276628 0.010488744748115959 0.14963274281331004 -0.1640986843279921 -0.011685458781512227 0.2006292058004237 -0.1412366235137538 0.00041829686604936083 0.10478001767758106 -0.15475497562647983 -0.19683089245681376 0.042825332172512991 -0.057499137278978374 0.22488139718378655 0.11471161246788748 0.13893860198709004 -0.081307897535766366 0.060491659388072362;-0.17265892098028832 0.31704253119375914 -0.038936421827207301 -0.26040472595100067 0.15947283283217839 0.44617661266760383 -0.30851359339253071 -0.034640522341087283 0.62015331439392363 -0.36049449861912719 0.092063224228618443 -0.05677638760396788 0.071717000629429165 0.67888724350569707 0.50853320307458039 0.60752351324536946 -0.57455230607942942 0.0076470368709852165 -0.58417106263148733 -0.34115358422600606 -0.26314398218139551 -0.09378312764465431 0.034349414199800372 -0.15376953577430835 0.84370263632449816 -1.1856435681439059 0.071183595377467213 -0.38745910279711271 0.35185965845339179 -0.33330813708234786 -0.29364648826125656 0.5099300514075682 0.52230767584309168 1.361274480356661 -0.66252512897402804 -0.74803994685110764 -0.33468191420594129 -0.054446473419627599 1.095174319875549 0.41816616736809453 -0.8555263446850061 -0.38647560308833634 1.9014944958500513 -0.10409469922986839 0.81350413066263383 0.00021496635829782037 0.01672305070762687 0.23166242535115089 0.45581268471154635 0.44386310158524273 -0.31293596192431511 -0.2319748085239465 -0.63487545871041229 -0.0092272216193720908 -0.33841672504213499 0.066368500155682825 -0.072100921526966774 -0.26812107125050122 -0.59841966988102657 -0.448227364984292 0.0022013317757809451 -0.78585985256080648 0.32468208606970012 1.3200354561928089 0.1549686038589376 0.26026437016116061 -0.32423819864928166 -1.5234275616125208 -0.56011859279042719 -0.20395446152725444 -0.42483431000637478 0.62188978533040562 -0.23628447306079034 0.10231517395784417 -1.5195282949853615 -0.95649101293856553 0.17079123315175646 -0.59946219109697318 0.20341126885229679 -0.47780081756971371 -0.32555907424556879 0.079134184321666773 0.043311608377278467 -0.33745534211803752 0.30750335694466441 1.5345927169463787 0.49596525728776875 0.29094735222031598 -0.57589155131602765 -0.83937251369432342 0.28451802917620828 -0.23682987392188215 0.28743619174887036 0.34323588066489563 -0.12621500360740431 0.21543174795778675 -0.068683568809862219 -0.36219721166791963 0.6341660861432119 0.10289957189275158 -0.1422923129559289 -0.3621510395215628 0.022266470772317731 0.10233272894881731 0.083267917087354718 0.053863051513950114 0.087620665872538334 0.14534612030719088;-0.57465701255004686 0.31373227796465031 0.29221920275276048 0.23626771300299465 0.0078152522471487407 0.10407885428738271 -0.08253167146618022 -0.4173083918636869 1.4936326770048174 0.27085077575968808 -0.23462692373983546 -0.039458559882004737 -0.65169441382345372 0.96257151452933154 1.3010095682195006 0.47487464291809833 -0.52229021140118381 -0.61314190922114375 -0.13184274845694507 -0.12653626494402928 -0.12571509807421999 -0.20865226619679064 -0.081817915099269389 0.56818190232328802 0.74247156994964747 -1.2229329840752508 0.077582604889695594 -0.12407845877094441 -0.15727099059555144 -0.57449311321624974 -0.17629922093488126 0.46908739952391948 0.30878027819761961 0.15187247287228944 -0.31688321063934588 -1.926244465527724 0.66266379549496224 0.24785766736517018 0.66501395555877585 0.77011056753691176 -1.8500297868135445 -0.89846298797152835 3.0355514932172385 -0.029802962666270357 0.083702505999688787 0.099950002471471511 0.13639344784332116 0.78591605865594516 0.074683012020060238 0.25985429121119719 0.23049458714186555 0.21298306916096074 -1.5847262575046239 -0.20935751446274742 -0.12919198578262511 0.005779179857100694 -0.29679246572137885 0.33803154073456704 -2.3811309840577946 -0.82150299520239289 -0.066796410924128469 -0.85872818150464836 0.64780998820285185 1.4627284727183008 0.0094588996875731857 0.092087993235300675 -0.79713294786558686 -0.65168034595736934 0.309698316477517 0.35830884544660635 -0.73522431674447131 1.2974816316016378 0.16794723650882692 -0.23459474142208292 -0.92453006392545489 -0.4285447812470945 -0.38445104454802287 0.10704670331795034 -0.42309209113358531 0.50881299366149968 -0.34017539995001511 -0.064133902371702869 0.82307179398052466 0.19358820625596143 0.74858340591858585 1.8627744736731326 0.086962478603763937 0.65009423888371931 -0.033454881332277427 -0.3096938139595784 -1.1796725656211946 -1.2949574957465899 -0.045181544489920449 -0.1529234142991249 0.057568933051834498 -0.14567822199108252 0.11400081855404369 -0.042090510138164526 -0.14046169793017627 0.026653427949767293 -0.035786865170793575 0.16618737489277824 0.057278572963733732 0.057228489374358593 -0.041148412978416891 -0.20688970083657302 0.043877971501693404 -0.017831815804156818;-0.0071608032495489677 -0.021485210315940372 0.12746570546983665 -0.30878439883571818 -0.2438028869688034 -0.14980413528375794 -0.065429585041778149 0.017543647142637543 0.13017279005205346 0.36956229721876682 0.68449020779985625 0.0091798061495120455 0.11940283452466216 -0.52781390086719893 0.75680250733614762 0.50453179860202368 -0.57340675663936747 0.010627659858209675 -0.29624315361978643 -0.27602261372156645 -0.099886706093657948 0.061822911189371346 -0.29048953365032665 0.076756843313871087 0.35294861571268871 -0.8951055054931315 0.028740377356843993 -0.050245277437130038 0.00053820299786691171 -0.52623310604681284 -0.22909982726236763 0.13270838558819736 -0.037939085535779682 1.2543045580982499 -0.51759902980010863 -0.76396355762721324 -0.29548523242077351 0.12363979247875992 0.67006618747983704 0.072332461282470895 -0.41159071807406433 -0.24308102427271083 0.52266450286018984 -0.074545550546552763 0.48710710022195047 -0.049069520661036904 -0.093382722209447863 0.28824428508144762 0.17599433465157091 0.51786144798052525 0.14925258832920024 -0.17325410431043881 -0.67802414938622746 -0.096756223716168724 -0.19846953553642091 -0.47881636811296263 0.13477164394160873 -0.11024802403575801 0.28925358621759378 -0.13313814691797415 0.04277046216558443 -0.47754850994566944 0.35507584591398883 0.40653155416143649 -0.11770621162149868 -0.060109433892116627 0.23946859558507383 -0.75570258161170123 -0.32709474075604555 -0.018363348233201061 -0.33139802137453828 0.73759975691513491 -0.38693248514821738 0.39555491102619433 -0.86236582487605429 -0.30853544048780623 0.33802454926505948 -0.43685221366457783 -0.14730756215302568 -0.15467035172320454 0.0013049684072185712 0.060980879478424378 -0.1116043921067402 -0.3947086020950118 0.29388833013074572 0.67841836377692599 0.10397813538606081 -0.43394728182034908 -0.28853742409695332 -0.36063726323195305 0.35393984404400458 0.065111414052416342 0.22153347725154401 0.055551255526301989 0.011451749303058043 0.10264605662373819 -0.15729252024388002 -0.28476595761368867 -0.16703490456939715 -0.071083800119794247 0.20029286008548119 0.48654048036934783 1.3428823596266193 0.05841383009359926 0.18534598258562385 -0.069836864632514178 0.24996461736033343 -0.05692481133167028;0.36078263895480667 -0.03126393781634694 0.21607438931081102 -0.024665995245834741 0.013589724980951512 -0.17808787267504542 -0.18343809012291454 0.59933895883189292 0.26549514552265985 -0.23051891749206729 0.042796445680810695 0.31229635790005422 -0.11952125756008916 0.14157035970125489 -0.04077083357577628 0.098136198850287293 -0.60249106275316155 -0.24063248255988284 0.094532340564398173 0.076793409275033517 0.20815736852827865 -0.10625018348798991 -0.06179759829710841 0.17112145353666045 -0.055619774354447746 0.10255990163137792 -0.025772848358042579 -0.046237676495800926 0.3106500153321663 0.13645420561005545 -0.11575188454667228 0.093532096254899 -0.33221167518859035 -0.047371742641383059 -0.15361910662401046 0.38481803920792185 0.14419382454336779 0.22360772062395692 0.011936245344283395 0.27467498468162088 0.10918130357194647 0.27634444660205632 0.061888877630460346 -0.35491271618362008 0.16074169965829749 -0.15243988200246569 0.083662553707482795 0.62594718146326611 -0.13882194580586413 0.092765712963804495 0.034750522163482359 0.11236406377930713 -0.18681956734742777 0.017283745469505684 0.14571711661997944 -0.1880748804655499 0.063908773901928909 -0.13819173493526474 -0.20278257749051415 -0.067265867272406188 -0.10741382899619993 0.15533625977155036 0.041094956903795186 0.31582563589241319 -0.17913270940862056 0.15423469807025331 0.07027432438611457 -0.12512948836467599 -0.0063851377460380958 0.086323847207547488 -0.1098394018212403 0.10952072351267519 -0.049186866217865235 -0.073938938360507273 0.18932018276408349 -0.091794601645742199 -0.2662067686927776 0.099614806994881649 0.088517111458462902 -0.20511990342722489 -0.13498308432134382 -0.12770833895552477 0.083541794932908281 -0.1038523490809399 0.019776184952034925 -0.14428319407311097 -0.16349831617421592 0.20140905279303276 0.17887640626004256 -0.024684837841845761 -0.018751293185273146 -0.12548282003186972 0.17974387071292011 1.0164394910499714 0.27655448612239214 0.026592730519293471 0.15914553506826909 -0.17079648762971275 -0.19627953691012051 -0.14357484847714033 -0.088134455305667353 -0.014293926167480606 -0.58137558235968223 0.041845806822518691 0.091344834845913853 -0.24916322682648787 -0.038614165890805206 0.21206729396668655;-0.5377673145220272 -0.25747402248250667 -0.093620763703277321 0.10332011283607127 -0.038058218420746574 -0.08097360647128829 -0.17732187012403064 -0.22326585070703747 0.62253330646584049 -0.32316091466271679 0.49801383904680729 0.03900929106380413 0.47227225671865636 -0.56807226248369314 -0.68543247349186509 0.015798313349682607 -0.14969704068688092 0.3897271384300362 0.31073220120497291 -0.26247334355694224 0.10988440380684528 0.3213059474369378 -0.27184903499029106 0.17193267341257099 -0.50326575347529179 -1.3602293618503916 -0.049405237172272083 0.13727711914819116 0.2618732201735775 -0.12747617226215663 0.041275442065049441 -0.12411086874192473 -0.1404300122409945 0.98416054008895482 0.29744918593229885 -0.55514160358427289 0.11777039256996905 0.19265307175759558 -0.11621195363298932 0.48261691848334765 -0.19788117424085941 -0.47230101640193273 -0.87840639464172288 0.0085373752304844994 -0.17845566568623364 0.35025098550890932 0.73817079344700842 0.056087385767389975 0.0065089711842573972 -0.16540895140034925 -0.12201725678680089 -0.26354895193202277 -0.13696511175202819 0.48928011493465895 0.12921578477567205 -0.65768242732695725 0.14877424622033503 0.56358496121795509 -0.78598334538931591 -0.63334374829383377 -0.098306681855433814 0.052089884477588361 -0.07687383344356255 0.58818885092194872 0.26774471479182399 -0.1557127519690194 0.36404533705585868 1.0956598544121314 0.39937797787301621 0.39614440254311889 0.601430615821128 -0.66054947636088335 0.44171703407627816 0.16291021946233533 0.30450042883564871 0.11175378417397507 -0.4249038110309129 0.28276826800570598 0.058509224594578121 0.066148945575109544 0.06279443682062702 -0.024064492899764259 0.077079073073823015 0.34080319561369982 -0.49899442453824372 -0.95390989384107494 -0.33061640734693293 0.19110622325435261 0.064929761765767452 0.78003443913180304 -0.55691061493281258 -0.41971756912510616 0.044992976017907547 -0.077895347266792578 0.2260364109990774 0.26391473807742855 -0.080241835977378426 -0.16904984360575367 -0.48347421966644055 -0.051071399648212744 0.35005543049153542 0.072833129974426924 0.37250266003477794 0.51772515758934179 -0.046701882734143392 0.35461060736952366 0.49184975963441996 0.17359103251263472;0.14516085558749145 0.17755620462102681 -0.054525944641834509 0.33197961325570574 -0.061553019280421992 0.18745208611627359 -0.15280492071972243 -0.26594323596339625 -0.042380720362017628 0.21233261008289375 -0.29617489052415102 0.063857041014039523 -0.11499132443733767 -0.16943794611971275 0.15125941428539091 0.35382371112203276 -0.25431355707530645 0.27338726591648577 0.24494706892652793 -0.33499816459422582 0.12723217196896874 0.11905205296366642 -0.20183054450560839 0.047057323630984915 0.1606716270465392 0.29727066850408951 0.062210793944324855 0.26718040573228335 0.14023120467968975 -0.22421567230584388 0.23730634026847189 -0.21340527333270407 0.097627540811992916 -0.061296533063812345 0.25539966249818469 -0.17958196809426391 -0.061085457203976561 0.27192071567583004 0.072721798506780316 0.12619634890934461 -0.15046714710846157 0.15896610420731966 0.26506990659714158 0.0074635152744151022 -0.10752086117026065 0.12419980906371968 0.035749625704136083 -0.12471169971232411 -0.18298587478439374 0.035450984070733008 0.10803985197453241 0.043677893933615708 -0.24722666495222528 0.22569351985928121 0.082307382664394302 0.032533263792602046 0.10476838604527901 0.1170143402146844 -0.293115925175849 0.020549944461327477 0.092689197502949974 -0.065194741676138757 -0.2211323871388037 0.096930081269139018 -0.14425968941966788 0.29007670860022072 -0.17752101288387248 0.18415596366989048 -0.0036714165176852851 -0.29516997849199572 -0.073607812891544569 0.068531989997048154 -0.17695216311775822 -0.18130238257915962 -0.22818837539497447 0.085050228758177027 0.015968751707850393 0.092589323978859148 -0.26391549255456848 0.17180896265918577 -0.23430343369151257 0.23710790100127574 -0.27478429644943408 -0.046401151218810055 -0.022033681784511816 0.046749679520430569 0.16502464604866607 0.06078450106947967 0.18417452963303846 0.19918407210609054 0.15443981148602107 -0.084861192511501718 -0.2223569031730076 0.20370484871991312 0.41545318136039033 0.49428370218382722 0.16715807101881996 -0.24752657895870189 0.015903421928116637 -0.47400118664772839 0.22034847661417709 -0.16050381501251296 0.60529488006075693 -0.32645549158139475 -0.14405671735083425 0.36597746913575452 0.46585304757807067 -0.075605029937236126;-0.1050165434508343 0.08929287019791611 -0.041966554609884417 -0.11552975362952916 0.16615601358134863 0.040949212111396814 -0.24186253919784365 -0.03033396075937753 -0.032936450914613252 -0.14225980411550937 -0.18658069653972983 -0.061286710239796864 -0.30808469609255623 0.061050499684409461 -0.19126229447610155 0.18798567171791253 -0.096724826891928378 0.22123086209005619 0.12038227196697211 -0.02725645333771877 0.011480205128752629 -0.25138920266945647 -0.083325836663009314 0.11557728239848657 -0.10587281089979257 0.037301373616306213 0.062081875892672521 -0.072793757502224651 0.13530293468992269 0.14607317371290693 0.0073205624002814088 -0.13264094222677159 0.11738353347583921 0.0043981848770879139 -0.1424492306489609 -0.2170755521636899 0.21004352868955989 0.077509554823644161 -0.14446145789761405 0.21450302789990419 -0.11264347210025784 0.17354675731015443 -0.017997186580240812 0.045303488764277651 -0.029353763196562195 0.04657366577604586 -0.094753100608572199 -0.31821133624515208 -0.0081555594166794147 0.093547635958774022 0.022100503436113673 -0.11938214047606882 -0.14936569150950846 0.10016234231771437 -0.20506959281983081 -0.064356491998987284 -0.074633799603264453 -0.22551069697537687 -0.19420260318275442 0.15183812076834535 0.19229575357870918 0.20882983398312571 -0.19512370774656695 -0.10681384970883288 0.046012968216586417 -0.021094322445033425 -0.23104354851934089 -0.23645693880055549 0.15225981371004835 0.08215503257362318 0.11071920422293781 0.13698207497570022 0.18725022707177486 0.20544129765866648 0.21525515339097434 -0.21938458932335461 -0.0054306073426623183 -0.32373009317372731 -0.22190988843854687 0.074933822799286162 0.10259629988053537 -0.15321290926397008 -0.26913509490158138 -0.036004630264593669 0.03664931070482997 -0.21790822978321434 0.06552021347528772 -0.078759762538079869 0.15425972831440835 -0.1815834845858913 0.14549805845464514 0.13262240330022756 0.081670979013111711 -0.19255886493827487 0.1422640652954858 0.36820331456302202 0.032219227572259729 -0.033818722125091065 0.20594888283649107 -0.47106824077269971 0.062976697991498742 -0.053677433392087803 -0.092869909559234007 -0.020769888543026992 0.21800932882853274 -0.24538909458743188 -6.0339475606320189e-05 -0.12447521309175269;0.46662400614683958 -0.050173493801825363 0.65463903206958163 0.52682213620018836 -0.19826599337933976 -0.071718163106039776 -0.44955365053485319 0.079258611889829703 -0.046516766836357124 0.026649617122487715 1.4906730750215218 -0.25885269116490073 0.11488802476000014 -0.32287895068571476 0.047392847003532586 -0.23310691687062873 -0.028763828080272866 -0.16109509020717089 -0.60700848222941117 -0.43768419248109347 -0.11664011885246611 0.1732211954322504 -0.17960011871901055 -0.44263403383528616 -0.21968349077299598 1.6436417077857328 0.57991959974592511 0.25175530896360199 0.55447319006080253 0.32863871537287359 0.17290865291627222 -0.46584743477542562 0.057067260267551448 0.027139887483386985 -0.39552962968449562 0.74582324758272101 -0.51003190213710614 -0.77172536485688292 0.053937259813970066 -0.41105915542328736 0.46651670915432408 0.69069213732283552 -0.012152573469864689 0.16288766988460904 0.14240783041413838 0.63642607691994524 -0.27917847348578012 -0.77465448104542212 -0.14508677424804145 -0.43016905804793143 -0.024184820906779824 0.079820667928216404 0.74564198928326142 0.27105497552150704 0.10763065327723928 -0.89550453649015349 0.12579800496451302 -1.008047185331101 1.2631011771392424 0.36181881473634298 0.51340005914347397 -0.094338259477619299 -0.088469601620451629 -0.43940950892129838 -0.20985228596611061 0.10605273827983883 -0.60595124329497374 -0.95744449722633684 -0.72167629657947574 0.1614066338230925 -0.43947249240173969 0.35065586015105094 -0.35062499717974205 0.32541887120062818 0.33902001711016327 -0.31961344178699874 0.31254856829074351 -0.84730999152281683 -0.0025739402750877454 0.11016766762788023 -0.47038655994656531 0.27110741653867509 -0.59483597773151753 -0.56722658921011349 -0.0536589016153474 0.56474363510425118 0.8210200427897848 0.16343479814244197 -0.41114305381665311 -0.94607102324572068 0.8124992102580032 -0.015261549392534917 0.58304609635069282 0.072043486608733123 0.1095383412913816 0.056133496591496614 0.10253871825545929 0.0058137330871515097 0.18005392528898209 0.04283159657859216 -0.023091536795991147 -0.1397995921855274 0.013402221574692402 -0.12018035773870096 0.052520221334903694 -0.15466704313923238 -0.065692063828163269 0.055840118692470304;-0.17188902757288477 -0.19580354549350742 -0.15769689182733967 -0.21646739941688953 -0.01827309641731922 0.070324143723017998 0.036958324602423258 -0.223200715146431 0.04693953999482111 0.14347394127801674 -0.10763557084463042 0.20309072596218994 0.052886658063557926 -0.2034272932678349 0.096088988230684916 -0.15535494111453302 0.2379349299975142 -0.042587655757784629 -0.16408712721554289 -0.16101757628236837 -0.22810084041145895 0.23792649362411561 0.00021127003433310884 -0.019933297618907879 -0.023687206773596786 -0.08031209545358281 -0.23103383163244989 -0.056110962493547481 0.14464149136271198 0.11142385048648332 -0.18766086345115382 -0.20269754361931094 -0.04825297156905136 -0.15415330326368584 -0.080811829052725007 0.21225006845949884 -0.16094402528187923 0.095515250757809311 -0.091044855637038805 -0.24915818952584737 -0.21631163462685107 -0.16618494631877823 0.03598093860344144 -0.13788038950101725 -0.13331304995003923 0.18361593226337303 -0.038526602267851907 -0.12023203426194815 0.026169155673160405 -0.068123623709279491 0.22250430677794741 -0.24330717689802239 0.20603054886319139 0.10642819152422198 -0.077733951055226527 0.09262744351164362 -0.20366412079200868 -0.24910691240124469 -0.24242069969261304 0.017617991619782201 -0.21487318175619929 0.044571097693365425 -0.14775805310444393 -0.1047932622081609 -0.029308386700467884 0.14766314341217882 -0.18818774439057068 -0.18000968563184119 0.01245457785878391 -0.12273208728438369 -0.13581380525676115 -0.01686337571911177 -0.202473128662609 -0.14426111785477033 -0.14510221729502723 -0.11760339107728747 -0.020799912464463458 -0.16271475421087925 0.027685129660904733 0.0050082081861591698 0.010445428105504188 -0.085319704824380671 -0.24748667427707416 0.20622143998300349 -0.0069282237535024365 0.0052036652589657548 -0.11398818643065113 -0.048193522650539333 -0.19367230586942671 -0.16681865369470508 -0.027030989938630182 -0.05660974638641747 -0.1711161508925185 0.13399903282738448 -0.15415591414455548 -0.052714507938147741 -0.090104544757142732 0.03164623442215591 0.02969900616043521 -0.13878655449053948 -0.0038315275576546741 0.020410892941321642 0.04776203625097309 -0.12866622486713478 -0.047614792109038379 0.1189426072355623 -0.095394608725143784 0.01279748885038213;0.12244545939807025 -0.18637116822149966 -0.046104268939785038 0.11566735097821992 -0.18401827054673262 0.2174702010987227 0.10559094188476104 0.25628891317135671 0.031613749932039109 0.082187977382211036 -0.13731681298430559 0.062037009568868345 0.20227241878936114 0.21917327106986875 0.19137797113195279 0.15209149910429345 -0.072024776490948531 0.013516493977410223 0.21566393694586847 0.25288102974654725 0.19113303734326995 0.19634911640713382 0.22132738852864775 0.2445509937985427 0.10434841588334519 0.1820635078666257 -0.044465249464181143 -0.11070315963856721 -0.078809954396848708 0.012146977852846215 -0.084247517292299706 0.088078422279186358 -0.10576852033898571 0.11333413109381306 0.2196435967486256 0.041951843567963144 0.04612654499584231 -0.16704852698183711 0.21036287372886178 0.22172753028440534 0.22722997549246188 0.22744565387198987 -0.11611550585833026 0.13121454049947556 0.085106330040862793 0.16147657096835755 0.044149202981201598 0.023678397903802571 0.24554407507714807 0.13363063748030438 -0.044142550991734988 -0.10296604327033938 0.17350055821690305 -0.048475242567190331 -0.025035160737182878 0.032696153419849938 -0.018292526322080095 -0.11406117390512764 0.02039549198882825 -0.10654553796809546 -0.16111028666352545 0.14402246993931273 -0.056008372902433941 0.014805352016464889 -0.0022674021548941803 -0.12588185821023601 -0.0015560946166455162 -0.19103946949077807 -0.092728963025912478 -0.16906483698060215 -0.14533252490372944 -0.03993454257838748 0.19746839964578253 -0.045724565225666251 -0.14259483660021513 -0.14399204689519396 -0.0051429689178754826 -0.090670180922893154 0.027094707855775491 -0.014214264036217356 -0.18131331501559061 0.050501164206165704 -0.10341358641812613 -0.19132517230818086 0.17469559626688916 0.19720437386522952 0.16937507959146539 -0.14653445414102492 0.24289585182145876 0.22612217377514016 0.17832796246964011 0.095064014203800742 0.12311404272773574 0.10255113105376393 0.0054946016784198247 -0.15465314102960687 -0.079924791709720555 0.24730764726653212 -0.062746406590482473 0.10874439682417632 -0.0062551995464291375 -0.1132189330148872 0.23332534305369079 0.13147248904712797 -0.18542034320689157 0.18528314274556298 0.044710272722482416 0.15478773890179126;0.15960939226547971 0.18769409982445476 0.14391878259328905 -0.030371775859190014 0.083797927874441444 0.14158185328541514 -0.15039847944120391 -0.044092993694676196 -0.070472067555089793 -0.18911576882246764 -0.23920453539205283 0.020901997231723472 0.055374421305192476 -0.035772267045098095 0.0088046400915985402 -0.13304505850128248 0.051736156849474919 -0.13506459191191844 -0.20413941682309605 -0.20887335646932059 -0.053103336214327002 0.17881437659748559 -0.19740575589617301 -0.18876530571688929 -0.19671379822372104 -0.26779490955553897 0.068275386777887193 0.092700879124597985 -0.21789534571164004 0.15717937760131476 0.008129676004528812 0.092945841089035031 -0.050026368251035201 -0.14978214724034239 -0.10657590668264018 -0.15004269762122038 -0.091485898556808165 -0.20156500746117825 0.0024592028328859509 -0.19929827007262355 -0.013206633119236475 -0.012237552276675955 0.05250170462080845 -0.19539846230284919 -0.16399281120168147 -0.17949976342501783 -0.2677505288467269 -0.19771569000463157 0.11332593375194304 -0.2472547174167497 0.20232287772097662 -0.0062514629983206442 -0.14353487776699245 0.098878809474434462 -0.24153325397420289 -0.16575724882267426 0.13276259762506581 -0.045512148553745704 -0.23213540394380411 -0.028902805791275188 -0.15058165722725741 0.035526307137171469 0.070895378276960866 -0.053641603375404898 -0.076839089203877567 -0.26092656067843095 0.032769428356331468 -0.004098516526089638 -0.15699192716999594 -0.16267809837351074 0.20058930880823889 0.13625422309420651 -0.22537301324415535 -0.17992892174830513 0.12605827438348496 -0.15431883604651642 0.1739746854637764 -0.22079178631574245 0.18121745229237959 0.06205614718479871 0.13598216346306979 0.13407625755515057 0.076521317292285548 -0.074900890434360226 0.079944547392710383 -0.099321326663570797 0.053768322769806927 0.13638254745713702 -0.22668665364957374 0.15669167581023771 0.044288248314742984 -0.23245081051432243 -0.080306806477824719 0.11317685419040832 0.11699954924932909 -0.27685258524387091 0.005060419463907416 -0.067777553145250233 -0.10056731741278135 -0.18332020585865622 0.042459983221105918 0.01002027376953553 -0.00024684884084575026 0.10651296375934319 -0.19904318537516305 -0.084250976448777562 0.093434160916980022 -0.14468610986759403;-0.47123492726707661 0.17535272544275748 0.077230656401589937 -0.056859533176857754 -0.29990833531625005 0.049429226801167868 -0.55715467557777898 0.18166222846912911 -0.030949901735131687 -0.37338368563016949 1.3241810381494283 -0.21845549419450414 -0.52151341687076991 -0.055269064543692049 -0.5087120013657519 0.082857294504011456 0.39018880281794976 0.30565342022539072 -0.57032258654241597 0.20524420463385454 0.090713213188694033 -0.66733058668787415 0.2036936343549845 0.3971022000643083 -0.10444777825660818 -0.47473829806302897 0.44208363618772895 0.06040139122361185 0.11803171766781416 0.07594576426629758 -0.19625602187978911 0.54404332152163115 -0.11432067484416555 -1.1568355728419493 -0.89321289364361733 0.37626599587865983 -0.23690028392130083 -0.014733782021697372 1.166369019829339 -0.46126502365836325 -0.21350439003660732 -0.4069437289014261 -0.074317421063101477 -0.0022302658072106672 0.65021434568546632 0.26233353071304255 0.077819792817502648 0.92628606185009854 0.32832019454639966 0.23041467550211533 -0.014065751898082329 -0.23041076031610752 0.45548114511156296 0.1607444938032172 0.071257076946501421 -0.59116390269950148 0.36643159352059029 -0.35569487430802738 0.94648823688921735 -0.87282859882416119 0.20560415258731674 0.80891004498548258 0.19349399489833144 0.18595642667949164 -0.013527630075259726 0.11971860240312301 0.73938844282838834 -0.90081789633481546 -0.15577902002661065 0.016087882101679867 0.35811855418277627 -0.20731739132900198 -0.5133241876049276 0.315911878460295 0.4520945968912522 -0.082388620209721347 0.13084622870188775 -0.75145492778534884 0.051038185239632321 -0.066779958500640293 -0.22989182043119688 0.036644924372966237 0.52891537411193101 -0.20549154825918775 0.25475225732284706 0.75247217988386994 0.085601972467616846 -0.38105620700915266 -0.038667441407172737 -0.72502374935255998 0.32759672125109773 -0.41030477852509939 0.32317632557136877 0.15667692916960838 0.0063941118319471441 -0.10378989456759093 0.13830795055284617 0.012251535656241073 -0.16904957509708271 -0.041526413824762874 0.16312321538211422 -0.036986622248748283 -0.019685389204989079 -0.055426079559071813 -0.40681553786073366 0.15150630960408859 -0.40394760718780642 -0.13451377244277432;0.17918184524877223 0.11914102472523358 0.19052381976591215 0.24612162766130527 0.034141470157030993 0.095024198212814576 0.31595736661121998 -0.59832448445664688 1.4351191585152014 0.35329567148210761 0.8783092410675275 -0.067109984350571306 1.1489166865337141 -0.02032973235776946 0.28583159580314005 -0.2349998353306578 -1.8377358769847714 0.20028749242215854 0.83957084576771823 -0.54665316249552431 -0.15303331040899873 0.11725144042137899 -0.522252834745348 -0.88667195032104329 0.26324868968294485 -0.34836067932863807 0.082579041416863036 0.40346843669404236 0.28536083887301694 0.069201536448392512 0.39167713700521728 -0.63310630233178944 0.15049426533303054 2.9880359654171689 0.96326974839277502 -0.61892798428017903 -0.65624635932312669 -0.14021491806272685 -1.5649693891590979 1.1672838033770767 0.37782285340803218 -0.16319703939838284 -1.0293341051058722 -0.12091469098287481 -0.35682542136618861 0.6126687300712913 0.01708117617132781 -0.42180686871301853 -0.073683585232529852 -0.6993713174540046 0.17409389220326657 0.06137665669599178 -0.84789852960509793 0.53184430046767672 0.0014493762430844853 -1.0641620601840072 -0.036739557189639983 1.0538724253534635 -0.53360295010393555 -0.60484243652946335 0.14714079344469946 -0.34061835778634003 -0.059394906310862 0.66178014299296739 0.1213734841330692 -0.37970935241885201 -0.54679559939601385 1.1947428264029341 0.71330465794085784 -0.4504946120072027 0.11657452946628906 -0.19832921871157916 0.55640536816401132 0.37602785483943979 0.95041009772766016 -0.67758834587020556 -1.1028015026979567 -0.45514967697483666 -0.0084508281816393655 0.62527179511370035 -0.36021631768042439 0.077770668354778319 -0.24475333307959898 0.23871905908258245 -0.15813953242849282 -1.285936009924427 -0.61961376232551713 -0.75912010744719938 0.25238018419275576 0.74548463658030717 -0.38488186971208632 0.24142393813199051 0.27970885029650755 0.094541592865934734 -0.049216373000808049 -0.015748332743941895 -0.061822785229880044 -0.22070603639366265 0.07919352485536299 -0.21353252190309374 -0.041108128246079935 0.060628039194272537 -0.095823741144102012 -0.05856820191525506 0.10363127794928841 -0.11750849601739037 -0.1430822746881654 -0.09965380495238281;-0.036798827850500676 -0.1369850596612118 0.22146615076058423 -0.1156363061225148 -0.0039116482445178836 -0.15881365953738236 -0.089560152274028165 0.32168311952276701 -0.033099715270523251 0.025137093178596571 0.14221005809771814 0.1873739489014514 -0.24767632363425604 0.27208563047236911 0.1880100934957887 0.18548469107055252 0.029624528592087539 -0.11034809078719097 0.12259913066006017 0.079416951682953235 0.25595001426847214 0.078406470557014107 0.084646817048206008 -0.094204161075132076 0.037795468399923357 -0.48306415608661551 0.10546712760989063 0.19076647303011093 0.070741170319846863 0.047464176527532008 0.075886914739924746 -0.37554665444762236 -0.16636854228823011 0.23113637312875418 -0.15147816007605461 -0.23914770321550752 -0.13106419661099961 -0.19537775598230311 -0.43759104965015394 0.8751553505023203 -0.22272681256230717 0.10942005501702047 -0.39517511007318312 -0.24581848474678339 -0.058392094935443985 -0.16353964517297051 0.2323074196692492 -0.10856280371081918 -0.069105172241658006 -0.30651926388775491 -0.029420209679353913 0.11294527271770932 -0.24064546901980444 0.32750379318294892 0.19954551982654073 -0.56878624021635693 -0.15780514827935099 0.14548701997801292 -0.21305922519047754 0.21179352333921866 -0.093106933176076156 0.32874706868847065 -0.099249358549833647 0.30743659556373271 0.24374083754313461 0.14622059571081836 0.21132153073809939 -0.029404523110628602 0.20678760911088406 0.14625405882697901 -0.33182346283473885 -0.18066779669618693 0.099885630273249121 -0.094676777337070778 -0.098735141608138913 0.29210590997631092 0.19377222987144671 0.23908806749838829 -0.20338412849192697 -0.017647425255762093 -0.070519825833791377 -0.19718428388615644 -0.4087875373480494 0.2876407161305618 -0.089836484276001494 -0.0073385286668726252 0.1445989334753722 0.34609742183951137 -0.37569136570248807 0.16137289712484976 0.087951879549514209 0.5648476515535521 0.19269920971660209 -0.64163871728494404 0.47376606623571482 -0.072044623882350625 0.37038176627963493 0.00193201821172721 0.31086466996589551 0.13593873041964061 0.33293380004178802 -0.15781730136935745 -0.085911306615439859 0.23068503002140195 0.050286409092460467 -0.2429822385952885 0.17835668907299149 0.14411914122414032;-0.0089254983519677453 0.16982850935972238 0.25673270168184453 0.18371116707555149 0.051282303665775991 0.23151827108550682 -0.098082139339447039 0.16324815111525443 -0.079023625660300301 0.056010509023391226 0.03810411324583645 0.19561160655042345 0.18539906291067132 0.10869347429528806 0.23496017339703013 0.14227217260969674 0.0060869298411450187 -0.20522248470826035 0.01549559456505013 0.07357813912559627 -0.055579159804072138 0.16022078896288861 -0.082201302188878236 -0.12964708106810197 0.21163045217929627 -0.098486529843599832 0.066828059835980849 0.061454956408014828 0.1864444815864281 0.22436850862790833 -0.094410748412870421 0.10570715692817761 0.20383386890190225 0.026674617353397247 -0.18508889848354401 0.06411519424068679 0.060317068536456318 -0.09958918023402312 0.20382857761593734 0.10547872379323577 0.22956537177456876 0.18078683658336814 -0.066008216268489878 0.21795073565979373 0.15612286553744567 -0.091640927075447493 -0.0084273060690288077 -0.052155722217980614 0.032581708879244671 -0.18513116331361276 0.17259673954032123 0.031589372019321667 -0.078231923994542374 0.22285775742979042 0.237131498734589 0.060244464510115669 -0.049076304049006023 -0.19499909084143377 -0.20457334732247176 -0.11099885906933078 0.1320093407665778 0.11708476104128385 -0.022753307017772187 -0.10562616165632288 -0.13418966072349753 0.075667607989371347 0.22062741702683669 0.075561849840294196 -0.072979861142485419 0.13538589936706763 0.15553614041766664 0.083474213181189652 -0.024631678375805467 0.25944292208785524 -0.072564088018867684 0.073308356052542351 0.24676982548984741 -0.19469500091370434 0.15900859996521463 0.2076241417839331 0.1954991436478894 0.20263698901143415 0.10751650371021877 0.16761315701156174 -0.16919035037441357 -0.002215657126159112 -0.07481191357696497 -0.081319682733208165 -0.20973544876580993 -0.036469263395342774 -0.014581536775761648 -0.12492330762967377 0.22428201363480083 0.0031056379280048215 0.056168751214886035 -0.21512235175382402 0.088521776446567488 -0.1258126148980529 0.087608645104671423 0.19886556958245818 -0.17200241062909397 -0.073501124992527492 0.088807687422607987 0.1477114152543002 0.17753408083227992 0.011774989167699279 0.18663237386913975 -0.086443198008319705;-0.84921400978537043 0.33503705602195599 -0.57464497543970294 -0.10511554659197006 -0.006227030133914924 -0.081115978693521273 0.13960030752551764 -0.040810307744550647 -0.71965807755359845 -0.065261235167679801 -1.1108407487937288 -0.21951088573238203 -0.88693552472302084 -0.083357543117930408 -1.0988379614339994 0.26041860335207739 1.1721218328050194 0.18349043145287389 0.021275428174884717 0.3498114594045264 0.1742277414244395 -0.24281915383151759 0.18480670403430507 0.50535969783909584 -0.49264470691393986 -0.26043649997060386 -0.56142992703742678 0.010992388226130839 -0.48211974919154488 0.35514635280881646 -0.061688440916659003 0.082582383914909727 -0.41568759282734563 -1.6553411204427912 0.80669100000393135 0.096981941645562314 0.59692182043396946 0.3820797903858435 1.3522491048938692 -1.4868454712745112 -0.5958239165949939 -0.298636063136962 -0.72192382079139594 0.085700009287745293 0.58613398815088458 -0.33331566623392284 -0.0024389559595862065 0.26850290158640999 0.039832264790100727 0.65816611095142952 0.20584525166619685 0.089276654198322467 0.25338954213583781 0.18355908797832513 -0.39706064849266987 -0.57158467604410401 -0.24376567976981778 -0.30200567963645025 0.36937924101797109 0.41695833768717455 -0.38151772517273941 0.67678613931023246 -0.11421506193554874 -0.23456075888284483 0.26293004779690388 0.090055360506353072 1.0709485003343631 0.22605474800898082 0.074725673989116503 0.58745013471478957 0.35077764575129894 -0.085752656078571091 0.20003207282792515 -0.12928871665249431 -0.28383271357296513 1.0330752021913807 0.82533245192662585 0.53542315807938701 -0.12870429809844283 -0.13484758363401914 0.61692578661866626 -0.11306698394847206 -0.046620777530609045 0.26860295022766717 -0.083740063196804618 0.041485924530053189 -0.086947395447195513 0.24932431228927646 0.01259397073041589 0.25438664322316512 -0.24840622918973865 0.04004240468217956 -0.86633132178929373 0.084581291023927835 -0.012437554463185211 0.24939639373227812 -0.092994689831039742 -0.34601662971559338 -0.039536812225078571 -0.3444484312439407 0.055246249501590898 0.13197893416125916 0.41384828212620844 0.13843445300481297 0.088873040670228887 0.096463042668986851 0.10448706663816712 0.072821177810473439;-0.048900757979664401 -0.1241752538530026 0.0226783385004455 -0.078351352071463279 -0.18534986786336441 0.1937953804407066 -0.11766633752630191 -0.086918648532128301 -0.15210962806917427 0.17142203472275772 -0.080469898873717222 -0.17294642328954826 -0.1952388910874106 -0.09160190417431005 -0.11370810971228157 -0.17399069194682937 0.032230325014564673 -0.15270856691830997 0.031676672695783101 -0.033289384571273596 -0.14456906364742578 0.040743209895407598 0.27215037984398849 -0.16146969628925439 0.22729419923593377 0.27670170041639647 -0.033315592950047657 0.11280919922169343 0.21550756793130948 -0.18069921105248007 -0.082347998270633119 0.23828104520539511 0.090315569922099534 0.00057314087790692964 0.054960648623860353 -0.099227170478928914 0.19127868278497581 0.24683014491026647 0.21930656165407855 0.13447297772168867 0.15472061278201862 -0.18868599060971353 0.23272285257682651 -0.17527203389082632 0.038018259910052872 0.046313827941900622 0.13129807897068804 -0.17368932825966404 -0.13838472748705608 -0.21619755616760172 -0.18422830262576775 -0.16186935321111443 0.011226509738333307 -0.015630639166936973 -0.17467566143834182 0.017798229971368301 -0.10912088259409641 -0.02345778749316749 0.14714423504779217 0.076422134586887583 -0.22542512861195141 -0.22709040161661084 0.047099413764248622 -0.16079444789141381 0.073766278760204251 -0.032790424791103182 0.14910647926469767 -0.036405711423303781 -0.15998309077207723 -0.013011325270854595 -0.15226786159697819 -0.016495397154561501 -0.061144788941974504 0.21103436948539811 0.04459905419208024 0.027995539262583517 0.046624981841618909 -0.021239041013667203 -0.067495276156486497 -0.12393887782039101 0.25663055984612965 -0.012725258041106288 -0.075693302489610717 -0.19421751212875288 -0.017665520474960724 0.12496176602558222 0.26885828652548782 -0.11479843950131238 0.10799199007536042 -0.074946288815620404 -0.10525548145786841 0.0028725157002590803 0.078455703597937451 0.072547763158797726 -0.16061518110140993 -0.036421354556136307 -0.16128050025220847 -0.0024986659660254386 0.077222841430394748 -0.13576423684201408 0.094574999958864356 0.071398894454502551 0.0099422425637824465 -0.2139406260307023 0.10215019549974771 -0.16095963682770292 0.16271846580844981 -0.33252010628779649;0.4101932857463646 -0.12433522022618353 0.27262522303469655 0.4560102132916104 0.25751463449523243 0.11179659531389159 -0.049508068400318073 -0.59496381059465708 0.40339952672372376 0.6181302609507846 0.84138873238939671 0.16358174100248404 -0.061921647828155589 0.2821989899931957 1.2560178327886871 -0.44914011651280561 -1.3705253072355215 -0.65672143210128897 0.75497526481298249 -0.32547297349185694 -0.40040238247182702 -0.45873295822575932 -0.21519150417391786 -0.39628814594486805 0.81968100260864762 1.2390683331978634 0.25321382411172749 0.29775791965166437 0.24954782230969547 -0.53588783556189878 0.28101962525929686 -0.69527554742591824 0.028762503562216445 -2.3320814001989496 0.49077674172960128 -0.88780654526516856 0.037476181687770928 0.32567284106498051 -0.87936713782671116 0.87583608048821149 -0.31251309804631827 0.45279523064008542 0.83890247757770964 0.39686124516519528 -0.27336535687399838 0.65147322734900992 0.55582785502349707 -0.85164918009797164 -0.16456097336689707 -0.17216568620029424 -0.036768625102277429 0.1561810213742765 -0.94138204286398219 -0.12773299527815282 -0.46885255692589334 -0.59725617466013636 0.39356832692180804 0.77590259489046742 -1.3841244413610845 -0.21018611002598164 0.34184042061397346 -1.1857047894663424 0.0001202187102221221 0.89417421301033273 0.21762416667265189 -0.17793763799196102 -1.370707843535186 0.99650455598308729 0.63015003056558139 -0.0083015284199564332 -0.51833468106168956 0.74208986126466514 0.44455072298134435 0.24352984709044162 0.92050188127641253 -0.27011737472590708 -0.86980522886804412 -0.015372323727660595 0.19986774424605377 0.0096376502537409998 -0.11531366651466246 -0.052038974270540175 0.47794790053057978 -0.29956421716083487 0.15687251574610192 0.77621058703781665 0.061147768338901107 0.49686439784115222 -0.36305109209481967 0.65476131077386734 -0.63324479713046367 -0.2640352885240983 0.2562790254322404 -0.027110703986785011 -0.038387026264691364 -0.042698682615647944 -0.14455481068034201 -0.10619614740793842 0.10792470923331483 -0.21410936009812251 -0.27929576818045238 -0.096047110907212865 -0.013305381007918567 -0.14697301601539248 0.049731950238306004 -0.12614006070008382 0.1494536583117064 0.019345151229499809;-0.30171897255666374 0.098389581871528672 -0.41411975542613105 0.098894748569234747 -0.89595794360161318 -0.54772880983753336 -0.34527896400022112 -0.47688021682705861 -1.031879819834518 0.2967577698099419 0.95920283543338991 -0.29942276778842758 -0.19766334731991697 0.030598098468665482 -0.25273364269954529 -0.13406558952518996 0.87276771418217358 -0.16986870104725169 -0.19895918095576237 0.032156597849913586 0.1749931439764226 -0.20151624797200884 1.124335583721277 -0.13815322782501474 0.19391436774076304 0.8500514366789742 -0.041312788158776634 0.24078925281108307 0.19579033444742286 -0.51801481426625262 1.6668689636335136e-05 0.87018349810173734 0.56447476193913804 -0.055723752088164005 0.088773597221371361 -0.40001546276450967 0.31909833842718005 0.561512963912564 1.8243580497703233 -0.33012743471344769 0.69738553751398258 0.60038020523439073 -0.25648588869769651 0.010686336986882865 0.70967145891993566 -0.059630255194193044 0.85977827753788083 -1.6111000921775196 0.40286078882127208 1.4510805501712869 0.0359351188597501 -0.13931299740001549 -0.11241829440596871 -0.018078702741742968 -0.28222735013901534 2.4808157963169384 0.85527851630535545 -0.14986267551800009 -0.42003650058798453 0.48070972888362717 -0.21966009214237314 -1.1526645126035608 -0.79401254545198641 -0.47652679101808737 -0.27111983304429615 -0.31078905408468321 -1.9812450832780304 0.62152332413035183 0.21015161582661043 -0.036383656042359255 0.64010502749953613 -0.38062967910544437 -0.23620729192470852 -0.15223424850572051 0.64096242242002566 -0.70590657427991066 -1.3083831510644834 -0.26125979094178059 0.18395755266247868 -0.072272187554785622 0.38824555522567428 0.24328385881607573 0.20428161375061654 -0.80494019749026702 -0.52171661617502485 0.24427812955145109 0.02757435716650351 -0.31737436642328914 -0.13594681357827174 0.18574610562838839 -0.097908124319466466 -0.73719979107325573 -0.13386311018582775 -0.30891391094427517 0.3378984408016989 0.014443219446321048 0.14171832537795651 -0.12594883905386497 0.047513998826168177 -0.26099034450622105 0.081845793062668551 -0.022703008727704723 -0.036950209197862634 0.11246896315389295 -0.081800817048814353 -0.0094292576312828384 -0.02261519911993868 0.1156664233153491;-0.65132098162054008 0.15962259972410556 -0.12248421790691558 0.043053671128781119 -0.12489628335684612 0.011872450327370779 -0.076595404468350434 -0.50042233972813421 -0.11202622629304325 0.3503707245331884 -1.0346723718783828 0.20602300829827014 0.092539240333878017 0.46228168991740054 0.26508448378617461 0.2469957853663893 -0.26871511068960158 -0.12278813692409166 0.14575284535247654 -0.10985419569724969 -0.30928683773623356 -0.22411435892746864 0.82580272499860641 0.58750473464959241 -0.20033085485126709 -1.8168248393468698 -0.37178960511719772 -0.21892231711836804 -0.14976318962481108 -0.43200624489703687 0.12437785283053127 1.2356000333729555 0.35199483647452462 0.9676477375064747 0.4302671797305847 -1.2019915174331226 -0.091098040743666883 0.81657576601538484 1.6741086650774435 0.39109079861770629 -0.56239438902678796 -1.1532670912766216 1.3254861713909853 0.12822264126679833 0.94854896588289594 -0.10401089981005979 -0.058133931197767358 0.41938432485698934 0.36223052055638222 1.1670627226464674 -0.068754765487420946 0.26160511661118158 -1.6376545519075218 0.32586766719747745 -0.18207307867873351 1.087160569412295 -0.3109037576301798 0.35717609301718567 -1.3674381929566746 -0.48510658627948305 -0.48362664513534614 -0.88234816036080732 0.39421808719358992 0.65110507749916446 0.090295930805785657 0.020517045700919327 0.25816232889566237 -0.30330884754009219 0.25426321907043797 -0.16520806109134237 0.46725276214998268 0.38851635893375253 0.17932289922314079 -0.52361195723413467 -0.85767512502052146 -0.39768183104529758 -0.53928511732490059 0.032385681969022057 -0.1443123451811627 -0.15062881835702108 -0.0015067561714372818 -0.050899751303373091 -0.07641670315666392 -0.16619060765778054 -0.062754592207532683 1.0149358758291951 -0.2368974185663171 -0.078404379456115961 -0.047760643797340303 0.25814005421976427 -0.32915477507432833 -0.62904861623009856 -0.30962106034896375 0.2102920151990173 0.083034958500800532 0.10141796505006355 0.014979145270406105 0.18028728301745287 0.26947026401726987 -0.06889978634376337 0.1237638045377705 0.12008817173268231 0.020207006674790109 0.1353682546095388 -0.021173357647268801 0.1032944899910664 -0.1914374653590333 0.030400759600358464;0.59827365182165837 0.23308929468760781 -0.081832156102044029 -0.13345552519192067 0.35327484329798736 0.41530138180903153 0.16717343356095951 -0.0040341634760862949 -0.60836683812717041 -0.016594762739316413 -0.64914311629665011 0.25518824395108419 -0.11842094592573184 1.0471621358303076 1.3230871234465988 -0.34831202083634111 -0.043271761228724177 -0.18357671167740963 -0.15501554540402104 -0.095777498378628242 -0.18397687010522587 -0.33756188657793623 0.278399975322007 -0.23045927409783318 0.82288384956403249 0.37038822022662832 0.27623668870944024 -0.17114174737932794 0.2992437189522929 0.016933148856088008 0.09519347771197513 0.17670410051172677 0.12983835852694728 0.10821328639527775 -0.19229525150431387 0.19599053512839501 -0.47802350343729555 -0.098192622627677903 0.020845160910049353 0.64561521281280176 0.18882259360016296 -0.1402028365436391 1.0423020252736999 -0.46141506776613589 -0.073897875424535991 -0.14628779056040594 -0.60657616930316638 -0.097248713469544307 0.084299613615889113 0.30906088608931326 -0.063927361191804782 0.072747294806042834 0.33702231551054151 -0.66960676366080896 -0.34093679467345034 0.8221110722103705 -0.38782103814467361 -0.27960423405559531 0.25162156377662853 0.099950299632629164 -0.146382678626927 -0.44018918786965322 0.37699234355149164 -0.69012372505638719 -0.14021303723438513 -0.63310946009062108 -0.80457195211034449 -0.8717419761630455 -0.3700138386548012 -0.13392764253690789 -0.084669977002107544 1.0963252989760754 0.048237638241677011 -0.0085766100041644172 -0.83444551634746267 -0.21835032893541603 0.02322361533262304 -0.24090746009336922 0.47451127401061977 0.060294497540805771 -0.23617641893060001 -0.051049746325571986 -0.13707524784234823 -0.11168044723804878 0.75881468948403574 1.082652672443523 0.3580301377690569 0.06471576359539935 0.09850942629881522 -0.20841378444551234 0.25902284089413197 0.067624864704867296 -0.10441164772135038 -0.10397199190682567 0.1189444662998576 0.13199267260327172 -0.2117679675153985 -0.21871142478130551 -0.0080643904157622175 -0.33371512531567216 -0.34831607836442796 -0.53846270599579649 -0.49080003312154746 0.34643323849901186 -0.26351964168370556 0.10235557407868932 0.055804596185035832 -0.03743687283752134;-0.087097284491685661 0.031308385688867173 0.022002353108574728 -0.090907941917382037 0.22984361673555861 0.17312672874833271 -0.19104438456853159 0.27787147214974162 0.078753428633200395 -0.087179055064213654 0.26883225025948798 -0.16445923001300289 0.052736425934091537 -0.060183577401925585 0.10780050238714142 -0.12831476193873209 0.12079483362268452 0.1668435447382586 -0.038570094299633303 0.19779010948784884 0.040020130318712863 0.10152288550748494 0.10681199029305903 -0.17848816323515829 0.2268954905033522 0.1067345220855291 0.25994053912147974 0.24162004486814345 -0.085415098603885589 0.19968746507095367 0.15848119610745112 -0.1705071705981471 0.10222306694112539 0.11204191689758775 0.13898695857262111 0.10452449674288018 0.17665036590487582 -0.11730572960390723 0.15306520053356326 0.055835318559940006 0.25554011102637653 0.087941217551818218 0.06037333472445839 -0.024784249758405277 0.070624341301847054 0.25034601272122453 0.2187785219421034 0.1080901963644431 0.00017562885939413129 0.15113445774413728 -0.018741817904970377 -0.094647092960154208 0.051571479232080733 -0.11566026470393413 0.2019283124585956 0.17597187449221111 0.085866214651033848 0.03849848579322325 -0.13998920250792363 -0.18748439494911928 -0.0070674702827227525 -0.12634081317058271 -0.17403277769772074 0.087940168946821398 0.081183547498280023 -0.14368134483447761 0.16164635380361195 -0.04061087297350692 0.036457082291670641 -0.022460657741723861 0.014858838063138117 0.17084867720335858 0.25891313413479827 0.074707557842202982 -0.15470859848093862 0.23522703577027854 0.1742387710868239 -0.1680875719307818 0.13312995921529319 -0.18103756288505166 -0.1311695096912763 -0.074605117521601386 -0.017707756542084077 -0.1945168761434577 0.030688824581706822 -0.06996067838527005 0.061435481961101615 -0.1089222565254373 -0.10993094238723228 0.17891304217082793 -0.00049643699780222155 0.04003465797351597 0.25610483453534272 0.131362208786133 0.17584698843320831 0.078574448174490844 0.075483909609449132 -0.18451204386944173 0.014793314282366127 0.12228334595571085 0.17156012116407543 0.089824841233836078 -0.061597794105041764 -0.2565432573526743 0.11810780456390221 -0.024482319701196673 -0.18569377734668152 0.29907197315801348;-0.17044239630629424 -0.41799055709375477 -0.037394003785721233 -0.3322368340174659 -0.36367390905142688 -0.63458372571811394 -0.31226370178010043 0.25425010973922824 0.65871826840017123 -0.1013839764429761 1.015295570244827 -0.56168475618241809 -0.69847226283004504 -0.37099379014715239 -0.60255772776592909 0.37856450036756917 0.27162227175630915 0.21973410043109437 -0.42305721859998974 0.67669006049767055 -0.26466333204761766 0.64350634316611977 -0.10399862473310753 0.4252563670420873 -0.15977876292928159 1.3300869908289858 -0.29609361377526811 -0.07130843341932476 -0.35573472841563175 -0.54621911651514177 -0.11794569601433429 -0.24866736945416021 -0.6165350808186727 -2.5728573362659928 -0.43924878031957387 -0.071577802087468737 0.44214313219581758 0.3638563109196275 0.59636240266626228 -1.185684346759122 -0.4699932765822985 1.789051218224212 -0.48685096608287731 -0.028194755896035716 0.025680021098639646 0.11550600709837969 0.59761871612739426 0.65208141365240668 -0.35872802295224077 -0.43540443170766702 -0.19075400338373649 -0.37522652940938511 -0.068549999999073699 -0.034255923915260195 0.49460704768355651 -0.29999241991566855 1.0521313474657734 -0.06531810911346779 -0.46291680617984265 2.1392698401517189 -0.30293830524216608 0.076251142744196462 -0.45022985040514457 1.2440531963262165 -0.19729522446244177 0.55322345124734906 1.558019851621548 0.75764082020847723 0.17097104507827157 0.052366229586710049 0.53425495291926328 -0.42784536206134177 -0.13611970910398782 -0.18988109153885724 0.6485429190155424 0.18025535940179807 -0.77743022909766668 -0.035681411826711792 0.30359486657815521 -0.37056693662558726 -0.040410595936062298 -0.45126181035984403 -0.14549106621590499 -0.15737730914712417 -0.64885873802033067 -0.38789988110342083 0.15281889545546287 -0.037907611642082895 -0.60353394013945094 -0.11179890077116372 -0.48338843160583783 0.23893645534909161 0.038504080062400921 -0.0087187525696287016 -0.091001628195566564 0.1487965662089191 0.068348501435914463 0.1904044015155576 0.12306344590875005 -0.0050721380903644689 -0.047924446643757355 0.14327516749302086 -0.041574188626178621 0.2345527224024124 0.051762930971479111 -0.082999841417443945 -0.085740240394662812 -0.010580266685893982;0.14872653001432912 0.11822040128332735 -0.09515695301333868 0.16613485019150015 0.17737225782895646 -0.20804504188669906 -0.14111775904844229 0.091157763007716899 0.1015359547391267 0.2272941666580523 -0.18883730466512721 -0.23649382430490573 0.1836464133569905 -0.13317129562847779 -0.04119448423342071 0.070532717585746918 -0.21424205479703717 0.099255269085385692 -0.21148653367622622 0.052433409256681641 0.12716583784988436 -0.088385488173136892 0.044142193545307642 -0.27283966585765024 0.19178499547091796 0.026053772288541142 -0.10808760754941105 -0.14120455695426529 -0.23054575145822342 -0.12687625765298674 0.15345283084348238 -0.075739283349734315 0.16611132867806314 -0.059048423388188304 0.020734258716683631 0.098074245293830534 -0.06342871848253108 -0.21108583103118403 -0.024353973013363749 -0.14512135945691437 0.069811915472027558 -0.15481633119031726 -0.25572364838684769 0.059707144958356571 -0.022753243146510081 -0.17210987536190925 -0.041631809742102975 0.16099275655963027 0.0086460131486105363 -0.11759422933451086 -0.18719667018142339 -0.12381788487318995 -0.097337908848050325 0.063610787311858527 0.21827212457286105 0.15309718575070169 -0.16468804208180546 -0.17208018444456988 -0.084802836227947889 -0.26420708219765071 -0.12087813113276279 -0.16050046133754811 0.01480593184174595 -0.1821027452334569 0.0066504980145573774 -0.061286964393066266 -0.022311738287020724 -0.026653454336197136 -0.080835891128494625 -0.10342689368525496 -0.14943367405430097 -0.20132193914097446 -0.13881908048838779 -0.016290532635799944 -0.1178912691431028 -0.22823002380693 -0.17539397879937257 -0.06135531386212429 0.02513537829825975 0.067901612669926309 -0.19848605893170537 0.20676320468554538 -0.19379210958429896 0.02133597149115329 -0.27016799642291656 0.093348535209669417 0.010262857785729083 -0.17523358978564932 0.21933189354292268 0.053823848673482375 -0.07282751196716758 -0.24570551000611629 0.090005680066635924 0.16015084248766326 -0.063344418092070601 -0.19168064473999047 -0.082356356348521079 -0.22033034717053981 -0.058966060841181063 0.13804189469050024 0.013804645919140959 -0.021202840856566846 0.15340934215576382 -0.22219997995361343 0.21922567605113238 -0.0025195691587432691 0.16510389228038014 -0.0348754617365125;0.13459386034099793 0.096444024985297402 -0.045631153422356054 -0.23331285805078117 0.017931659449386052 -0.046678152010607321 0.12496341436157844 0.1013935701160053 0.21247808616515915 -0.03052212470874548 0.089642819677615115 -0.11670902024700842 -0.020318648495011818 -0.064663368384694109 0.017069778806515546 0.22562648382432962 0.14080624941996969 -0.10306330823840845 -0.04445872238558795 -0.003962033293112884 0.16669051471533422 -0.2358802300051053 -0.18070526936440739 0.10556124323508939 0.088054893511311308 0.030437590403056023 -0.18376876623606636 -0.16892795072591224 -0.038554041261346914 0.0069704236823093747 0.095026943931188462 0.06845180520492862 -0.0039940876407141366 -0.20623280448503969 -0.20917211549807807 0.16877021799592296 -0.17496436494873804 0.047527866253775489 -0.026263956031934071 -0.12173122548602247 -0.076885560383724433 -0.082016967431893836 -0.12972299320107725 -0.1166110343386695 -0.01792200940923571 -0.140564403896134 -0.20030456660464216 0.039143207296329391 0.069662206973563942 0.18304721926646583 -0.025928365325993054 0.17681582805662807 -0.090100628622007531 0.19762457776673478 -0.14038406352823846 0.10680671443941189 -0.025530371814503867 -0.034599248909436546 0.092956658693495967 0.028045823718354287 -0.13742024885881196 0.2034712152801488 -0.16606542581097847 -0.14396762727886869 -0.03017478613270352 -0.23246374367298478 -0.1910318603467778 -0.21933733430836749 -0.1762003167824206 0.084532574057072637 0.10788698163495082 -0.22398229515645518 -0.16069145933201348 0.056811252102567718 -0.1135969977830579 0.22390830435714601 -0.14924880825723716 -0.004312355947482885 -0.049643458389880359 -0.1575152108806166 0.18568637718390282 -0.09162057984304961 -0.079713842615715624 0.15083242624208282 -0.067773864216743765 0.17272980236090829 0.17432030832520867 0.12930709793069348 -0.18851131315258141 0.13149347113205123 0.093001001839624994 -0.13786732271499383 -0.12874729365230744 0.056904012580100131 -0.19514490530837994 0.17163983894536441 0.20260876078215978 -0.30271918932538894 0.22594308943796043 -0.15795212445177803 -0.078612326100743563 -0.2500195736627589 -0.15810359736841348 -0.19591837912628104 -0.1635860111028154 0.039248000824208165 0.22520260498972192 0.093011011050930445;-0.086073311045598386 0.012645437972623101 -0.20079483632246251 0.24558186147385058 0.12948166840892408 0.19609991627783266 -0.072191151921897775 0.17926268851100083 0.04692600960240912 0.17546912978788284 -0.14745983726841941 0.20624771277878504 -0.01463628944376404 0.00089936152609725257 -0.13393259757334205 -0.18747568408575935 -0.15380881841709818 0.16692716241680056 0.25066545686270625 0.14062210790440144 -0.19444817629226785 0.16829632580141482 0.2236907430894893 -0.18433184756726445 -0.16998991498639521 -0.083541516863404955 -0.13035395582619355 0.16352906297193576 0.048192901595338282 0.24495830425229551 0.023358779709802612 0.057312587948215005 0.21441855002124638 0.16716498066084864 0.073738816957305359 -0.1609150498797437 -0.040442641568622935 0.17327442805682894 0.081500269585003601 0.11342081423287541 0.14877386174598761 -0.19260200871282945 -0.058117990946052481 0.13724559036110043 -0.1230782469540514 0.075827571688426826 -0.14606427019580473 0.1027539996938283 -0.11468983084895114 0.15949453693871191 -0.10004169863626935 0.21238285874361482 -0.041759835184368259 -0.072844601092883862 0.088706363959930271 0.21063183953026696 -0.11114013125983951 0.080420026955197302 0.215048598732336 0.24094893244927967 0.1080840539956858 0.11924312214536627 0.18244318208336568 0.068869749193872495 0.1239004485945036 0.091055392186984968 0.24490298360039353 -0.033619839706627158 0.089053520541242201 -0.010517744774187538 0.036446782822842673 -0.080980449046827871 0.11536241870840257 0.072526174452462525 -0.037818693608370743 -0.20661242554839518 0.049056133482623596 -0.1809695892133634 0.018320816411002805 0.041734230709836902 -0.19475476969270966 0.22484734206067314 -0.10825579696163869 0.18076297732475263 -0.0059996518689500664 0.077022619785253807 0.11522906221901986 -0.15628810829742204 0.1801541937815829 -0.048824754457932273 0.09435245505837235 0.17924083560468734 0.038904085465406503 -0.19336286280727355 0.11327858499527517 0.18862146696942589 -0.081178004359466177 -0.18508586141310893 0.00015200651771346888 0.15829329541431622 -0.14609655498044405 -0.059420114894459732 0.15572091743028516 -0.21259050116920639 0.14850505429054398 0.16452336341863069 -0.0070868647754517679 -0.094974212263032029;0.17064783623502675 0.030667726266298628 -0.23988136107429664 0.067114773299040253 0.044873663485615382 0.14571987240195619 0.11666669342271539 -0.27044589409425263 0.18559302234813208 -0.098611271390732239 -0.06864538825552062 -0.25687479157666765 -0.25969564931620215 -0.18068773135275171 0.00044964251969940541 -0.028647153158663261 -0.17577525363207466 -0.13949755435111533 0.13949692771801236 -0.16998070428745932 -0.076889544454376346 -0.032714366833896759 -0.088623724649037949 -0.02441824754150369 -0.07948618974776743 -0.17585338295725592 -0.22112190557517775 -0.14963121768775764 0.15529631802493099 0.13939505703358041 0.018435293915034821 -0.27644570700871457 -0.1833661251517863 0.080401583239825491 0.1736476315918096 -0.12456249310113719 0.16731127263549803 -0.27946570332932985 0.056988338292576809 0.0056464769428486994 0.0049346584025521415 0.15051783191440468 -0.091876283108741144 -0.12463248037372031 0.11635307456234806 -0.10228903735142354 0.15490356502806926 -0.22959460876429802 0.055115010315765524 0.07220178119314058 0.1725297723507567 -0.029463841716573878 -0.023355904785412804 -0.013521566305614588 -0.12224557336975964 -0.23154701793775048 -0.12127016291952544 -0.28842602918012167 0.018727286917004937 -0.25294744348902964 -0.016011333020187524 -0.079462442165299282 -0.060174432987433628 -0.18243912418886796 -0.17014579433496763 -0.082219599939978238 0.069152200337583819 -0.20061300415923994 -0.2728614256820317 -0.036570687659316536 0.14618053529671907 -0.25520971821162031 -0.22886556952671067 -0.02399925575396146 -0.037646070195276687 -0.10468920526165765 0.051134024807383854 0.19377612927803856 0.10528908493038859 0.019542994161774668 0.12278418041026901 -0.099885922445093922 -0.2572428960995678 -0.12171026567632666 0.044962643707042831 -0.1750547959857138 -0.13992865081531347 0.076038860610594616 -0.12906086913480497 -0.20885860543571097 0.17291567673898411 -0.21297041473290285 -0.24502495778142611 0.032265035016652205 0.016077772978203043 -0.22591357752936164 -0.051503611505416672 -0.037584443808564259 0.014640310084334567 0.013704223837507648 0.11391613311780049 0.10449343813618654 0.096926634267630485 0.11537652473597104 -0.025262432577272568 -0.23447896955487563 0.053542483596965285 0.15749834249920244;0.083956172520970679 0.081934074606885413 -0.15275496980270109 -0.017287768640906549 0.19581134301722966 -0.22636507101216577 -0.23378818283440031 -0.17906406810706635 -0.23891101174337631 0.22536071184563861 0.5313003066178672 -0.0059952776909913668 -0.15992620786080378 0.13835334566617363 -0.44671763619622762 0.4282426476171044 0.46343055706159209 0.26469709289124865 -0.27218325738163762 0.24077800517553782 0.028787456617326394 -0.17386551133965691 -0.165617778514976 -0.38432116411343953 0.65249822046689154 0.97476437072552546 -0.42925713718003411 0.21971192852053295 -0.082998781773120645 -0.82996961234192979 -0.036795125303152168 -0.3510402481685056 0.072820014873851452 -1.5338645809794822 0.12756240265612898 -0.93456674482112945 -0.098716215866239757 0.17196527948057191 1.1496343574012375 0.14226833673045594 -0.73073156485787816 0.71930152836634331 0.25392611815318888 0.045329473809348458 0.36743817504660659 -0.087764128368241101 0.53628878262358959 0.6546870893703739 -0.022976576648909244 0.42331481326458809 -0.12094778091418444 0.037859903104827002 0.10230826826235107 0.10682644152501303 0.18908022549019152 -0.29426735773021662 0.42914733898329271 -0.22992968805630606 -1.0123735430052514 1.3873741786759957 -0.28453203709744318 -0.55357774281081218 -0.30547825501072495 0.35867491244441901 0.14381794131005299 0.026177931178087397 0.69314926835065316 -0.2237758948410245 0.14713861836006634 -0.37603211543248205 -0.55248576116543857 -0.16710340392580597 -0.068854867366385811 0.18631997803619429 0.16716114394517911 -0.19980721003281138 -0.11561790837345806 -0.47622573257211159 0.47238376388592601 -0.10670725793243355 0.18431131633438469 0.0039463646811600511 -0.43924688489891928 -0.22248402281414942 -0.23603300848736702 0.41117659347626806 0.21313617695424336 0.64995365242428582 -0.63356556936961972 -0.23884746488501496 -0.30063707588157257 0.57198636504344358 0.081170280821308213 0.28789982826863059 -0.29760863476265259 0.085610406128544481 0.029015266560920704 0.15625178603259152 -0.017072576804517615 0.30523334277973441 -0.049340076833895651 -0.092373105016435961 -0.30545098798240167 -0.24057176864763477 0.13280779284351571 0.20265881734222294 -0.11086948116090037 -0.17808515433166955;0.11850134104959985 -0.17015224027659007 -0.22574381982515698 -0.11931801660672957 -0.020677545248203456 -0.21746399194393029 -0.30715977264495087 -0.42942102076363126 0.16470003208813278 0.22298424301819667 0.075033134584029312 -0.15218909095679922 0.084278858276400789 0.17306648200548244 -0.45066788255295681 -0.14018860159871335 0.49502993956380004 -0.053137259843819583 0.16868444353305626 0.29916975479279989 0.053983267941437083 -0.27286715472502404 0.085376745898633616 -0.2230575657633834 0.49584184995367375 0.50215741264935465 -0.22869476257457927 0.09570677130193532 0.21230512994328724 0.052505547358615824 0.017667485409825354 -0.24902714842755244 0.21357091546894696 -0.2362771127427554 0.090290372172698377 -0.072024321864914961 -0.17559166192074457 0.27181621585939453 0.10768347472746537 0.18694176711660654 0.49571836801416336 0.34916500842284531 0.013345530590802384 0.12339520756707921 -0.1602906080660764 0.065517489568990533 0.13794287095102589 0.084919497226385948 -0.07769088359580531 -0.0063753012818690471 -0.15557608434185072 0.24335036884156447 -0.32661580459564482 0.14353587418547065 -0.32222929689996688 0.28988556765401952 -0.11948000214142608 0.17073009640989464 0.23287202633988668 0.38474624532805235 -0.22744357065346557 -0.4370322414056228 0.073482878292689194 -0.19006995203922994 -0.18070029493686163 -0.14594425670566294 0.25258351602027068 0.021936824518758953 0.410207869483036 0.19302026974603698 -0.52052064333312975 -0.37825453170131951 -0.1630609426969345 0.32387504205074691 0.38735080496254226 -0.17666595747733349 -0.29102318722454934 -0.51507674403080117 -0.32091180300017369 0.07232367899222561 -0.30186134781341617 -0.071104213758202778 0.17927960490205835 -0.00054136109901948702 -0.031303108436304655 -0.13319067973194954 0.093026332133682318 -0.036058368446213122 0.026884470555783257 0.30959603411336101 -0.18348075456030671 0.36856980017079549 -0.006814315670943703 0.12385619073972486 0.023709318070080768 -0.091092247303436402 0.030174627862689759 -0.61595358018907453 0.2163451375785588 0.21193413839145842 0.4107375665787355 0.12406074520911065 -0.43250808896646475 -0.10156032326504441 -0.34658541515834196 -0.012432380902508833 0.02041843798905316 -0.0038493312759430975;0.19293577901549228 -0.15946622639835656 -0.17553863990299634 0.40222904265261766 0.68977296256395204 0.22864601283263153 0.11656294521247919 -0.35183470668963879 0.60663513446168016 0.083442098152498978 -0.51930174257707051 0.159598344153386 0.28450981488348503 -0.4146918892443503 0.66292257707131119 -0.15634512759086436 -0.25970007135211809 -0.24390079437252041 0.81707387697509171 -0.15253975828572863 0.40369945852725725 -0.12767600586563407 -0.66095213937000419 0.171376559192882 0.22726695349725423 -0.33085415481319869 -0.22023836627026519 0.35566776330942607 -0.13326511270574251 0.23976961405273095 0.65110484388858658 -0.4225963150981264 -0.41806442617055167 0.78629799467839689 0.8700304488602284 -0.52132370565774688 0.59807225581070622 -0.036306049003046986 -1.2874680307894002 0.47199569155332771 -0.50072116906193809 -0.43681895125987191 0.63494168029956388 0.20882552705017135 -0.57254222677381084 0.067822041640048264 -0.032570820961093865 0.31567978359453053 -0.4043173695127707 -1.5516868231681764 0.30893629618647811 0.26756168717515544 -0.12064410228082835 -0.049436749573221868 -0.22864304514261713 -0.14337841206778032 -0.70049752406302579 0.64478903716074976 -1.5353257945031948 -0.68222790974083636 0.096601420129414708 0.19378495025940232 0.30987583841432742 0.33926387968605953 -0.015532954705230568 -0.29582422825896942 -0.0351428345755017 1.0295923082575384 0.54922205004720648 -0.26455426902984075 0.076576904826262879 0.24403974850721377 0.80272892521773498 0.090427797111252262 0.21194260530762421 0.82982788356035408 -0.11792063337371946 1.2813516192313794 -0.18588128779929486 0.30756076993825021 0.18202063422202922 -0.34621323154803912 -0.1672257562546971 0.62077268424374155 -0.12576759573523985 -0.15823740653500096 -0.66344753797335598 -0.14914769411008391 0.27986898002971078 0.94486970248045465 -1.0639799375056995 -0.014332123092434874 -0.25311782582330811 -0.12195569333853896 -0.12243345257113926 -0.041610295170171015 -0.060822442127860719 -0.2024170588480621 0.27154307400726768 -0.36147417971442131 0.026568184329235588 -0.5030038332891702 -0.091623257468083086 0.080428644437528854 -0.13133463776790832 0.15700753406197696 0.037862048905485203 -0.0080732020508508077;0.60683105750385158 -0.34114290926238067 -0.13766636843973207 0.14033095821341768 -0.66468658752824239 -0.43190989409635422 -0.21237355109174055 -0.38491859722474248 -1.0887164206087332 -0.066772657035152963 0.44830585456830746 -0.45636032836130774 0.07094644452738906 -0.29225817593375453 -0.36088998639650888 0.19893674420900628 0.47132485987117878 0.23405205657017528 0.14763388716295009 0.36135465886086743 0.077244830072776938 0.77626029347345205 0.026138312254260363 -0.77544569638189553 0.08707577577127823 0.89852710514223322 -0.22987872576618568 0.20345139442342855 0.037404054911393467 -0.74010509001470237 0.22460035728655053 -0.69147085390327012 -0.16981019124117072 -1.8030054079679654 0.22844711163651804 -0.15803299517746228 -0.32891105997866077 0.46354667734386779 0.43987172893883431 -1.4579888523099842 0.45939339127641515 1.1927768796403719 -0.64964881862361756 0.58631370894512935 -0.12908291573335168 -0.26326028180822386 0.31777082052929623 0.36999951773178003 -0.14346752566455109 -0.065066579661976209 -0.082923247809959827 -0.19428798283801202 -0.4295821806763464 0.55067416829596927 -0.25004028121115623 -0.35703293128630853 0.76390318243929756 -0.033117560330835939 0.079922204480084705 1.6010867244345646 -0.074716329957964511 -0.13631029235563147 -0.5348181259496555 -0.14133652756897561 0.10455618281094942 0.1507204536451828 0.64026694008754581 0.50756151054110421 0.30039757857925226 0.2679919771033531 -0.44870673594825644 0.38959113064909295 0.080508192032774803 0.38203206228207648 1.0744702345582913 -0.11084996573491607 0.017832015653712376 -0.15691928849264553 -0.12514341984851787 0.035252259666717509 0.0064584507792547832 0.14142605836303032 -0.061975020884835696 -0.36642142593514021 -0.10952107644087473 -0.14967117923901224 0.27141829424558989 -0.2244628644954979 -0.22733197812273515 0.59591519280336258 -0.10503249642336318 0.23836379997622464 0.0035287144483398146 0.13018207771786464 0.14357553907075277 0.13135573496157049 0.10016324197963944 -0.32780943223190717 0.26846218466787036 0.29073568622969603 -0.024766733290538728 -0.27174007041307657 0.085873242099201497 -0.15432094018146697 -0.10684100805616707 0.12434592860554258 0.20570219940672657 0.067894657817753737;-0.43109568998017234 -0.21666053620821729 0.02377691314639507 -0.35043540027106751 -0.35840118238161262 0.041354296994493944 -0.052193871697562844 0.49456486212903872 -0.27658019126375938 -0.41407446882911936 0.0088284486518139162 0.12433509789780722 -0.044342267391386019 -0.046293090237916931 0.056582497817241575 -0.12569865530982591 0.27614557266031386 0.11176255223106356 0.019041967016131447 -0.13405395165798314 0.062391434088721935 0.18014781736502217 -0.0080815442496126478 0.42533174981478905 -0.075408097135812327 -0.010787406906206626 0.013393465889228207 -0.1725734298851628 -0.046236119653386532 0.42962975823172173 -0.040967595304989432 0.032345975088809327 -0.07301794711786988 -1.4448349049796279 -0.53610852311216106 1.0949688903482722 -0.14984307061724483 -0.059083616707765234 0.36736792215272573 -0.74891507590217798 0.64729705550898686 -0.14346759214204938 -0.51901715636708035 0.16733781127387209 -0.26016353967470707 -0.0091996114243128556 -0.30440025266407916 0.66518602237484203 0.11510862045933076 0.27144563184044912 -0.24323767392239501 -0.050155287322084789 0.2983468085905715 0.039166168125830562 -0.054952739059639176 0.28012735849606724 0.091439479840202731 -0.49283418464339013 0.93422151621456084 -0.56112095424730324 -0.021569451565137496 0.55193360617943998 -0.34217611132051706 -0.40913863937339862 -0.19827463947698445 0.30407611098198839 0.32380940979121736 -0.051795234236024244 -0.21238392045778037 -0.045174199253687833 0.42793657260652024 0.20248581248636074 -0.16077787207603317 -0.1399927006248495 0.20699567055839038 0.19581738055290954 -0.15544329962164735 -0.30506726525872996 0.084817564713490723 0.075143873261256794 -0.084287087769904567 -0.066318737062403474 0.79807482119693585 -0.22287697233182927 0.1490276720426203 0.22576575800020604 0.067812401482089391 -0.07419693661922136 0.11118458265764625 -0.48002955031320405 0.29608821111819494 -0.86429842927029132 -0.19256822101828874 0.18225380476153352 0.14141389862306467 0.23438038647966189 -0.003365617338067995 -0.16012885776453278 -0.13057947081673701 0.1348746272775701 -0.11422892317995149 0.034632526062670164 -0.25307724357288813 -0.046935264080237321 0.1684213979710876 0.2046278827213325 0.23937377327974727 -0.26126328626954931;0.2324755426222076 -0.026534074895396272 -0.30111837971767602 -0.40804928854832689 0.0098654316088192025 -0.12376858903521573 -0.2189755102106471 -0.84296429179353216 0.47244658131412981 0.28660580127010687 -0.64100162536884053 0.08362295880571019 -0.1680972031624961 -0.10291368124601191 0.19174911108649301 -0.41515596242722275 0.31685899064989126 -0.55333045838825645 0.055059770848629681 0.57364827559379072 -0.57341514669607152 0.18949077390600197 0.15434694901665663 0.47544915052993419 -0.4934342943326826 1.2559172607923095 -0.25353813510236051 0.24141462355456167 -0.50845265585332677 -0.26209210401931299 -0.11370664756026597 1.163439854755524 -0.54539659227650539 0.51411349818234642 0.099103717822907389 -1.2135740176350165 0.75747772963715287 0.42684421971357595 -0.46168473848231539 0.16177409843568183 -0.23555364606129525 0.57926536160840725 0.69309530895858706 0.548128167054584 -0.40450007266239324 -0.11292617260252794 0.66106785987809713 -0.52438563354986367 0.094056686344418841 0.39751569818465482 -0.02663693933465806 0.063600909178437109 0.078191595806915384 -0.49908958234568451 0.063996672543952943 0.51267419158533023 -0.17088441785047587 -0.10718764497424935 -1.4451432683666325 0.058357119454444342 -0.33837604508448477 -1.329214517593692 -0.57610812617194962 0.39625208584536059 -0.0069769058069556501 -0.025763622758759947 -1.2226045459260333 0.3698729972517168 0.16721454417262968 0.92684296434885938 1.2858373065834214 0.59531974502794094 0.15836696181509799 -0.56165674197210835 0.15070273940109463 0.14503422370650074 -1.3079362587584074 0.4602392046203363 -0.034690852861508234 0.24638378989003892 0.33300099570857172 -0.39433435142432549 -0.11714626319083031 0.24796795787600789 0.80970120421259373 0.14515063695039659 -0.33447787374358906 0.51356657561099983 0.068125874685283389 0.15682997021432632 -0.27163113828289731 -0.6517723822620004 -0.51283792685222218 0.10049396625184941 -0.21624844945216559 -0.084529442482576642 0.012954616795680253 -0.087394608443830804 -0.14731392144720828 0.49474110406712168 0.070226430603465756 -0.0032910466899935186 0.36201043787399173 -0.17415944912615894 -0.037815492596935112 -0.19186263355572589 0.092774148803439108 -0.21242035026764639;-0.7364434993809299 0.15163102463047309 -0.29243397873395216 -0.12961786836749306 -0.63783846885605777 -0.21901234967940431 -0.21807299461908378 -0.34470848617006339 0.40842450010579356 -0.10760082546417768 -0.51777166818039377 -0.034858498651300515 -0.22350246126573894 -0.22508714894391077 -0.70737581061521604 0.82622784117496362 0.24782430056008567 -0.090923017272773368 0.52911591743230402 0.44685496662704344 0.078307220173889941 0.24366576849517768 -0.40509374915522439 0.21671664505452692 0.168144156821673 -1.3053003824286611 -0.32179163405141264 0.0026386318542801629 0.22974893745091088 0.26164967696557451 0.087768952715876064 0.060919824535346515 -0.47162871005778451 -3.627845518819703 1.2281187262475208 0.33343924563466132 -0.018437200528524642 0.81450862511972189 -0.63294477599107191 -0.74273817739617565 1.220999236891434 -0.58122595897644846 0.092422880881683794 -0.25277087479768773 -0.4166775143457519 0.043285497896515077 0.89734817856353777 0.50504544261056805 -0.10290717030018136 -0.33427827147084138 -0.093076303565898466 -0.0081725657768834011 -0.58906024432605664 0.52906406817548501 -0.059106196582190726 -0.41597042987950544 -0.1540814565328785 1.3561399044018898 -0.18364397058688386 -1.293262636582498 -0.050702501254123546 1.3019586622152919 -0.44916586351964249 0.27499315079950948 -0.021097623395809131 0.18976587571845066 0.20100074211382576 1.8920412554251753 0.81534859692370887 0.12604502637610088 0.31536950789304952 0.14649745201831343 0.042272596326254068 -0.48415644415586823 2.1970941330010882 -0.0053178727261921086 -1.4301461344211668 0.19952078051055405 -0.25723504686881038 0.43950087343552136 -0.074930862351473435 -0.014263163392997781 1.5849164069264781 -0.32067669417617223 -0.48864777025899053 -0.36031896150811049 -0.77985446531085634 0.23089571583925117 1.1795622029635005 1.4503492035258496 -0.64523240350412148 -0.67426070879450306 -0.48690660721280715 0.090806808004151529 0.027341193974389277 -0.0052328834836103304 0.053470682616116781 0.109802742541127 -0.0026540903916129847 0.32749322946764053 0.11764893051297116 0.013879171774729557 0.040472326428530242 0.081208656480651328 